#ifndef CNN_WEIGHTS_H
#define CNN_WEIGHTS_H

#define CNN_FILTERS 8
#define CNN_FLATTEN_SIZE 1352
#define CNN_HIDDEN_SIZE 32
#define CNN_OUTPUT_SIZE 3

// Pesos convolucionales [filtros][3][3]
const float cnn_conv_weights[CNN_FILTERS][3][3] = {
    { // filtro 0
        {-0.90563220f, -0.27952555f, 0.75610691f},
        {-0.14552574f, 0.05385239f, -0.16041900f},
        {0.34296665f, 0.31193972f, 0.01412771f}
    },
    { // filtro 1
        {-0.06609457f, -0.15698399f, 0.02785203f},
        {-0.90618438f, 0.94238394f, 0.16015063f},
        {0.50079590f, -0.18785006f, -0.72011465f}
    },
    { // filtro 2
        {-0.18757376f, 0.73007584f, -0.73417449f},
        {0.59627509f, 0.44647723f, 0.43459919f},
        {0.33454484f, 0.41097194f, -0.36338142f}
    },
    { // filtro 3
        {-0.57647610f, -0.41795462f, -0.92415881f},
        {-0.05442614f, -0.85612202f, -0.33081841f},
        {-0.49984190f, -1.05213344f, -0.76585484f}
    },
    { // filtro 4
        {0.07731166f, 0.14966398f, 0.23001446f},
        {-0.32413101f, -0.13629293f, 0.56094420f},
        {-0.18692957f, 0.80916715f, -0.58715975f}
    },
    { // filtro 5
        {0.48112768f, 0.10045306f, -0.58445883f},
        {0.40491715f, -0.93447816f, 0.15774579f},
        {-0.89407915f, -0.07603121f, -0.55857831f}
    },
    { // filtro 6
        {0.23923445f, 0.45242932f, 0.22539353f},
        {0.02193906f, -0.15116872f, 0.76660836f},
        {-0.40566218f, 0.11176995f, 0.04264225f}
    },
    { // filtro 7
        {0.23784758f, 0.31409249f, -0.50396144f},
        {0.13030986f, -0.72781706f, -0.43136793f},
        {-0.36409962f, -0.13977379f, -0.80250293f}
    }
};

const float cnn_conv_biases[CNN_FILTERS] = {
    -0.00325005f, 0.00199860f, -0.06863794f, 0.00000000f, -0.00673433f, 0.00672293f, -0.03192533f, 0.08339391f
};

// Capa densa: pesos [flatten][hidden]
const float cnn_dense_weights[CNN_FLATTEN_SIZE][CNN_HIDDEN_SIZE] = {
    {-0.04244745f, 0.05725844f, -0.00761859f, -0.07718109f, -0.01733525f, -0.05166163f, 0.05942361f, 0.04442706f, 
     0.04418758f, 0.06921303f, 0.01913134f, -0.05228945f, -0.07771674f, 0.04297045f, 0.07165922f, 0.02452519f, 
     -0.03876797f, 0.01024308f, -0.04929296f, -0.01943896f, 0.00297917f, 0.00390368f, 0.05187671f, 0.03785834f, 
     -0.00543084f, 0.02732118f, 0.01016943f, -0.04439462f, 0.06777879f, 0.02476638f, -0.07753099f, -0.03219264f},
    {-0.04985985f, 0.03150120f, 0.03610387f, -0.04760607f, 0.00714097f, -0.09546147f, 0.00277522f, -0.03076197f, 
     -0.02885868f, -0.00812247f, -0.03740060f, -0.01702243f, -0.04961519f, -0.05927221f, 0.06085612f, 0.02733579f, 
     -0.01986333f, -0.03920411f, -0.06523512f, -0.02521531f, 0.01748465f, 0.00546789f, 0.08164746f, -0.06027655f, 
     -0.02048495f, 0.02545971f, -0.07784548f, 0.00090265f, 0.03425052f, -0.01139297f, 0.04792370f, 0.04056402f},
    {-0.07523915f, 0.02801264f, 0.05798173f, -0.03938491f, 0.03966775f, -0.05676287f, 0.02355086f, 0.07308657f, 
     0.07019722f, 0.06371161f, 0.03786432f, 0.04636017f, -0.04612527f, -0.11475899f, 0.00115581f, 0.05563288f, 
     -0.07805408f, -0.00031981f, -0.04563255f, -0.01212839f, -0.05468682f, -0.06992879f, 0.08074187f, -0.02353655f, 
     0.07519904f, -0.01045390f, 0.04146513f, 0.06003355f, -0.01313798f, -0.00577428f, 0.00487124f, -0.05749594f},
    {0.03290709f, 0.01774221f, 0.00152012f, -0.03574245f, -0.03361038f, -0.00060241f, -0.04731214f, 0.06282571f, 
     -0.00934618f, 0.01405875f, -0.01734610f, 0.01414918f, -0.05052422f, -0.02925763f, 0.01421288f, -0.00379565f, 
     -0.01232050f, 0.03302912f, -0.06633911f, 0.01456778f, 0.03733974f, -0.02774287f, 0.01145692f, 0.01003589f, 
     -0.07233278f, 0.04725588f, 0.01664416f, -0.02654222f, -0.08063523f, 0.03112535f, -0.00273235f, 0.00422135f},
    {0.04569632f, -0.02335909f, -0.00799424f, 0.00805388f, 0.05178526f, -0.07244129f, 0.01736058f, 0.01545893f, 
     -0.08141734f, -0.07498926f, 0.03465846f, 0.03366192f, 0.01228950f, 0.01611742f, 0.04346486f, 0.05606398f, 
     -0.07101677f, -0.06107750f, -0.05948000f, 0.04435358f, -0.03950703f, -0.03761928f, 0.06208344f, -0.08726902f, 
     -0.00579069f, -0.03866981f, 0.06479493f, 0.00185410f, 0.02525485f, 0.09498607f, 0.03082858f, -0.08285389f},
    {-0.07937305f, 0.01031426f, 0.02787323f, 0.03998495f, -0.01896062f, -0.01616173f, 0.01353476f, -0.05338403f, 
     0.04368650f, -0.01853474f, -0.00295016f, 0.00998815f, 0.00998248f, 0.04079960f, 0.10006475f, -0.05642881f, 
     -0.05186028f, -0.03700080f, -0.00637266f, 0.03254944f, 0.00067151f, -0.00718428f, 0.04238217f, 0.00119113f, 
     0.08311767f, 0.09785610f, 0.05628313f, 0.00448036f, 0.00120925f, -0.05371410f, 0.02364613f, 0.02135134f},
    {-0.08331285f, 0.00431614f, -0.02752608f, -0.10141955f, 0.00245832f, -0.00484480f, 0.02643832f, -0.02715681f, 
     -0.03763358f, -0.01936821f, 0.02066844f, 0.07556898f, 0.02316557f, -0.00134401f, 0.06299657f, -0.08189273f, 
     -0.05216768f, -0.03428119f, -0.07000076f, -0.01984409f, 0.04672156f, -0.04533247f, 0.03723734f, -0.04427201f, 
     0.02298769f, -0.02977627f, 0.03833576f, 0.04711962f, -0.00884523f, 0.02787863f, 0.01771626f, -0.04911019f},
    {-0.07800447f, 0.05525831f, 0.03526699f, -0.00670471f, 0.08022864f, 0.05185178f, 0.08153066f, -0.03554297f, 
     -0.08794885f, -0.05143435f, 0.00686214f, 0.05982038f, 0.06778242f, -0.02157043f, 0.03904228f, -0.06809760f, 
     -0.03224229f, -0.07871861f, -0.07127574f, -0.01454959f, 0.06445132f, 0.05924500f, 0.03139702f, -0.04353599f, 
     -0.02905230f, 0.00844089f, 0.04301637f, 0.00264612f, 0.02537457f, -0.01428958f, 0.03110385f, 0.02898291f},
    {-0.04909804f, -0.05398142f, 0.11116337f, -0.05710777f, 0.00868025f, 0.04374377f, 0.07334104f, -0.03132505f, 
     -0.05762199f, 0.05338675f, 0.05635271f, 0.06077707f, 0.02322411f, -0.03450831f, -0.02205793f, 0.07871891f, 
     -0.10449240f, -0.02981249f, -0.07871672f, -0.07086395f, 0.03451558f, 0.00383333f, -0.01939596f, -0.03711082f, 
     -0.02383429f, -0.03971865f, -0.04084567f, 0.04702295f, -0.04709724f, -0.01734391f, 0.07999520f, 0.01824990f},
    {-0.00864531f, -0.00511697f, 0.01640027f, -0.00679416f, -0.03396578f, -0.04124928f, 0.06225919f, 0.02377834f, 
     -0.06617592f, -0.03294383f, 0.00383657f, 0.07180484f, 0.08948336f, 0.08362087f, -0.03793726f, 0.01543506f, 
     -0.00823815f, -0.06900892f, 0.04344157f, 0.03540599f, -0.02764720f, 0.03825103f, -0.00409713f, -0.00629746f, 
     -0.05108772f, -0.00209940f, 0.04437831f, 0.07042178f, 0.02304258f, -0.01564442f, 0.09177031f, 0.00310616f},
    {-0.05978747f, 0.00430718f, 0.01247201f, -0.06036316f, 0.00903118f, 0.04998853f, 0.06429692f, 0.04648921f, 
     -0.09897182f, -0.01053532f, 0.05483302f, 0.00331278f, 0.02760016f, 0.06888139f, 0.05049664f, 0.03308104f, 
     -0.01870265f, -0.06000793f, -0.03397493f, 0.01708991f, 0.01030261f, 0.01035102f, -0.00039483f, -0.04819562f, 
     -0.03533566f, 0.00866180f, -0.02843931f, -0.04030627f, 0.03572258f, -0.01750074f, -0.04392497f, -0.02732147f},
    {-0.00164745f, -0.04268795f, 0.02973854f, 0.00697653f, -0.03736255f, -0.07966750f, -0.00660870f, -0.02234352f, 
     0.00521080f, -0.07398412f, 0.01668609f, -0.01424908f, -0.01048568f, 0.01365129f, 0.02571663f, -0.02176778f, 
     0.00170316f, -0.00934182f, 0.01316569f, 0.00666540f, -0.02092359f, 0.02069437f, 0.01177253f, -0.06662639f, 
     -0.00845204f, -0.00967746f, -0.00571221f, -0.00240898f, -0.05695103f, 0.00974881f, -0.03726852f, 0.05080581f},
    {0.06171539f, 0.00632499f, 0.04554017f, -0.02855417f, 0.01309885f, -0.05920303f, 0.01039836f, 0.02584912f, 
     -0.09456292f, -0.01834687f, -0.05046852f, -0.03722396f, 0.00223415f, 0.05258987f, -0.00767752f, -0.04888519f, 
     -0.00049571f, -0.06194801f, -0.05448932f, -0.00735939f, -0.04551134f, 0.03544588f, 0.05351909f, 0.01376104f, 
     -0.02164433f, -0.00589381f, 0.05941047f, 0.04345615f, 0.02242910f, 0.00325993f, 0.03196043f, -0.00766659f},
    {-0.07626446f, 0.00830439f, 0.01448275f, 0.05694364f, 0.00227369f, -0.05662624f, 0.09141932f, 0.06442076f, 
     0.00642818f, 0.02607372f, 0.02834772f, 0.01556092f, 0.01307147f, -0.01292347f, 0.04936257f, -0.02387979f, 
     0.05065756f, 0.01206327f, -0.01999861f, -0.04366370f, 0.07813711f, 0.00692078f, 0.04583509f, -0.03139637f, 
     -0.02246595f, 0.07436316f, 0.02606486f, 0.02923998f, -0.02515472f, 0.01692683f, 0.06147721f, -0.02150245f},
    {0.03730598f, -0.07013613f, 0.06349190f, -0.00812980f, -0.01385312f, 0.01027483f, 0.06442125f, -0.01280692f, 
     -0.01260473f, -0.02922294f, 0.01248219f, 0.02355552f, 0.05736103f, 0.06377377f, -0.01476516f, -0.02016014f, 
     -0.06751922f, -0.06655285f, -0.06799503f, 0.02018363f, 0.03880380f, 0.00233075f, -0.01651799f, -0.07329183f, 
     0.00855713f, 0.06173750f, -0.03532326f, -0.02709603f, 0.04752630f, 0.02097578f, -0.03435952f, -0.01572260f},
    {-0.11185360f, -0.01656926f, 0.04136719f, -0.01186386f, 0.00670880f, -0.05120770f, 0.01090145f, 0.00133407f, 
     -0.02926025f, -0.07439546f, -0.02705354f, 0.06601355f, 0.00259281f, 0.02639621f, 0.05131573f, 0.03002723f, 
     -0.04407113f, 0.01326439f, -0.02627369f, 0.04857593f, 0.00601208f, -0.04374965f, 0.05177435f, 0.00384317f, 
     -0.05076778f, 0.09146945f, -0.04040008f, 0.03414037f, 0.04692020f, -0.04803986f, 0.00535801f, 0.03581966f},
    {-0.08101663f, -0.01792394f, -0.00695471f, -0.05922653f, 0.03966377f, 0.02484896f, 0.02263667f, -0.04441696f, 
     -0.05012183f, 0.00550418f, -0.02448038f, 0.02662114f, 0.02014356f, 0.01075263f, -0.04666818f, -0.08180956f, 
     -0.00582073f, -0.09001705f, -0.06063193f, -0.08370549f, 0.02981012f, -0.06643971f, 0.02085480f, -0.01494440f, 
     -0.05807903f, -0.04402563f, 0.00860856f, -0.00302502f, 0.02042266f, 0.01708741f, -0.01953108f, -0.00463023f},
    {0.01613986f, -0.01588558f, 0.12565468f, -0.00720746f, 0.05844484f, -0.01133537f, 0.03406522f, 0.05938116f, 
     -0.04269865f, -0.05870914f, 0.03386999f, 0.00757415f, -0.04510012f, -0.07160013f, -0.10854940f, 0.09082873f, 
     0.05540472f, -0.00126682f, 0.04070980f, 0.05634060f, -0.04575922f, 0.04331403f, -0.09978168f, -0.00657523f, 
     -0.04644158f, -0.02091179f, -0.02953080f, -0.02560816f, -0.04704333f, 0.05936406f, 0.02846452f, 0.00813615f},
    {0.03941736f, -0.00358126f, -0.01953324f, -0.05897062f, -0.03400512f, -0.01092284f, 0.02127641f, 0.05624619f, 
     -0.07129852f, -0.02651483f, 0.01285132f, -0.07907508f, 0.05194194f, -0.02526478f, -0.01451165f, 0.02671754f, 
     -0.09467421f, -0.03929802f, -0.03634191f, -0.05225490f, 0.08431756f, 0.00963895f, 0.02931130f, -0.02637722f, 
     0.00169980f, 0.04829933f, 0.01409995f, -0.04834871f, 0.04695483f, 0.07304191f, 0.00018127f, 0.04072350f},
    {-0.02273807f, 0.01770984f, -0.02486228f, -0.06159718f, -0.00100348f, 0.06791206f, 0.02683268f, -0.01126106f, 
     -0.06849664f, 0.01149196f, 0.02393372f, 0.07590717f, -0.02627223f, -0.03238146f, 0.01489370f, 0.06614134f, 
     0.01884726f, 0.03683199f, 0.00702560f, -0.04076681f, 0.04753661f, 0.02206523f, 0.05536531f, 0.03430845f, 
     0.00767585f, 0.00058542f, -0.00627161f, 0.02167937f, 0.03547044f, 0.01784044f, 0.03214377f, -0.01918054f},
    {0.02657492f, -0.02879317f, -0.00494916f, -0.07583657f, 0.02587052f, 0.03159412f, 0.07024898f, -0.08300107f, 
     -0.04016719f, -0.00436270f, 0.01616220f, 0.01482704f, 0.03927714f, 0.05542151f, 0.01889151f, 0.01449156f, 
     -0.02938623f, -0.09889347f, -0.04246619f, -0.02959012f, -0.01275819f, -0.04407407f, 0.00098450f, -0.04312956f, 
     -0.00555562f, 0.00355183f, 0.02142667f, -0.02578213f, 0.01143701f, 0.01088848f, -0.03115837f, 0.02088685f},
    {-0.02253411f, -0.06151694f, 0.04733952f, -0.03044014f, 0.06086988f, 0.05568314f, -0.01437517f, 0.02356548f, 
     -0.09223355f, -0.02979264f, -0.03511775f, 0.09770681f, 0.07632367f, -0.03517356f, -0.03373242f, -0.01816762f, 
     0.00857829f, -0.01278854f, -0.03154903f, 0.02619827f, -0.03649609f, 0.03145723f, 0.00835095f, 0.00760414f, 
     0.00328494f, 0.02858882f, 0.00366628f, 0.02267103f, -0.05337026f, 0.09387482f, 0.06965195f, -0.05465029f},
    {0.02450573f, -0.00977526f, -0.05739345f, -0.04270307f, 0.00621780f, -0.00720072f, -0.00632972f, -0.03094997f, 
     0.00644311f, 0.03815053f, 0.00634305f, 0.02177470f, 0.11944823f, 0.05420601f, -0.01512661f, -0.01480612f, 
     -0.00243915f, -0.00901838f, -0.06743339f, -0.01525510f, 0.02842119f, 0.04541007f, -0.07830257f, -0.05164788f, 
     0.05686384f, 0.04806893f, -0.01387943f, -0.06938592f, -0.06399195f, -0.03180066f, -0.00005237f, -0.00661605f},
    {-0.09525598f, -0.06433114f, -0.01042578f, -0.07428029f, 0.03011613f, 0.09820206f, -0.03279905f, 0.01385210f, 
     -0.07011648f, 0.10079545f, 0.05791844f, -0.01207393f, 0.09307836f, 0.03098091f, 0.08272148f, -0.11608731f, 
     -0.10087632f, 0.00120839f, -0.00510992f, -0.10541249f, 0.05519931f, 0.03591376f, 0.14703874f, -0.03186498f, 
     -0.02334683f, 0.01694798f, -0.00180525f, -0.08464920f, 0.08101913f, 0.00513362f, 0.06792919f, -0.04130734f},
    {0.02863652f, 0.01830537f, 0.00680804f, -0.03669419f, -0.08045102f, -0.07660096f, 0.08673097f, -0.02823603f, 
     -0.05444204f, -0.06054239f, 0.08358096f, 0.07180627f, 0.01807042f, 0.04073961f, -0.01460686f, -0.05347624f, 
     0.03447296f, -0.08412490f, -0.07884612f, 0.03793955f, 0.02681805f, 0.04765755f, 0.01826531f, -0.08695743f, 
     0.10194374f, 0.02569960f, -0.03050274f, -0.04477684f, -0.00162148f, -0.01753458f, -0.00699803f, 0.01548359f},
    {-0.07195147f, -0.08514670f, -0.00493061f, 0.01104950f, 0.03480544f, 0.02407190f, -0.05867417f, 0.07517794f, 
     0.01716064f, 0.00577701f, 0.01608794f, 0.07982529f, 0.07534039f, 0.09061172f, -0.01399320f, 0.02352439f, 
     -0.01340781f, -0.04186393f, -0.08596498f, 0.01550937f, 0.05419662f, -0.03715733f, 0.01663367f, -0.05696528f, 
     -0.01334563f, 0.07760698f, 0.03903886f, 0.02474289f, 0.00308496f, 0.00418297f, 0.01391087f, 0.09975676f},
    {0.01484874f, 0.00758979f, -0.09137222f, 0.04128835f, -0.06639159f, 0.03103476f, -0.01444735f, -0.04351542f, 
     0.01038245f, 0.03331468f, 0.00220899f, -0.02610274f, -0.02066006f, 0.00343980f, -0.00420156f, 0.03511180f, 
     0.01746849f, -0.05777933f, -0.05734515f, 0.02741621f, 0.04807422f, 0.04099417f, -0.09984978f, -0.00466899f, 
     0.06119128f, 0.03345278f, -0.02829704f, 0.00007074f, 0.04797455f, -0.04296010f, -0.01693605f, 0.04153788f},
    {0.01176273f, 0.06169684f, 0.08281260f, -0.02483339f, -0.01911592f, -0.07416359f, 0.07156225f, 0.04607242f, 
     0.01185349f, 0.03819358f, -0.02708071f, 0.02226189f, -0.05985148f, -0.01711760f, -0.03457665f, 0.06530416f, 
     0.00635374f, -0.02081436f, 0.07321348f, -0.00373771f, -0.05341201f, 0.03921824f, 0.02613288f, 0.03882360f, 
     -0.00026569f, 0.06946149f, -0.02561425f, 0.03947501f, 0.03826324f, 0.04333891f, 0.01197002f, 0.03634296f},
    {0.02462929f, 0.04896762f, -0.00700807f, 0.03188007f, -0.11436749f, -0.02713355f, 0.02157126f, -0.03536264f, 
     0.00012037f, -0.01637570f, 0.00817442f, -0.04204321f, -0.08300249f, -0.06222834f, -0.11152964f, -0.03271227f, 
     0.08299746f, -0.02631053f, -0.04207173f, -0.01877820f, -0.00632979f, -0.01117809f, -0.04832647f, 0.02948132f, 
     0.07103848f, -0.00813706f, 0.04578956f, -0.10671546f, -0.05846502f, 0.01719770f, -0.09558298f, 0.10755250f},
    {0.01957100f, -0.00520806f, 0.02462097f, 0.03071304f, 0.00849260f, 0.00149943f, -0.03091816f, 0.01364072f, 
     -0.05722703f, 0.01468869f, 0.03010178f, 0.00628542f, -0.03689881f, 0.00256952f, 0.07769941f, 0.07323074f, 
     -0.00175392f, -0.04685790f, 0.00324033f, 0.00724976f, 0.04798204f, 0.03058604f, 0.02723316f, -0.02324521f, 
     0.02484420f, 0.01956827f, -0.05321294f, -0.00370237f, 0.06057716f, 0.05695669f, 0.01830614f, -0.00456032f},
    {-0.02207018f, -0.06630366f, -0.05039121f, -0.07235385f, -0.09826017f, -0.01771999f, 0.00951145f, -0.06843415f, 
     -0.06166952f, -0.01522700f, 0.01045565f, -0.05689774f, 0.01305689f, 0.01522401f, -0.00434474f, -0.00301152f, 
     -0.06495076f, 0.02504589f, -0.04305606f, -0.01293026f, -0.03368341f, -0.02104672f, 0.02476534f, 0.00807811f, 
     0.02764146f, 0.04791875f, -0.08734912f, 0.01234408f, -0.04596763f, -0.02126550f, -0.03375005f, 0.06089816f},
    {-0.00538537f, 0.00354115f, 0.05655864f, 0.02716620f, 0.08881971f, -0.03322135f, -0.07749606f, -0.01697513f, 
     -0.07012378f, -0.00803561f, 0.07393898f, -0.02666264f, 0.02880388f, 0.02815226f, 0.10643429f, -0.05922729f, 
     -0.04652631f, -0.02944421f, -0.04213862f, -0.11191978f, 0.03299445f, 0.08116619f, 0.03069749f, -0.05135533f, 
     -0.07327228f, -0.00582428f, -0.00806356f, -0.05511942f, 0.01271860f, -0.02137730f, -0.00043052f, -0.13458988f},
    {-0.01401045f, -0.05259637f, -0.01173396f, 0.00843837f, 0.05444410f, -0.00081159f, -0.00092693f, 0.02021401f, 
     0.05560241f, -0.09670128f, 0.05359573f, 0.09095668f, -0.06445032f, 0.03338064f, -0.01320160f, -0.02093112f, 
     -0.04333265f, 0.06763012f, -0.02473600f, -0.02146805f, -0.00415047f, 0.01088079f, 0.01806759f, -0.03845931f, 
     0.04824640f, -0.01355029f, -0.05375758f, -0.03435929f, 0.00145190f, 0.07527254f, 0.02332651f, -0.00160142f},
    {-0.03416157f, -0.08707297f, 0.04740236f, -0.06379754f, 0.12032943f, -0.04659736f, -0.06003959f, 0.03617470f, 
     0.01970832f, -0.08158246f, -0.02328067f, 0.02138920f, 0.02481567f, 0.00238114f, -0.07821368f, 0.00226234f, 
     -0.00312526f, -0.00996942f, -0.03460518f, -0.02561131f, -0.10271148f, 0.01941985f, -0.03756881f, 0.02177631f, 
     -0.07350270f, -0.04102530f, -0.01465364f, 0.02027988f, -0.10150262f, 0.06229123f, 0.10320809f, 0.01361455f},
    {0.00942718f, -0.02716926f, -0.06104284f, 0.00290156f, -0.04973000f, -0.03014816f, -0.00859909f, -0.06522107f, 
     -0.04713360f, 0.02050300f, 0.03064527f, 0.00924390f, -0.01617563f, -0.02820481f, -0.03646692f, -0.08194838f, 
     -0.02346200f, -0.02791447f, -0.00393637f, 0.01624915f, 0.04836722f, 0.06012509f, -0.06173537f, -0.05052030f, 
     -0.01631605f, 0.01327777f, -0.00270442f, -0.03098280f, -0.01414276f, 0.02461520f, 0.03709439f, 0.08756857f},
    {0.02029278f, 0.04867258f, -0.07779713f, -0.01149754f, -0.05587128f, 0.03500769f, 0.06219145f, -0.01177358f, 
     0.02802649f, 0.00776768f, -0.04112037f, 0.00924191f, 0.01445289f, 0.07662001f, 0.01753912f, 0.00452608f, 
     0.02280081f, 0.00475746f, 0.01180377f, -0.01730487f, 0.01994746f, 0.02714679f, 0.00111975f, -0.00259309f, 
     -0.03644111f, -0.02133344f, 0.00201215f, 0.02081641f, 0.04666467f, 0.00069333f, -0.06670603f, 0.08733379f},
    {0.00056540f, -0.09968632f, -0.01482669f, -0.00796916f, 0.03184219f, -0.06868560f, -0.04692123f, -0.01862962f, 
     0.02722190f, -0.00016261f, -0.02866792f, -0.03745477f, 0.02493425f, -0.00044237f, 0.04156384f, 0.03730300f, 
     -0.00099363f, 0.01989850f, 0.01999996f, -0.00766836f, -0.04383343f, -0.04134766f, -0.01350633f, 0.00475412f, 
     0.02990960f, -0.04868004f, -0.04786560f, -0.04136268f, -0.02381041f, 0.09755182f, 0.05057475f, 0.09886055f},
    {0.03031871f, -0.03849790f, 0.07426655f, -0.03312844f, 0.12449812f, -0.00441214f, 0.07381742f, 0.00733927f, 
     -0.02851417f, -0.02625478f, 0.04088841f, 0.04604993f, 0.13292372f, 0.06537119f, -0.01264235f, -0.03771964f, 
     -0.10437486f, -0.07810495f, -0.05466314f, -0.02510371f, 0.06848623f, 0.03794947f, 0.08141942f, -0.11471452f, 
     -0.02444006f, 0.06540933f, -0.01487316f, -0.03808263f, 0.00720136f, 0.03377368f, 0.05773121f, -0.02679844f},
    {0.01833168f, -0.09855691f, -0.06756821f, 0.00178674f, 0.02527132f, 0.05689926f, -0.01400161f, 0.00214967f, 
     0.03797917f, -0.00371254f, 0.02916291f, 0.02458310f, 0.05076885f, -0.05360414f, -0.01159412f, -0.00102286f, 
     0.05241968f, -0.01134496f, -0.05695396f, 0.03462372f, -0.02406559f, 0.05049984f, -0.02148322f, -0.02262069f, 
     -0.02317302f, -0.03535732f, 0.03352595f, 0.03005587f, 0.06645145f, -0.03306099f, 0.08154880f, 0.06378039f},
    {-0.08267779f, 0.00252558f, -0.00210658f, 0.01799908f, 0.01520545f, 0.01268886f, 0.06303207f, -0.01433098f, 
     -0.06970479f, 0.10475627f, 0.04281065f, 0.04484850f, 0.09346267f, 0.04984317f, -0.02631219f, 0.00683735f, 
     0.01702534f, -0.08278004f, 0.01507172f, -0.08427917f, 0.03445345f, 0.03634753f, 0.04529272f, -0.06730403f, 
     -0.00469066f, 0.07403572f, 0.06181738f, -0.05313134f, 0.02735753f, 0.08882074f, 0.06785296f, -0.01684379f},
    {-0.00566304f, -0.03814507f, -0.04464003f, -0.02228436f, 0.04859331f, -0.00734009f, -0.04088830f, -0.05399951f, 
     0.05133887f, 0.01556000f, -0.06797195f, 0.01093347f, -0.01603095f, 0.06735232f, 0.01639070f, 0.01109060f, 
     0.03989293f, -0.00794466f, 0.00930492f, -0.00328954f, 0.01539195f, -0.02704340f, -0.02081767f, -0.02781410f, 
     0.05345583f, 0.00156169f, 0.00679251f, -0.01648534f, -0.04312002f, 0.08866284f, 0.00196795f, 0.03994112f},
    {0.02841021f, 0.01822325f, -0.05011187f, -0.11381520f, 0.11488935f, -0.04295402f, -0.10370965f, 0.03984040f, 
     -0.05905762f, -0.01334150f, 0.01427110f, 0.06105616f, 0.05771793f, -0.04519394f, -0.01286177f, 0.03251605f, 
     0.10134719f, 0.04276320f, 0.14332087f, -0.00847212f, -0.05430193f, 0.03625497f, -0.00093583f, -0.04868016f, 
     0.04113163f, 0.02122096f, -0.06529255f, 0.07480402f, -0.05691871f, 0.12756653f, 0.09242637f, 0.01394410f},
    {0.03764459f, -0.08201432f, -0.03647296f, -0.05403119f, 0.07650232f, 0.04516656f, 0.00588674f, -0.01718537f, 
     0.00808866f, 0.05056698f, 0.03151425f, -0.03573835f, -0.00860610f, -0.03496336f, -0.01505103f, -0.07770045f, 
     0.01481943f, -0.05001028f, 0.03224085f, -0.02201864f, -0.05862201f, -0.02102153f, -0.02831269f, -0.01204380f, 
     0.04646785f, 0.05048580f, -0.07523846f, 0.06511423f, -0.04631949f, -0.04297733f, 0.05838541f, 0.07573188f},
    {-0.01130760f, 0.02468839f, -0.00017171f, 0.06680015f, 0.00751074f, 0.05361316f, 0.06571761f, 0.00006045f, 
     -0.05642739f, 0.02966212f, -0.03019529f, 0.02768799f, -0.02428732f, 0.04007385f, -0.03457186f, 0.02250952f, 
     0.04005899f, -0.00481200f, 0.03584810f, 0.08254129f, -0.06992161f, -0.04753737f, -0.04539507f, 0.03855058f, 
     0.01562988f, -0.06539942f, -0.04127330f, 0.00981616f, 0.04389566f, 0.00240833f, -0.05019613f, -0.07234384f},
    {-0.04225606f, -0.00490040f, 0.00322195f, -0.05775780f, 0.09316324f, -0.00758484f, -0.00775938f, 0.00216094f, 
     0.02223921f, -0.10717537f, -0.04308808f, 0.01290799f, 0.00116236f, 0.01322245f, 0.01958909f, 0.03850097f, 
     0.04694841f, -0.01100661f, 0.03844428f, 0.03184139f, -0.02899438f, -0.01994072f, 0.01024781f, -0.03724142f, 
     -0.00525771f, -0.04459459f, 0.02906652f, 0.08600727f, -0.02123696f, 0.06092939f, 0.06081995f, 0.06606130f},
    {0.02025860f, -0.04124177f, 0.14144814f, -0.08115184f, 0.04724953f, -0.06133855f, -0.04733837f, 0.00736715f, 
     -0.12947543f, 0.01336244f, 0.05133934f, 0.13258107f, 0.12451208f, -0.04660604f, -0.04311415f, 0.06705453f, 
     0.00931898f, -0.03776129f, 0.03303965f, -0.04680709f, 0.01585598f, 0.06357393f, 0.00592337f, -0.03032346f, 
     -0.02793826f, 0.01204611f, -0.02070457f, 0.03685427f, -0.01346271f, 0.02535852f, 0.09431452f, 0.01535058f},
    {-0.05868459f, 0.00089396f, -0.04367732f, 0.06633046f, 0.05339342f, 0.03548596f, 0.00673925f, 0.01615954f, 
     0.10208369f, -0.08934835f, -0.05179351f, -0.05659875f, -0.01370952f, -0.05969905f, 0.01001664f, 0.00894021f, 
     -0.01037425f, 0.02869231f, 0.03057372f, 0.02587191f, 0.01246567f, -0.00927145f, 0.01316592f, 0.05302044f, 
     -0.01313418f, 0.08629663f, -0.05751443f, 0.00982869f, -0.01273366f, 0.09701136f, 0.05233975f, 0.09113256f},
    {-0.00985764f, -0.00388513f, 0.01476514f, -0.07263248f, 0.07310820f, -0.00430333f, -0.05231829f, 0.03731564f, 
     -0.07606141f, 0.08325618f, 0.05631351f, 0.08230021f, 0.08080613f, 0.04081978f, 0.02577310f, -0.02736380f, 
     -0.06038155f, -0.07191219f, -0.07938450f, -0.07340603f, 0.05799221f, 0.02073149f, 0.02542088f, -0.07446855f, 
     -0.04764355f, -0.00273869f, 0.04203408f, 0.00058318f, -0.01062019f, -0.00132065f, 0.07989591f, -0.04649259f},
    {-0.05206243f, 0.01315820f, 0.00636697f, 0.06481469f, -0.01292115f, 0.03067381f, -0.02809257f, 0.03377846f, 
     -0.07253142f, 0.01268124f, 0.02653878f, -0.00085331f, 0.00193900f, 0.02290801f, -0.01084993f, 0.03212957f, 
     0.07432293f, -0.05096383f, -0.03473344f, -0.00887054f, -0.02967612f, 0.01565410f, -0.01630795f, -0.02035724f, 
     -0.04504144f, -0.04873686f, 0.04685580f, -0.00366825f, 0.04531344f, 0.03207178f, -0.01403827f, -0.01570082f},
    {0.03224986f, -0.06850740f, 0.13937761f, -0.05383676f, 0.13878407f, -0.02592223f, -0.02387338f, 0.06771506f, 
     -0.01830060f, -0.01680464f, 0.06272048f, 0.05264314f, -0.00802717f, -0.04326234f, -0.02924587f, 0.06484082f, 
     -0.03006297f, -0.01856042f, -0.01117116f, -0.07732452f, -0.03840876f, 0.01826651f, -0.08103628f, -0.02915797f, 
     -0.12188457f, -0.03117334f, -0.02247199f, 0.05996488f, 0.02714119f, 0.09624182f, 0.07938591f, 0.05578674f},
    {0.01874292f, 0.05962392f, -0.09089264f, -0.02200672f, -0.06228055f, -0.01042348f, -0.04779233f, -0.06353264f, 
     -0.02223090f, -0.05836162f, 0.00429785f, 0.00078798f, 0.02730789f, 0.00658034f, -0.03625035f, -0.03962253f, 
     0.04691468f, 0.07916591f, 0.07565048f, -0.05064542f, -0.00718936f, -0.01026349f, 0.06691531f, 0.06206529f, 
     -0.01405265f, 0.06127360f, 0.01142534f, -0.02818157f, 0.00525740f, 0.01337360f, -0.03161029f, 0.05552702f},
    {-0.05330179f, -0.07260552f, 0.03001872f, 0.01543606f, -0.00646050f, -0.05691569f, -0.03824695f, 0.01835139f, 
     -0.00530339f, 0.04467183f, 0.01384111f, -0.04385763f, -0.06621452f, -0.03996414f, -0.01621148f, 0.08729590f, 
     -0.04895390f, 0.00149776f, 0.04364274f, 0.07562239f, -0.01287967f, -0.01454337f, -0.06093630f, 0.02236322f, 
     0.02152778f, -0.02267331f, 0.05208001f, 0.03828196f, -0.02901232f, 0.01361137f, 0.07071375f, -0.05906673f},
    {0.01770263f, -0.04046237f, 0.06775561f, -0.01712814f, 0.02663973f, -0.01463491f, -0.04406802f, 0.03419691f, 
     -0.02370224f, -0.01518254f, -0.03940789f, 0.05084292f, -0.11505616f, -0.02896707f, -0.11304431f, 0.08157277f, 
     0.11663110f, 0.09948136f, 0.01595153f, 0.03685683f, -0.03028895f, 0.09166602f, -0.04165868f, 0.04668133f, 
     -0.03316838f, -0.01344979f, -0.02226684f, 0.03189500f, -0.06117708f, 0.02287453f, 0.03416963f, -0.03729341f},
    {-0.07223560f, 0.06750180f, 0.02908790f, -0.06036957f, 0.08258285f, 0.03018723f, 0.01267085f, -0.02537792f, 
     -0.00674546f, 0.03433752f, -0.02992519f, 0.02815450f, 0.00907162f, -0.07791260f, 0.04302110f, 0.05115561f, 
     0.04131816f, -0.06599169f, 0.05046342f, -0.04335474f, -0.08033240f, 0.03225251f, -0.06559118f, 0.07298599f, 
     -0.04109279f, 0.03151993f, 0.01743536f, 0.04156853f, -0.01949001f, 0.07996284f, 0.01622954f, -0.06308605f},
    {0.01742135f, -0.03099429f, -0.08199713f, -0.01106096f, 0.02725233f, -0.00354339f, -0.00135830f, 0.00783601f, 
     -0.01996874f, -0.07893533f, 0.04206640f, 0.02317343f, -0.04459694f, -0.04400880f, -0.11199462f, 0.01302692f, 
     0.06357200f, 0.05657497f, -0.00214557f, 0.01278288f, -0.06122744f, -0.01673065f, -0.05166256f, -0.00056818f, 
     0.07743866f, -0.02843148f, 0.00670421f, 0.04742430f, 0.00946198f, 0.01987904f, 0.00913065f, -0.02642347f},
    {-0.11343028f, -0.10369878f, 0.04454487f, -0.13552150f, 0.04077903f, -0.01108328f, -0.00608386f, 0.04524138f, 
     -0.08478522f, 0.02120599f, 0.09522744f, 0.08457396f, 0.08636512f, -0.01953496f, 0.06823981f, -0.05770957f, 
     -0.03743066f, -0.05934393f, -0.12004542f, -0.07923120f, 0.00036160f, -0.03091232f, 0.06192929f, -0.03323153f, 
     -0.11783044f, 0.10723268f, 0.03965187f, 0.01921562f, 0.02306607f, 0.05595097f, -0.00202409f, 0.00954251f},
    {0.03620534f, 0.00341677f, 0.00030169f, -0.03495507f, 0.00266299f, -0.05839053f, 0.04098917f, 0.05404308f, 
     0.04949069f, -0.07552221f, -0.00774968f, 0.03391647f, -0.01630221f, -0.02427061f, -0.05190771f, 0.04712588f, 
     0.02865472f, -0.00784060f, -0.01470566f, 0.02079412f, -0.02128518f, -0.03904029f, -0.00632617f, -0.02376762f, 
     0.04081984f, 0.05261877f, -0.03123713f, 0.02919089f, 0.06357316f, -0.02179680f, -0.08195110f, -0.01883976f},
    {0.02828896f, 0.07252418f, 0.02785968f, 0.05365945f, 0.08672512f, -0.02294038f, -0.12806581f, 0.08016833f, 
     -0.02749561f, -0.08036771f, -0.08603910f, 0.09762258f, -0.02081751f, -0.07517100f, -0.05139312f, 0.11199917f, 
     0.15069054f, -0.02289518f, 0.04563485f, 0.01310194f, -0.10545569f, 0.07577854f, -0.07571035f, 0.00287289f, 
     -0.00692050f, -0.03772622f, -0.03885451f, 0.09645317f, -0.14561309f, 0.02862337f, 0.06197623f, -0.00954279f},
    {0.01071277f, -0.00189925f, 0.02230981f, -0.02235433f, -0.00257290f, 0.01498418f, -0.03628127f, -0.01132553f, 
     0.03112876f, -0.01846137f, -0.00184187f, -0.04515728f, 0.00188759f, -0.00991044f, -0.01003417f, 0.01624349f, 
     0.01245588f, -0.04539830f, -0.04156351f, 0.01909369f, -0.06279863f, -0.02533066f, 0.01123850f, 0.01107572f, 
     -0.03183936f, -0.02514277f, -0.01491340f, -0.05941331f, -0.04940939f, -0.03087281f, -0.05692904f, -0.00092894f},
    {0.00561138f, 0.00563083f, -0.06275202f, -0.04307035f, 0.01157421f, 0.00828845f, -0.00501190f, 0.02756507f, 
     0.06832609f, 0.02705360f, 0.02729647f, 0.00529731f, 0.01191483f, -0.01190705f, 0.00535600f, 0.02743764f, 
     0.06239133f, -0.02636875f, -0.03858948f, 0.00734624f, 0.07362775f, -0.01368462f, 0.01730045f, 0.01666312f, 
     -0.00988041f, 0.00248579f, 0.05841914f, 0.05030024f, -0.02741272f, 0.01154912f, -0.05165616f, -0.01996009f},
    {0.11941187f, -0.02868898f, 0.01433713f, 0.06880172f, -0.06976164f, -0.05887321f, -0.02916277f, -0.00033107f, 
     0.03950242f, -0.05815345f, -0.09154199f, -0.01207769f, -0.06884822f, -0.02509088f, -0.11447022f, -0.00434735f, 
     -0.01828512f, 0.06733362f, -0.01701967f, -0.00862287f, -0.08639362f, 0.04573248f, -0.04199437f, -0.04922583f, 
     -0.02886166f, -0.00644498f, -0.01519428f, -0.00774550f, -0.04930795f, -0.02896690f, -0.02714019f, 0.09478366f},
    {-0.11313884f, -0.00985680f, 0.00504300f, -0.02648471f, 0.03475825f, 0.01168422f, 0.00262335f, 0.07847587f, 
     -0.04685890f, 0.00218138f, 0.09213812f, 0.07409839f, 0.10689580f, 0.09385563f, 0.00618465f, -0.04457633f, 
     0.02151734f, 0.00084945f, 0.04964481f, -0.00502225f, 0.09758393f, 0.03071802f, -0.01551413f, -0.00317195f, 
     -0.11838748f, 0.04132070f, 0.04130766f, 0.02526432f, 0.07418202f, 0.00343656f, 0.05627536f, -0.08196360f},
    {0.01388325f, -0.02152661f, -0.02872297f, -0.01401453f, 0.05526837f, -0.06756522f, -0.01833252f, 0.04491528f, 
     0.02310111f, -0.06759774f, -0.08001978f, 0.02549264f, -0.06006894f, -0.09052923f, -0.09592685f, 0.01428230f, 
     0.01711980f, 0.01043643f, -0.00202549f, -0.00574871f, -0.02444053f, -0.02815079f, -0.00351306f, 0.02875050f, 
     0.00404607f, -0.06857710f, -0.06475800f, -0.00592409f, 0.01267654f, -0.03961784f, 0.01171849f, 0.05709394f},
    {-0.01568303f, 0.02121776f, 0.01863993f, -0.03306883f, 0.07422305f, 0.04208853f, 0.02993562f, -0.00477499f, 
     -0.08427848f, 0.02829328f, 0.08466490f, 0.14166756f, 0.12633638f, 0.03425011f, 0.02384892f, -0.00748135f, 
     -0.04160348f, -0.04991005f, -0.11272292f, -0.04123887f, 0.03967845f, 0.06733450f, 0.03871653f, -0.06801909f, 
     -0.05076894f, 0.11059923f, -0.02764483f, -0.05155950f, 0.06891241f, -0.07457479f, 0.13860156f, -0.01696241f},
    {0.05330331f, -0.01683626f, -0.02164219f, -0.00714022f, 0.01863021f, -0.04674209f, 0.02880115f, 0.06936028f, 
     -0.00536745f, 0.06099066f, 0.03624818f, 0.01427698f, -0.01435843f, 0.03454363f, -0.04583814f, -0.03161849f, 
     0.08413920f, 0.05949556f, 0.00493884f, -0.01095654f, -0.03231843f, 0.05414527f, -0.02560562f, -0.07532500f, 
     0.05947160f, -0.02272063f, -0.05094756f, 0.05223759f, -0.01360007f, -0.00305425f, 0.02602560f, -0.00556134f},
    {0.06086494f, -0.01597640f, 0.11512619f, -0.05329407f, -0.01128950f, -0.02568234f, -0.04708670f, 0.08098461f, 
     -0.06011145f, -0.07455274f, -0.05283249f, 0.07774729f, -0.03744050f, -0.08004183f, -0.16710997f, 0.09445474f, 
     0.05083692f, 0.00491765f, 0.06250133f, -0.04130339f, -0.12464129f, 0.09167727f, -0.09895986f, 0.01236803f, 
     -0.05353507f, 0.01095424f, -0.09207370f, 0.11597626f, -0.03831787f, 0.03212287f, 0.05141150f, -0.05094387f},
    {0.02552956f, 0.05213448f, -0.00068067f, 0.00634550f, -0.03515187f, 0.04191788f, 0.05144809f, 0.09242485f, 
     0.00996956f, 0.01326285f, 0.01580873f, -0.00221341f, 0.04527334f, -0.03153263f, -0.02385096f, -0.01125739f, 
     0.05712638f, -0.00570059f, 0.01874716f, 0.00292330f, 0.02292532f, 0.00836514f, 0.03601646f, 0.07962214f, 
     0.01041722f, -0.06981665f, 0.00571068f, 0.05543490f, -0.01538591f, 0.00764161f, -0.03207209f, 0.03752002f},
    {0.00601567f, -0.06503485f, -0.05424650f, 0.05908922f, -0.00229550f, 0.01333516f, 0.02237679f, -0.03704038f, 
     0.01216409f, 0.03697854f, -0.00836540f, -0.06647834f, -0.02813972f, -0.00889450f, -0.04853533f, -0.02505886f, 
     0.00397292f, 0.03844996f, -0.05893004f, 0.01766969f, 0.01974451f, 0.03864629f, -0.06664439f, -0.05876719f, 
     -0.08407459f, 0.07288286f, -0.00325455f, -0.03522322f, 0.01965390f, 0.02559231f, -0.00298566f, 0.01103232f},
    {0.01170426f, -0.02129678f, 0.03606719f, 0.01527894f, 0.04128535f, -0.06872992f, -0.02879981f, 0.08328090f, 
     0.03379178f, -0.01904733f, -0.00647515f, 0.03638944f, -0.06776595f, -0.05439581f, -0.09849589f, 0.07713071f, 
     0.10091268f, 0.02731656f, 0.04695106f, -0.01921600f, -0.02945154f, 0.03694237f, 0.02589782f, -0.02307127f, 
     0.00185605f, 0.04328374f, -0.04050343f, 0.01692473f, -0.05002075f, 0.02074404f, 0.02404533f, -0.07208859f},
    {0.01128628f, -0.01883539f, 0.09587703f, -0.07703426f, -0.00539236f, -0.06645110f, 0.01467369f, -0.02526026f, 
     -0.08120134f, 0.00766611f, 0.08482832f, 0.01274475f, 0.06357569f, 0.01668340f, 0.07496298f, -0.04294797f, 
     0.00411701f, -0.06645540f, -0.02241395f, -0.03650744f, 0.01453370f, -0.03383775f, 0.00615187f, -0.00607562f, 
     -0.02786849f, -0.00721644f, -0.03553926f, -0.05691899f, 0.04754087f, 0.03938097f, 0.05732037f, 0.02171416f},
    {0.05373518f, 0.05086730f, 0.05783905f, -0.02147356f, -0.02000316f, -0.01149933f, -0.01206716f, 0.06042316f, 
     0.02028695f, -0.03664231f, -0.02765988f, 0.00382212f, -0.06182307f, 0.00581832f, -0.05445283f, 0.03586340f, 
     0.02583207f, 0.03079721f, 0.08628785f, 0.02612945f, -0.01873051f, -0.04705471f, 0.00580858f, 0.05628014f, 
     -0.05379407f, -0.06044985f, -0.04246435f, 0.03331194f, -0.01444534f, -0.06570178f, -0.05608542f, 0.00555504f},
    {-0.08617777f, -0.05652623f, 0.08482466f, -0.03401812f, 0.05872497f, 0.04230243f, -0.01228428f, -0.00747968f, 
     -0.03977047f, 0.05811854f, -0.00782217f, 0.06979311f, 0.07086011f, 0.02892901f, 0.09337290f, -0.02118877f, 
     -0.10835600f, -0.05722133f, -0.07918768f, -0.00570522f, 0.14121702f, -0.02059722f, 0.03490634f, -0.07111448f, 
     -0.05411545f, 0.10222404f, -0.03076590f, -0.01841021f, 0.02401349f, -0.04189216f, 0.01964610f, -0.00889878f},
    {0.01200732f, -0.02845271f, 0.04036435f, 0.04268216f, 0.00577203f, -0.00004398f, -0.02113516f, -0.05954563f, 
     0.03263332f, -0.00635538f, 0.02766094f, 0.04457767f, -0.01639877f, -0.05362068f, -0.03131911f, -0.02563438f, 
     -0.00492451f, 0.05768476f, -0.02670918f, -0.04057163f, 0.02909923f, -0.05088602f, 0.00402117f, -0.03003755f, 
     0.03042116f, 0.00159809f, -0.05106666f, 0.01856105f, -0.05449535f, 0.06516104f, -0.02734161f, 0.01087381f},
    {0.03911484f, -0.02796842f, 0.12525260f, -0.01797927f, -0.01225779f, -0.00828949f, -0.02166467f, 0.05930124f, 
     0.01687334f, -0.02132322f, -0.03414084f, 0.06830510f, 0.09812203f, 0.02334035f, -0.04592991f, -0.04850029f, 
     0.07561763f, 0.04129475f, 0.08447292f, -0.02319058f, -0.02602405f, -0.07686390f, -0.01499837f, -0.00447661f, 
     -0.00195160f, 0.05676101f, 0.00716929f, 0.02253843f, -0.04329724f, 0.06080682f, 0.07026479f, 0.01316496f},
    {0.08031634f, 0.01383722f, -0.05017714f, 0.01685078f, -0.02127673f, -0.04788425f, -0.02478531f, 0.03627114f, 
     0.05667937f, 0.02839376f, 0.00903051f, 0.05271288f, -0.02479279f, 0.00258345f, 0.01922039f, -0.00076607f, 
     -0.05517907f, -0.00921724f, 0.03399882f, 0.07497838f, -0.01264894f, -0.03578208f, 0.01291670f, -0.03397902f, 
     -0.02380870f, -0.04170525f, 0.03269726f, -0.00715675f, 0.03104394f, 0.03636399f, -0.03060762f, -0.03683525f},
    {-0.04198061f, -0.02391114f, 0.03930552f, -0.06669194f, -0.04238449f, 0.01514672f, -0.02539881f, -0.05216242f, 
     -0.03546153f, 0.02849155f, 0.00966932f, -0.03438909f, 0.01453795f, 0.02418596f, -0.01076597f, -0.01862039f, 
     0.04969880f, 0.06324519f, 0.03013581f, 0.01179535f, 0.03563852f, -0.05499357f, -0.06143769f, 0.01938016f, 
     0.02774022f, -0.06547999f, -0.02348867f, 0.05686214f, 0.08432385f, -0.03665809f, 0.02885333f, 0.00530414f},
    {0.04006957f, 0.04883216f, 0.03904322f, 0.04497858f, 0.07769990f, 0.03728643f, -0.03993633f, 0.06918270f, 
     0.03089816f, -0.10218733f, -0.06663992f, 0.03572106f, -0.01444149f, 0.00122421f, 0.00659641f, 0.03373775f, 
     0.01202080f, 0.00608619f, 0.08627307f, -0.02095000f, -0.07041791f, -0.03570637f, 0.00425632f, -0.06360496f, 
     0.06655262f, 0.05405708f, -0.00910158f, 0.03516231f, -0.06430774f, -0.03682878f, 0.02140665f, -0.04538945f},
    {-0.06216564f, -0.02742842f, 0.07133895f, -0.00881742f, -0.01938560f, 0.02501031f, -0.00061009f, -0.07173843f, 
     -0.04679943f, -0.02168976f, 0.06662986f, 0.06407190f, 0.02570043f, -0.03081272f, 0.03350128f, -0.01911858f, 
     0.01504019f, -0.03973682f, -0.01023947f, -0.04127954f, 0.03744901f, 0.04581748f, 0.03332621f, 0.06497546f, 
     -0.07476009f, 0.08797012f, -0.02429971f, 0.01449734f, -0.01783084f, 0.02185557f, 0.05903147f, -0.08033996f},
    {0.04604672f, 0.00913780f, -0.00035816f, -0.07518657f, 0.03433932f, -0.05258477f, -0.02993340f, 0.02431989f, 
     0.01251178f, 0.00742820f, -0.02698581f, -0.03013916f, 0.00472948f, -0.06668486f, -0.01309283f, 0.08754992f, 
     0.04431420f, 0.01711193f, 0.03038228f, 0.01150967f, 0.02474200f, 0.01189210f, -0.00049582f, 0.01945385f, 
     0.00034275f, -0.04412060f, -0.01220968f, 0.03623463f, 0.00451101f, 0.02326030f, -0.03280334f, 0.06097960f},
    {0.04005666f, -0.00612226f, 0.08530021f, -0.01990690f, 0.12097504f, 0.01233004f, -0.08177661f, -0.00002494f, 
     -0.02985875f, 0.05146407f, 0.08562715f, 0.03029441f, 0.04275519f, 0.00382570f, 0.01827190f, -0.04048648f, 
     -0.05950551f, -0.13718364f, -0.06432762f, -0.02273839f, 0.03961548f, 0.02570403f, 0.02244699f, -0.05788451f, 
     -0.06697039f, 0.06975155f, 0.00582936f, 0.03875847f, 0.02568829f, 0.01452116f, 0.06493352f, -0.07749321f},
    {-0.00414402f, 0.04884978f, 0.00830385f, 0.07700350f, 0.04072130f, -0.03049386f, 0.04563106f, 0.00719586f, 
     -0.01285618f, 0.05085247f, -0.00318401f, -0.02668894f, -0.03661181f, 0.02569628f, -0.02021522f, -0.02118123f, 
     -0.04499989f, 0.02292683f, 0.04972361f, 0.05612116f, -0.01331532f, 0.04920495f, 0.04677003f, 0.07830161f, 
     0.00919765f, -0.03197220f, 0.01565248f, -0.02500346f, 0.01756253f, -0.02370837f, -0.02574946f, 0.01312501f},
    {0.06987511f, 0.06911200f, 0.05712189f, 0.02870749f, 0.01182316f, -0.04649225f, -0.06295513f, -0.06858198f, 
     0.06609733f, 0.01617038f, -0.07359438f, 0.08650644f, -0.00201145f, -0.02963851f, -0.05765973f, 0.05983457f, 
     0.12179877f, 0.04459593f, 0.04394286f, 0.03261091f, -0.12427995f, -0.02574250f, -0.04523221f, -0.01414151f, 
     0.05362924f, -0.07827977f, -0.01575691f, 0.07611252f, -0.12160473f, 0.06232381f, -0.00118460f, 0.02278708f},
    {-0.06967358f, 0.00384241f, -0.01417021f, 0.03189195f, -0.01893946f, -0.00776321f, -0.05000930f, 0.04344872f, 
     -0.09303370f, 0.00794515f, 0.06741202f, 0.02034049f, 0.04371279f, -0.04877308f, 0.02981965f, 0.03666789f, 
     -0.01900434f, 0.01478473f, -0.02121785f, -0.06911131f, 0.04398121f, -0.02324192f, -0.00619032f, -0.03111274f, 
     -0.02027848f, 0.02080837f, -0.05325401f, -0.05054673f, -0.02087320f, 0.05037577f, 0.00693297f, -0.02018633f},
    {0.05386485f, -0.05041458f, -0.00050506f, -0.04575800f, -0.00866107f, -0.00189712f, -0.00443594f, -0.03264718f, 
     0.06018269f, 0.03776049f, -0.01345960f, 0.00750904f, -0.01744322f, 0.08552732f, 0.05654775f, 0.02763600f, 
     0.04516442f, -0.02510035f, 0.00090709f, 0.02379853f, 0.04248647f, -0.01167406f, 0.02737369f, 0.06368913f, 
     0.01033662f, -0.04644929f, -0.07980861f, 0.06773937f, 0.03279769f, 0.00217777f, -0.03710163f, -0.02889498f},
    {-0.02407737f, 0.04065242f, 0.02145107f, 0.02622275f, -0.04192614f, -0.02186776f, -0.01365452f, 0.01694445f, 
     0.00122852f, 0.02078996f, -0.07730485f, -0.04610069f, -0.11854397f, -0.04522801f, -0.00638645f, 0.01563180f, 
     -0.03528523f, 0.00633925f, 0.03444839f, 0.01291542f, -0.04376624f, 0.02942639f, -0.03731550f, -0.05876822f, 
     0.08178408f, -0.04255857f, -0.02457276f, 0.05199451f, 0.02057938f, 0.02161722f, 0.01317591f, 0.04412404f},
    {0.07751275f, -0.05321178f, 0.07218628f, -0.02327663f, 0.05985733f, 0.02961381f, 0.01079154f, 0.02681953f, 
     0.04233651f, -0.04941934f, -0.04151960f, 0.08618937f, -0.01510269f, -0.02161905f, -0.07019753f, -0.05723169f, 
     0.06402744f, -0.00761636f, 0.02624311f, 0.01568228f, 0.05206914f, 0.09161343f, -0.04261537f, -0.03364687f, 
     -0.02542584f, 0.02465392f, 0.01642438f, 0.08983674f, -0.01091931f, -0.00497428f, 0.00876639f, 0.03949684f},
    {-0.01451078f, 0.05566681f, 0.03259693f, -0.03826218f, 0.09315626f, -0.04764625f, -0.09902390f, 0.03791744f, 
     0.03999628f, -0.00338648f, -0.04988932f, 0.09038026f, -0.04003967f, -0.00737990f, 0.04255966f, -0.05971391f, 
     -0.03170909f, -0.04610922f, -0.02816909f, -0.01400925f, -0.05122068f, 0.08266233f, 0.00964491f, 0.06696258f, 
     -0.03605632f, -0.02670584f, -0.06925913f, 0.01694156f, 0.02054277f, 0.05522479f, 0.07214337f, -0.05456869f},
    {-0.09095503f, -0.06931732f, 0.07531942f, -0.03330971f, 0.07261032f, 0.06381375f, -0.02515706f, 0.10306630f, 
     -0.00613220f, 0.01685353f, 0.07088971f, 0.01793686f, 0.05891552f, 0.08029386f, 0.00966474f, -0.08070973f, 
     0.03164757f, -0.01222411f, -0.01777858f, -0.04258112f, 0.01030198f, 0.09284523f, 0.05017023f, -0.06859965f, 
     -0.04891156f, 0.10689821f, 0.03017610f, 0.02465276f, 0.00040004f, 0.00874807f, 0.15131518f, -0.00361979f},
    {0.00810724f, 0.03416327f, -0.00146880f, -0.02943994f, -0.03036129f, -0.08970639f, 0.02214426f, 0.01799639f, 
     0.03188145f, 0.01828024f, 0.06260360f, 0.05404717f, -0.00458991f, 0.04234781f, 0.07452568f, -0.05475831f, 
     0.03635496f, -0.04031412f, 0.00007604f, -0.04290497f, -0.00458305f, 0.01692727f, -0.01786105f, -0.07048983f, 
     -0.05729861f, -0.01957992f, 0.02606347f, 0.00673220f, 0.09828933f, 0.06073771f, -0.01215391f, 0.08688215f},
    {0.01309417f, 0.05334184f, 0.10508299f, 0.01958310f, 0.01455258f, -0.07428805f, -0.06665290f, 0.00050847f, 
     -0.02032258f, -0.02165163f, 0.05347085f, 0.07794973f, 0.03198855f, -0.07499211f, -0.01778264f, -0.02889304f, 
     -0.02113354f, -0.00109932f, -0.01923153f, 0.03530520f, -0.08131544f, 0.08692572f, -0.01337640f, -0.04068739f, 
     -0.03224006f, 0.04946225f, -0.00187886f, 0.05074963f, 0.03196927f, 0.02171602f, 0.01210678f, 0.08151127f},
    {0.01585101f, -0.02788066f, 0.03330984f, 0.00145552f, 0.02377262f, -0.02411907f, 0.04977016f, -0.02154706f, 
     -0.08585244f, -0.02123301f, -0.01097122f, 0.04817289f, 0.06851991f, 0.05683650f, 0.06480034f, -0.03583307f, 
     -0.12751547f, 0.00418920f, 0.01888363f, 0.00548576f, 0.06643247f, -0.00238033f, 0.04420228f, -0.08325560f, 
     -0.05435106f, 0.01672473f, -0.01551673f, -0.02196602f, -0.01207281f, 0.06899790f, 0.01401374f, 0.02951403f},
    {-0.02012250f, 0.04001495f, 0.00748219f, -0.00778576f, 0.00079784f, -0.02457744f, -0.04796763f, -0.04635122f, 
     -0.03260371f, 0.03189236f, 0.08327243f, -0.07946357f, -0.06502470f, -0.00844787f, -0.02154574f, -0.00025153f, 
     0.00828947f, -0.03603220f, -0.01832607f, -0.03233947f, 0.06843296f, 0.01286430f, -0.01355332f, -0.03483050f, 
     -0.07065956f, 0.03440737f, 0.05085764f, -0.07688587f, 0.04966795f, -0.02359384f, 0.00652709f, 0.00465157f},
    {-0.00667196f, -0.07401128f, 0.10826094f, -0.03485834f, 0.01990046f, -0.08344964f, 0.01254562f, 0.06933452f, 
     -0.01464989f, 0.01449343f, 0.00945298f, 0.08014941f, 0.01667272f, 0.00329367f, 0.06914321f, -0.01155181f, 
     0.03291224f, -0.08355815f, 0.01710044f, -0.05147034f, -0.05202819f, -0.00863213f, -0.02594197f, 0.01577631f, 
     0.01391083f, -0.05854867f, -0.08039239f, 0.01370971f, -0.03315126f, 0.13396238f, 0.04369184f, -0.01900148f},
    {0.00525047f, -0.02398636f, 0.03878753f, -0.00112836f, 0.12885201f, -0.10835695f, 0.04821426f, -0.00111572f, 
     -0.02056878f, -0.07578067f, -0.02651464f, 0.00936897f, 0.05049646f, -0.05433701f, -0.05683961f, 0.10864230f, 
     -0.01063401f, 0.05722125f, 0.00480617f, -0.01694225f, -0.02292611f, -0.00208805f, -0.03125913f, 0.03337779f, 
     -0.08003582f, -0.02962145f, 0.03972131f, 0.09781878f, -0.04719277f, 0.10098239f, 0.08652274f, 0.05390035f},
    {-0.00824665f, -0.09173191f, 0.03035582f, -0.01647910f, 0.03339899f, -0.05458764f, 0.06949124f, 0.06817549f, 
     -0.06093262f, -0.06691936f, 0.05013674f, 0.01854113f, 0.05782708f, 0.01235421f, 0.00460701f, 0.02730351f, 
     0.03033179f, -0.08659527f, -0.04529626f, -0.06389859f, 0.06109301f, 0.04789774f, 0.05036860f, -0.06275553f, 
     0.05278442f, -0.03637069f, 0.03701374f, 0.00402817f, 0.04926311f, 0.08764784f, 0.03476899f, 0.08461919f},
    {0.00378450f, 0.00863967f, 0.04292874f, 0.02708582f, 0.04635793f, -0.07438181f, -0.00730796f, 0.02831003f, 
     0.01960055f, 0.01379792f, 0.06860947f, 0.01229723f, -0.02483077f, 0.01744352f, 0.06238037f, -0.05294661f, 
     -0.03218897f, -0.04831871f, -0.02954128f, 0.01198717f, 0.07496750f, 0.03856398f, 0.09123459f, 0.05107557f, 
     -0.06513331f, 0.09907170f, -0.04286090f, 0.02923062f, 0.02927389f, 0.03616203f, 0.08654246f, 0.02789881f},
    {0.00066569f, -0.07866510f, 0.00711493f, -0.07895213f, -0.05644834f, 0.07058434f, 0.08434975f, -0.03006696f, 
     0.00433719f, 0.03761914f, 0.01760173f, -0.01502210f, 0.11465508f, 0.00433985f, 0.02537652f, -0.01057228f, 
     -0.07927487f, -0.01124409f, -0.06893579f, 0.02852673f, -0.02519509f, 0.01435448f, 0.03258077f, -0.04627034f, 
     -0.11761130f, -0.06300365f, 0.09195169f, 0.01498003f, 0.01780926f, -0.07784746f, -0.03421028f, 0.03753071f},
    {0.03868967f, -0.09794765f, 0.03091649f, 0.00062062f, -0.00787746f, -0.01737440f, 0.03288635f, -0.01668577f, 
     0.00581893f, 0.02113937f, 0.04947918f, -0.04402376f, 0.03002550f, 0.05866232f, 0.04612340f, -0.00526806f, 
     -0.08195757f, 0.03186210f, 0.00695140f, 0.04707953f, 0.04970237f, -0.06994762f, 0.00759395f, -0.04394310f, 
     0.01426288f, -0.05594380f, 0.04286611f, -0.01217559f, 0.00781262f, 0.01863730f, 0.00235945f, 0.00225302f},
    {-0.03085683f, -0.01640347f, 0.01340322f, -0.02576939f, 0.04069910f, -0.01928008f, 0.06345366f, -0.02197049f, 
     -0.01489304f, 0.01088776f, 0.06428750f, -0.04840209f, 0.04447961f, 0.01152991f, 0.08026655f, 0.02341056f, 
     -0.05681589f, -0.01677403f, 0.01469921f, -0.08788837f, 0.02018380f, -0.00031159f, 0.11299902f, -0.04020748f, 
     -0.03495922f, 0.02298082f, 0.03293186f, 0.06698153f, 0.06943782f, -0.04041669f, -0.05668025f, -0.01067298f},
    {0.02343007f, -0.07780197f, 0.05267891f, -0.03892526f, 0.04497229f, 0.04867899f, -0.03866746f, 0.05266418f, 
     0.01380059f, -0.03673515f, -0.02344294f, -0.03380548f, -0.07296168f, -0.01545569f, 0.04231370f, 0.01861475f, 
     -0.05720805f, 0.02195685f, -0.06714165f, -0.01317252f, 0.02751148f, -0.03437920f, -0.08289906f, -0.00022591f, 
     -0.06128870f, 0.04491479f, -0.01033316f, -0.02194043f, 0.02627321f, 0.06805760f, 0.07189948f, 0.04978790f},
    {-0.06026308f, -0.01834143f, -0.05293440f, -0.04098467f, 0.01539690f, -0.01654957f, 0.07658897f, -0.04069516f, 
     -0.10359984f, 0.09882345f, 0.09586407f, -0.00109975f, -0.02248669f, 0.04987419f, 0.01381519f, -0.02984592f, 
     -0.06736051f, -0.03320120f, 0.06431925f, -0.02716239f, 0.07804530f, -0.02602977f, 0.02574409f, -0.00014765f, 
     -0.04712533f, -0.04575805f, -0.01753425f, -0.02856907f, 0.01356240f, 0.02934068f, -0.04044602f, 0.04979752f},
    {0.05082484f, -0.02297091f, 0.03831283f, 0.03015930f, 0.00273956f, -0.04612836f, -0.00446904f, 0.06446740f, 
     -0.01616803f, 0.03851993f, 0.05019024f, 0.03840065f, 0.08585662f, 0.06006770f, 0.06505463f, -0.08100364f, 
     0.02846045f, -0.07636071f, -0.05134903f, 0.03301112f, 0.02199089f, 0.05930483f, 0.05357616f, 0.02510581f, 
     0.03036580f, -0.01026445f, 0.02875585f, 0.00344051f, 0.09579014f, 0.02437653f, 0.06577846f, 0.08588760f},
    {-0.02191429f, 0.00672632f, 0.10474035f, 0.02127947f, -0.05156973f, 0.00317948f, -0.02283522f, -0.00981470f, 
     -0.01435420f, -0.02783241f, 0.01910892f, -0.02398844f, -0.00183538f, 0.00111144f, 0.06271224f, 0.01026566f, 
     -0.10078926f, -0.01940466f, -0.00919350f, -0.01207800f, 0.04442187f, -0.05189669f, 0.02951811f, -0.10048172f, 
     -0.09968009f, -0.08351621f, -0.03302392f, 0.01469810f, 0.00977361f, 0.02822259f, 0.00606426f, 0.02978330f},
    {-0.01869337f, -0.05390137f, 0.03690926f, -0.08682840f, -0.02222750f, -0.03621069f, 0.07981803f, 0.01832168f, 
     -0.02333716f, 0.10430829f, 0.06996322f, 0.05013165f, 0.05373322f, 0.05504301f, 0.09106871f, -0.02245335f, 
     -0.09384432f, -0.00526302f, -0.08515280f, -0.08180394f, 0.06406552f, 0.00176389f, 0.03244600f, -0.03749670f, 
     -0.05448783f, 0.11329437f, 0.04639005f, -0.00418894f, 0.08595241f, -0.04847683f, 0.02095520f, -0.10522249f},
    {0.04487118f, 0.07310846f, 0.01613376f, -0.06475272f, -0.00310933f, -0.03210188f, -0.01890669f, 0.01386681f, 
     0.01882827f, -0.02787226f, -0.05132670f, 0.10140216f, 0.00210916f, -0.00032563f, 0.02654984f, -0.07042523f, 
     -0.02386246f, -0.08974385f, 0.05224398f, 0.02671238f, 0.00922009f, -0.00018194f, -0.03927865f, -0.10013202f, 
     -0.06135987f, 0.00961799f, 0.00711428f, 0.07229581f, 0.05275582f, 0.00779623f, 0.08558509f, 0.01004602f},
    {-0.01335176f, 0.04833717f, 0.09256625f, 0.04464665f, -0.00970796f, -0.00478747f, -0.03075359f, -0.03451540f, 
     0.01161842f, 0.02450234f, 0.00478201f, 0.08215636f, -0.02361084f, 0.03108403f, 0.05230878f, -0.05949469f, 
     0.03663965f, -0.00280578f, 0.00719922f, -0.00064180f, -0.01295573f, 0.02202087f, 0.00197782f, -0.04957741f, 
     -0.01329827f, 0.02579365f, -0.02315949f, -0.00148939f, -0.01552130f, -0.00603165f, -0.02740465f, -0.04086510f},
    {-0.00967794f, -0.02314850f, 0.03547821f, -0.02520347f, 0.00452674f, -0.04021965f, -0.08366614f, 0.07561871f, 
     -0.12865245f, 0.00151310f, 0.08306390f, -0.00289471f, 0.11596965f, -0.05626861f, 0.00355880f, 0.07809631f, 
     -0.05453919f, -0.01658144f, 0.00152652f, -0.10539220f, -0.03539138f, -0.03567930f, 0.00591654f, -0.08103882f, 
     -0.03871777f, -0.08751299f, -0.05692156f, 0.02027156f, 0.03014292f, 0.00946027f, 0.04353999f, -0.03372319f},
    {-0.00149304f, -0.01573187f, 0.00041406f, -0.01090607f, 0.05132778f, -0.05666595f, -0.05293727f, 0.02639385f, 
     0.04735694f, -0.05448898f, -0.03733598f, 0.03867009f, -0.00444186f, -0.01455219f, 0.02538913f, -0.00721830f, 
     0.01850330f, 0.04419325f, -0.00578433f, -0.03416046f, -0.01807902f, -0.06756113f, -0.05621361f, -0.08012636f, 
     -0.06859773f, 0.01315974f, -0.05385730f, 0.07811057f, 0.01659351f, -0.01129906f, -0.02883349f, -0.03001719f},
    {-0.01047192f, -0.03688424f, 0.07625715f, 0.02200426f, 0.05009820f, -0.01245404f, -0.00421644f, -0.04436852f, 
     -0.03436807f, -0.00891688f, 0.06320558f, 0.01535827f, -0.00698300f, 0.01259083f, 0.03227162f, 0.08828913f, 
     0.04111871f, -0.03645521f, -0.02795634f, -0.04746729f, 0.03184998f, -0.01192082f, -0.04498199f, -0.01821924f, 
     -0.03207380f, -0.03249916f, -0.02253957f, 0.06840272f, -0.00764447f, 0.01510454f, 0.00285669f, -0.06469897f},
    {-0.04200000f, -0.07224036f, 0.04853544f, 0.02130679f, 0.06430226f, -0.02253798f, -0.02817931f, 0.01653706f, 
     0.06740460f, 0.03947708f, 0.05344777f, 0.00847370f, 0.00092987f, 0.06089277f, 0.04511765f, 0.00407937f, 
     -0.05722381f, -0.00417163f, -0.00960202f, -0.08060101f, 0.04805746f, 0.04843811f, -0.02312393f, 0.00532001f, 
     0.02799462f, 0.00933229f, 0.00711863f, -0.02448276f, 0.01671996f, -0.07401215f, -0.00807809f, -0.04821238f},
    {0.02965766f, 0.02186921f, 0.09334085f, -0.06126967f, 0.07041249f, 0.01909199f, -0.04064945f, -0.00844449f, 
     -0.03240502f, -0.00923453f, 0.02069821f, 0.06075791f, 0.01203604f, -0.00557239f, -0.01105403f, 0.03236222f, 
     -0.06513872f, -0.03096751f, -0.03982443f, -0.02266058f, 0.01301636f, 0.06166448f, 0.00283323f, -0.03818814f, 
     -0.00777638f, -0.01283652f, 0.03191081f, 0.03409732f, 0.03104675f, 0.11413370f, 0.03323564f, -0.04000967f},
    {-0.04308290f, -0.09495784f, 0.01304321f, -0.01619185f, -0.03797595f, 0.01972114f, -0.01042749f, -0.02356443f, 
     -0.09602163f, -0.01954461f, 0.04382493f, 0.04225967f, 0.00233832f, -0.01177193f, 0.09188368f, 0.03995968f, 
     -0.03492098f, -0.08935062f, -0.02199031f, -0.10540975f, 0.08602928f, 0.00906022f, 0.06914264f, 0.01311258f, 
     -0.02204062f, 0.05957806f, 0.07437986f, -0.06697301f, 0.06088366f, -0.03700674f, 0.06134261f, -0.01311745f},
    {-0.09985311f, -0.03102857f, -0.03800666f, -0.05578702f, 0.01200235f, 0.01235086f, 0.07177996f, 0.08092352f, 
     -0.06234329f, 0.07331846f, 0.08046597f, 0.00933241f, 0.06646174f, 0.05920929f, -0.04708969f, 0.02179022f, 
     -0.02874341f, -0.04229990f, -0.06420965f, 0.02756326f, -0.04348099f, 0.00230166f, -0.05085135f, -0.09681023f, 
     -0.02336453f, -0.01844960f, -0.01364683f, -0.00215791f, 0.02842868f, 0.03440345f, 0.04740539f, -0.00175992f},
    {-0.07749104f, -0.03018995f, 0.02452103f, -0.07960207f, -0.00582998f, -0.08282162f, -0.03569318f, 0.04654811f, 
     -0.00105788f, -0.05115010f, -0.03979303f, 0.06651032f, -0.04365042f, -0.00569580f, -0.03464346f, -0.06946228f, 
     0.01372694f, -0.02579095f, 0.05919107f, 0.00007984f, -0.09103054f, 0.05990697f, -0.05722297f, -0.01556291f, 
     0.00709031f, 0.03105614f, -0.03918558f, 0.06057850f, -0.02848389f, 0.01011763f, 0.01860104f, 0.04017549f},
    {-0.04732678f, -0.05241466f, -0.00911810f, -0.01859920f, 0.05587468f, 0.02152744f, 0.03559621f, 0.09944163f, 
     -0.04768638f, 0.05401334f, 0.04658487f, 0.03694292f, -0.04333933f, 0.05347392f, 0.06448146f, 0.04600201f, 
     -0.09832793f, -0.04556984f, -0.02929387f, -0.06264877f, 0.02109768f, -0.03235367f, -0.01377006f, -0.03282690f, 
     -0.08946025f, 0.01616518f, 0.04032778f, 0.00097809f, 0.07740857f, -0.05089850f, -0.02452666f, -0.02744335f},
    {-0.07764129f, 0.00900762f, 0.02225136f, 0.01111379f, 0.01812241f, 0.02182788f, 0.01494275f, 0.00755173f, 
     -0.03702405f, 0.00904015f, -0.02344570f, 0.00840212f, -0.03679452f, -0.06334618f, 0.02043633f, 0.00547558f, 
     0.04408208f, 0.02736059f, -0.06259935f, 0.00760755f, -0.05636967f, -0.02920414f, 0.00483956f, -0.03627514f, 
     -0.04201009f, -0.03568123f, -0.07273996f, 0.03202841f, -0.03165176f, 0.04753006f, -0.00563743f, 0.06244795f},
    {-0.05918902f, 0.00901892f, -0.01653357f, -0.04058160f, -0.00040705f, -0.03339889f, 0.01409564f, 0.03197337f, 
     -0.03617701f, -0.02172949f, 0.03640527f, -0.02508676f, 0.02043629f, 0.01479243f, 0.02643724f, -0.04500714f, 
     -0.04845641f, -0.08333196f, -0.05698299f, -0.09318098f, 0.00875438f, -0.10439731f, -0.08117332f, -0.03745321f, 
     -0.04025660f, 0.04133235f, 0.00733934f, 0.00659347f, 0.03015609f, 0.06961069f, -0.06107317f, -0.07501821f},
    {0.00333658f, 0.01360361f, 0.06130353f, 0.02100485f, 0.04619657f, -0.06329910f, -0.01589196f, 0.05920950f, 
     -0.08769830f, -0.06612784f, 0.01546982f, 0.03204951f, 0.09207781f, 0.01705134f, 0.05148451f, -0.03115277f, 
     -0.02055773f, -0.04628117f, -0.04071952f, -0.05740711f, -0.06437889f, 0.02104356f, -0.02904418f, 0.03896810f, 
     -0.02051633f, 0.02331075f, 0.00724355f, 0.05630561f, 0.00653079f, -0.04490607f, 0.10301850f, -0.03881141f},
    {-0.02479628f, 0.00164013f, -0.01027990f, -0.04759011f, -0.01836669f, 0.09829516f, 0.07030796f, 0.05126717f, 
     0.01614801f, 0.07095198f, 0.05912111f, -0.01455517f, -0.00453277f, 0.08838291f, -0.02882994f, 0.00588323f, 
     0.00525546f, -0.02803599f, -0.02238734f, -0.11489428f, 0.06107783f, -0.07210955f, 0.04330208f, -0.09569732f, 
     -0.05192924f, 0.06939106f, -0.00051045f, -0.07029291f, 0.03332505f, 0.01421450f, -0.02548201f, 0.05958078f},
    {-0.03367512f, -0.02987596f, 0.01860441f, -0.01189786f, 0.04151182f, 0.04772472f, 0.05351159f, 0.02074781f, 
     -0.08195787f, 0.05824733f, 0.02979456f, 0.00501291f, 0.02917275f, 0.08219658f, 0.09352051f, 0.00424914f, 
     -0.11478462f, -0.10399780f, 0.00873338f, 0.00507936f, 0.01590863f, -0.01595862f, 0.10134972f, -0.01324850f, 
     -0.01067848f, 0.00332338f, -0.05432351f, 0.02357302f, 0.02200532f, 0.00319491f, 0.02026850f, -0.02621498f},
    {-0.07130373f, 0.04200970f, -0.01045895f, -0.00373433f, 0.00044536f, -0.07998845f, 0.06442666f, 0.03114987f, 
     0.02964525f, 0.06515291f, -0.00334553f, 0.01852100f, 0.02175570f, 0.04633346f, 0.04539521f, -0.03902410f, 
     -0.03926098f, -0.01709356f, 0.05287123f, 0.07467673f, -0.00999804f, -0.01856204f, -0.06622463f, -0.01014761f, 
     0.07241481f, -0.02787515f, 0.03450678f, 0.04152874f, -0.07488886f, -0.00572093f, -0.00921876f, 0.05765536f},
    {-0.00892410f, -0.00409705f, 0.03525688f, 0.00441390f, 0.03510388f, -0.07640984f, -0.04508324f, -0.04182691f, 
     -0.03192526f, -0.01365881f, 0.02845689f, 0.09392857f, 0.00744982f, -0.09745694f, 0.04974775f, -0.07317079f, 
     0.02716148f, 0.01279164f, -0.03735535f, -0.07364482f, -0.01320077f, 0.06969640f, -0.01946664f, 0.01352396f, 
     0.01199194f, -0.02917358f, -0.05225367f, -0.02797562f, 0.01517278f, 0.03200626f, 0.02143774f, -0.01599588f},
    {-0.02032358f, -0.05004339f, 0.03169375f, -0.05379743f, -0.05226349f, 0.04718517f, 0.07194430f, -0.01531409f, 
     0.02329460f, 0.05340093f, 0.07011133f, 0.04049848f, 0.07345910f, -0.01177614f, -0.02016852f, 0.04467434f, 
     0.03456569f, 0.00502479f, -0.01324041f, 0.03815666f, 0.02723761f, 0.02508026f, 0.03144164f, 0.01717950f, 
     -0.00161921f, 0.03999250f, 0.04557564f, -0.03501885f, 0.03249043f, 0.01897738f, -0.00035260f, 0.07342222f},
    {0.04894353f, 0.03063369f, 0.04416770f, 0.04880166f, -0.03262432f, 0.00285314f, -0.03454516f, -0.03993658f, 
     0.01853574f, 0.01952151f, -0.05462179f, 0.05401224f, 0.04653559f, -0.02384436f, 0.00520349f, -0.06254997f, 
     0.01692135f, 0.07579009f, -0.07062558f, -0.01707611f, 0.04318810f, 0.00232493f, 0.07780918f, 0.01464051f, 
     0.02811931f, 0.02144458f, -0.04963128f, -0.00824182f, 0.04248674f, 0.01141740f, 0.03916265f, 0.02951009f},
    {-0.01663134f, 0.01137687f, -0.00573943f, -0.03797358f, -0.02985463f, 0.06606606f, 0.08712087f, -0.02635582f, 
     -0.02756321f, -0.00248207f, 0.00908880f, -0.02905033f, 0.05309888f, -0.01496016f, -0.04215682f, -0.04848805f, 
     0.01047729f, 0.01466578f, 0.04562382f, -0.04939592f, -0.00359290f, -0.00014509f, -0.10734885f, -0.00502736f, 
     0.04899869f, 0.01952679f, -0.00643425f, 0.01750534f, -0.02916216f, 0.00731689f, 0.03144436f, 0.11230621f},
    {0.05105645f, -0.02577755f, 0.05646908f, 0.00280723f, 0.04642710f, -0.00617587f, -0.09466647f, 0.06043589f, 
     -0.02315184f, 0.03751260f, -0.03026456f, 0.05828410f, 0.02424916f, -0.01065157f, 0.04406716f, -0.00572469f, 
     0.01145856f, -0.01130809f, -0.07891361f, 0.04085322f, 0.00691648f, 0.02405544f, 0.04737936f, -0.01167872f, 
     -0.02748760f, 0.02359099f, 0.02514969f, 0.01631197f, -0.04618515f, -0.04595453f, -0.01625846f, -0.02248880f},
    {0.01148754f, -0.05242616f, 0.04718898f, -0.09163897f, -0.06446941f, -0.02082561f, -0.02136378f, 0.07149348f, 
     -0.07152200f, -0.00930304f, -0.00847655f, -0.00015512f, 0.09071188f, 0.01522611f, -0.00361083f, -0.01556554f, 
     0.04772118f, -0.05448158f, -0.07354119f, -0.04585985f, 0.02028462f, 0.04809620f, -0.07516593f, 0.04521272f, 
     0.06423730f, -0.03257446f, -0.02929892f, -0.07347869f, 0.02904068f, -0.00634327f, 0.01465348f, 0.07810367f},
    {-0.08308493f, -0.10051454f, -0.05162406f, -0.06097222f, 0.01762355f, -0.02502551f, 0.00010152f, -0.01419525f, 
     -0.03476672f, 0.06042611f, -0.02816663f, 0.04013196f, 0.10060332f, 0.07683563f, 0.06376730f, -0.00279973f, 
     -0.05905123f, -0.08946944f, -0.02182365f, -0.08070233f, 0.11433389f, 0.00568683f, 0.07290072f, -0.03647988f, 
     -0.07604612f, 0.05947155f, 0.03580240f, 0.02079805f, 0.06029265f, -0.03997402f, 0.03685444f, -0.04840267f},
    {0.01164458f, 0.00630212f, -0.00482882f, 0.07650563f, 0.04732008f, -0.03014493f, -0.03553453f, -0.00057592f, 
     0.03759667f, -0.02478622f, -0.00863785f, -0.07612477f, 0.00801406f, 0.04411576f, 0.00209975f, 0.01608179f, 
     -0.03778270f, -0.00171867f, -0.04736088f, 0.03810170f, 0.00756721f, -0.04065599f, 0.05823170f, 0.03971375f, 
     0.04625729f, -0.00863497f, -0.09444118f, -0.01353397f, -0.06634811f, 0.00027549f, -0.04344929f, -0.02225104f},
    {0.11905143f, 0.09058790f, 0.03842293f, -0.01392747f, 0.08343732f, 0.00685554f, -0.06132089f, -0.04882637f, 
     0.00538082f, -0.05338993f, -0.14350148f, 0.07334024f, -0.02611267f, -0.13039152f, 0.00683077f, 0.10426072f, 
     0.08609710f, 0.02637619f, 0.05736982f, 0.00685960f, -0.05198223f, 0.04569546f, -0.10889813f, 0.06208919f, 
     -0.05382099f, 0.02361948f, -0.03440425f, 0.03694799f, -0.03349762f, 0.04786530f, 0.06285764f, 0.05763316f},
    {-0.05448895f, -0.03938453f, 0.06007947f, -0.03772802f, 0.00185757f, 0.04867832f, -0.02335337f, 0.01094924f, 
     0.00119994f, 0.06881578f, 0.07007209f, 0.04222647f, -0.03505804f, 0.01771324f, -0.04182685f, -0.06211530f, 
     -0.09080520f, -0.05511728f, -0.02791773f, -0.02972307f, 0.08469456f, -0.08131690f, -0.02863057f, 0.00739579f, 
     0.01542781f, 0.03151932f, 0.01279396f, -0.00424957f, -0.03610011f, 0.01033580f, -0.04869106f, 0.06977636f},
    {0.07322480f, -0.07714668f, -0.02735107f, 0.03093387f, -0.01013478f, 0.00398986f, 0.00205086f, 0.03090583f, 
     0.01839051f, -0.06782479f, 0.03054475f, 0.03595786f, -0.03738470f, -0.04210044f, -0.02254957f, -0.00304054f, 
     -0.02520398f, -0.00751789f, -0.00371851f, -0.08015262f, 0.03527409f, -0.03081250f, 0.05132001f, -0.01801027f, 
     -0.03420274f, -0.01309874f, 0.02689880f, -0.00111643f, -0.00631357f, 0.02109541f, 0.02102161f, -0.04149418f},
    {0.03536952f, -0.07357265f, 0.01101574f, 0.00901433f, -0.03795203f, -0.01874882f, -0.09843284f, -0.01681159f, 
     0.05199819f, -0.06040626f, 0.01522807f, -0.00832134f, 0.05694983f, 0.00623305f, -0.04957875f, -0.03684261f, 
     -0.03147222f, -0.00518671f, -0.01317568f, -0.05917544f, -0.03377603f, -0.00559724f, -0.00908135f, -0.04721843f, 
     0.00478982f, -0.00703313f, -0.08460806f, -0.00341686f, -0.02291734f, 0.01538187f, -0.03772290f, 0.01329517f},
    {0.08314025f, 0.03195587f, 0.10751521f, -0.02249256f, -0.03407881f, 0.06061227f, -0.01696546f, 0.04733534f, 
     -0.05405933f, 0.01977769f, 0.04726815f, 0.04948080f, 0.06297258f, -0.00454821f, 0.06504309f, 0.01209607f, 
     0.01014502f, -0.06735840f, 0.02903829f, -0.02754473f, 0.00849525f, -0.01603772f, 0.04544346f, 0.01345152f, 
     -0.02007101f, -0.05717186f, 0.01289079f, 0.02748068f, 0.07812326f, 0.03156240f, 0.00800131f, -0.11335824f},
    {-0.01996756f, -0.07653007f, 0.01531400f, -0.03777743f, 0.03524185f, 0.03713895f, 0.01666614f, -0.06309667f, 
     0.04322363f, -0.03621599f, -0.04097462f, 0.00518852f, 0.07465240f, -0.01949049f, -0.01396057f, -0.04351639f, 
     -0.08216812f, -0.05981562f, 0.01681511f, -0.07538141f, -0.00444672f, 0.03313539f, -0.00787526f, 0.04192705f, 
     0.05634195f, -0.06597071f, -0.03695838f, -0.02779500f, 0.07753343f, -0.04243967f, -0.04394966f, 0.00995334f},
    {-0.08824229f, 0.00081771f, 0.03507316f, -0.11691352f, 0.06850036f, -0.07762267f, 0.02576559f, -0.01069306f, 
     -0.10610615f, 0.03924426f, 0.02724256f, 0.06318443f, 0.03901518f, 0.06240725f, 0.08375066f, -0.08537842f, 
     -0.04591139f, -0.10381835f, -0.02364888f, -0.04449625f, -0.01560249f, 0.04784293f, 0.06483495f, -0.10957549f, 
     -0.06657476f, 0.02750936f, -0.04630087f, 0.05618816f, 0.04482239f, 0.05971712f, 0.05862985f, -0.02826234f},
    {-0.01385668f, -0.01844708f, -0.00845750f, 0.01390153f, 0.08348699f, -0.02789825f, -0.06289147f, -0.01299184f, 
     -0.04231166f, -0.05743019f, 0.03533040f, -0.03915672f, -0.02242374f, 0.06973919f, -0.03686145f, -0.04203020f, 
     0.03241559f, 0.07524356f, -0.03133774f, 0.02941056f, -0.02237884f, -0.01942153f, 0.02444748f, 0.00824392f, 
     0.05271393f, 0.03049906f, -0.04636703f, 0.01640168f, 0.02937650f, -0.00479122f, 0.07741807f, 0.05880930f},
    {0.07745166f, -0.00730241f, 0.02378673f, -0.04289812f, 0.07838082f, 0.04946256f, -0.00667575f, 0.06283325f, 
     -0.01741164f, -0.08447707f, -0.07578879f, 0.08644880f, -0.03678454f, -0.13710602f, -0.09355556f, 0.02313261f, 
     0.13088797f, 0.02453196f, 0.09859467f, -0.05635017f, -0.07360142f, 0.05865812f, -0.11833180f, -0.03750588f, 
     0.05399588f, 0.05812557f, -0.06333035f, 0.02047900f, -0.16993006f, 0.10775258f, 0.10276601f, 0.00637705f},
    {-0.02708801f, -0.05383702f, -0.04537563f, 0.01404130f, 0.00605532f, 0.03147165f, -0.00124343f, 0.04715797f, 
     0.05224011f, -0.00299203f, -0.02012461f, -0.05956707f, -0.02046288f, 0.07796063f, -0.07393415f, -0.06528720f, 
     -0.02630219f, -0.01530334f, 0.00629728f, -0.01486468f, 0.00704173f, 0.03830821f, -0.03932562f, 0.01089139f, 
     -0.00965732f, -0.02841683f, -0.09193185f, 0.02319383f, 0.00953252f, -0.00344020f, -0.00012042f, 0.10671557f},
    {-0.03490680f, 0.04333650f, -0.02292838f, 0.02252995f, -0.04718299f, 0.01706703f, -0.03118083f, 0.02580318f, 
     -0.00861370f, 0.01838267f, -0.02149403f, -0.01797793f, 0.00145057f, 0.06149654f, -0.02501166f, 0.05166793f, 
     0.03708163f, 0.04969115f, 0.03965844f, -0.07663237f, 0.05292279f, -0.04934710f, -0.04905764f, -0.03657164f, 
     -0.08622211f, 0.00241069f, 0.03860062f, 0.00477766f, 0.01481407f, 0.03559823f, 0.03745544f, -0.00398921f},
    {-0.05200997f, 0.03598376f, 0.01336029f, -0.04962344f, 0.06313507f, 0.01508755f, -0.02986359f, 0.01775166f, 
     -0.03670633f, -0.06156328f, 0.03743794f, -0.03384577f, -0.09258779f, 0.06393079f, 0.02758089f, -0.07340133f, 
     -0.01621066f, -0.04988571f, 0.05906222f, 0.01753057f, -0.00148657f, 0.08065539f, 0.00194471f, -0.03654094f, 
     -0.00140536f, -0.02840602f, -0.09475107f, -0.02904572f, -0.03236031f, 0.07539144f, 0.03704561f, -0.00519708f},
    {-0.10338807f, -0.05996339f, -0.02425732f, -0.07219768f, 0.05011662f, 0.06334233f, 0.02630513f, -0.02326770f, 
     -0.02876824f, 0.06388922f, 0.09885902f, 0.05248596f, 0.05458055f, 0.04519976f, 0.09879661f, -0.01585998f, 
     -0.04633532f, -0.08066861f, 0.02596930f, -0.02414377f, -0.01675265f, 0.01042516f, 0.03094068f, 0.01022589f, 
     -0.10410353f, 0.00975226f, -0.04083132f, -0.00264347f, 0.00360891f, 0.05466137f, 0.02524031f, -0.08745681f},
    {-0.03054916f, -0.03077316f, -0.02351814f, 0.03738611f, 0.02216378f, 0.03246212f, -0.00062111f, -0.10410815f, 
     -0.06676059f, -0.05961135f, -0.02168766f, 0.00313614f, 0.04721270f, 0.14985532f, 0.02654417f, -0.04473661f, 
     -0.00765893f, 0.05215888f, 0.01933776f, -0.00411696f, -0.06490128f, 0.00842617f, 0.00258420f, -0.08630121f, 
     0.05682044f, -0.01195129f, -0.09941048f, 0.05348512f, -0.00912880f, -0.04027863f, 0.02959688f, 0.10364429f},
    {-0.05388811f, -0.05829628f, 0.12077041f, -0.07205196f, -0.00949801f, -0.01313138f, -0.00056953f, -0.02006354f, 
     -0.10942769f, 0.10070533f, 0.02582960f, 0.11543798f, 0.05838726f, -0.02687237f, 0.06950296f, 0.01243595f, 
     -0.05758994f, -0.11165921f, -0.02911882f, -0.01124788f, 0.02598813f, -0.03732049f, 0.00191953f, -0.10011659f, 
     -0.09187870f, 0.10724933f, 0.00786610f, 0.04041038f, 0.01887656f, -0.05718281f, 0.02794261f, -0.08826613f},
    {-0.02403030f, 0.00905182f, -0.02298350f, 0.05037005f, 0.06746814f, -0.07045927f, -0.10668787f, -0.04150320f, 
     -0.02811559f, -0.07770228f, -0.03545630f, 0.03995714f, 0.01212205f, -0.01105713f, -0.04618285f, 0.01187017f, 
     0.04427049f, -0.03275237f, 0.07524910f, 0.00185807f, -0.06021560f, 0.08263993f, -0.04350153f, 0.03439358f, 
     0.09141774f, -0.07035961f, -0.06907318f, 0.06359090f, -0.03981296f, 0.02180480f, 0.05561887f, 0.03471563f},
    {0.17272831f, 0.07529138f, 0.03150855f, -0.07574406f, 0.17595598f, -0.02094120f, -0.14432105f, 0.03205514f, 
     -0.01867594f, -0.04318054f, -0.08764990f, 0.03746613f, -0.03533934f, -0.09381829f, -0.11363266f, 0.10301453f, 
     0.16102986f, 0.10565977f, 0.15353814f, -0.05656456f, -0.07511541f, 0.08081463f, -0.13347101f, 0.03929125f, 
     -0.08105470f, -0.00946266f, -0.00496567f, 0.08366457f, -0.15626335f, 0.07565940f, 0.16236800f, 0.02176394f},
    {0.00882377f, -0.03308786f, -0.04771049f, -0.01178454f, 0.00670230f, -0.00705607f, -0.05165998f, 0.02338924f, 
     0.00819654f, -0.03184381f, 0.04449285f, -0.03514615f, 0.00894387f, -0.00090829f, 0.06013355f, -0.03590962f, 
     -0.00177572f, -0.07514117f, 0.03440441f, -0.05999229f, -0.01895215f, 0.02254194f, 0.01652234f, 0.03314678f, 
     0.00590975f, -0.02096125f, -0.06753724f, 0.05360489f, 0.03466132f, 0.05220512f, -0.02626882f, -0.01255703f},
    {-0.04698721f, 0.00985000f, -0.01935720f, 0.03953305f, -0.05163931f, -0.06033397f, 0.00264157f, 0.07094352f, 
     -0.00692213f, 0.01812499f, -0.02288004f, -0.00771621f, 0.00438420f, 0.03398755f, 0.02788446f, 0.03784579f, 
     0.00088118f, 0.00267426f, 0.05776916f, -0.05380023f, 0.05202321f, -0.04226323f, 0.07181117f, -0.03196798f, 
     0.04281025f, 0.05381200f, -0.01775164f, -0.04081390f, 0.00424133f, -0.00776069f, 0.06869684f, -0.04481607f},
    {-0.07340368f, -0.07820023f, -0.05526480f, 0.05246812f, 0.01729669f, -0.01010738f, -0.05635752f, 0.08025013f, 
     0.00424731f, 0.02793641f, -0.06473689f, -0.03463411f, -0.05017450f, 0.00748097f, -0.01816391f, 0.03284252f, 
     0.02313017f, 0.04177088f, 0.00332617f, -0.04902327f, -0.08892760f, 0.06812458f, -0.05172787f, -0.00913403f, 
     -0.00203629f, 0.03201203f, -0.04900514f, 0.08143938f, 0.01928841f, 0.01576553f, 0.06176527f, 0.01259095f},
    {0.02656028f, 0.05599183f, 0.09967846f, -0.04534393f, 0.12765163f, -0.02961629f, -0.02980166f, 0.06868271f, 
     -0.04007258f, 0.01842786f, 0.00203406f, 0.01824120f, -0.04573833f, -0.00397927f, 0.08856877f, 0.09592122f, 
     0.03615805f, -0.00663561f, 0.04085554f, -0.05849221f, -0.03495454f, 0.00527290f, 0.00578612f, -0.01369392f, 
     -0.11993633f, -0.04568484f, -0.06404330f, -0.01316079f, 0.04790315f, 0.05144978f, 0.10541043f, -0.04925365f},
    {-0.09144428f, -0.02654492f, -0.01953281f, -0.00543116f, 0.02984079f, -0.01112173f, -0.01316814f, -0.01018433f, 
     0.01076033f, 0.01043434f, -0.00612507f, 0.03338929f, -0.00625990f, 0.02233612f, -0.07079338f, -0.00144530f, 
     -0.04368581f, 0.05299874f, 0.00625967f, 0.03863009f, 0.00732290f, -0.00158166f, 0.00302347f, 0.04341269f, 
     0.04205978f, 0.02308373f, -0.04163435f, -0.02012331f, 0.05902683f, 0.03374214f, -0.04704171f, 0.06049188f},
    {-0.08386882f, -0.05781293f, 0.05143330f, -0.10013952f, 0.06735720f, 0.00247956f, -0.06694388f, 0.06707769f, 
     -0.08954177f, 0.03306247f, 0.00349334f, 0.08031784f, 0.04186561f, -0.05582237f, 0.09740674f, -0.01543523f, 
     0.03986280f, -0.04408650f, 0.06576344f, -0.06201824f, -0.00295764f, 0.04300833f, 0.08659408f, -0.04791409f, 
     -0.08810757f, 0.02057091f, 0.04672505f, 0.07041527f, 0.04809504f, 0.02219283f, 0.00955967f, -0.06039359f},
    {-0.00073420f, 0.11175039f, -0.04062530f, -0.02639398f, 0.09186987f, -0.02358431f, -0.02808243f, -0.01895550f, 
     0.04751663f, -0.00947672f, 0.04292677f, -0.02653069f, -0.08802518f, 0.00588123f, -0.01230058f, -0.00521171f, 
     0.01075141f, 0.01984602f, 0.03612354f, -0.02265998f, -0.05639996f, 0.01490084f, 0.05900955f, 0.07479560f, 
     0.01577176f, 0.04734589f, -0.00006152f, -0.03869580f, 0.00752070f, 0.03080794f, -0.01719070f, -0.02413130f},
    {0.07034717f, -0.03323788f, 0.05390164f, -0.07810221f, 0.05141381f, -0.01574530f, -0.12630111f, 0.06204558f, 
     -0.05336686f, -0.12044909f, -0.08814012f, 0.06913348f, -0.03446871f, -0.15418765f, -0.09324546f, 0.11284894f, 
     0.12000760f, 0.01536290f, 0.17696843f, -0.14745168f, -0.11011508f, 0.05216935f, -0.14268072f, 0.01561579f, 
     0.01275257f, -0.01502560f, -0.06562629f, 0.18648145f, -0.10277223f, 0.12058788f, 0.19378914f, -0.01086440f},
    {0.01311906f, -0.01569914f, -0.02856785f, 0.06208643f, -0.01697767f, -0.03165435f, -0.03456026f, -0.08527765f, 
     0.03009238f, 0.00862388f, -0.01970059f, -0.02032608f, 0.04412541f, 0.08543526f, -0.01099743f, -0.00499744f, 
     -0.02133660f, 0.01269078f, 0.03253870f, 0.02700390f, 0.04712772f, -0.00045512f, 0.06747993f, -0.01044042f, 
     0.10147118f, -0.05875764f, -0.01764432f, -0.02866527f, -0.06089554f, 0.02208493f, 0.05253169f, -0.01506717f},
    {-0.02368698f, -0.04398043f, -0.05298874f, -0.00220554f, -0.03027820f, 0.00441429f, -0.02699213f, -0.07055748f, 
     -0.04949426f, -0.03279095f, 0.02567182f, 0.02382222f, 0.06098625f, -0.04408103f, -0.03948407f, 0.03120027f, 
     0.02330729f, 0.03043821f, 0.02815432f, -0.04952256f, 0.06660616f, -0.05441750f, -0.03123043f, -0.01489411f, 
     -0.02276381f, -0.00671321f, 0.01648130f, -0.00761214f, 0.02044853f, 0.00545062f, -0.01502725f, -0.00750986f},
    {-0.00015348f, 0.05622621f, 0.05908414f, -0.06010868f, -0.01391243f, -0.01324030f, 0.01106490f, -0.00091844f, 
     -0.02436188f, 0.03366096f, -0.02148890f, 0.02109732f, -0.04368839f, -0.02975463f, -0.05106067f, 0.07988148f, 
     0.07545963f, -0.00666442f, -0.02339886f, -0.06615939f, -0.04368966f, 0.06847478f, 0.02685100f, -0.01706266f, 
     0.07203515f, -0.01911156f, 0.00469386f, 0.04374727f, 0.00259708f, -0.00428704f, -0.01002999f, -0.01547335f},
    {-0.00222830f, 0.00144914f, 0.05575368f, -0.06575631f, 0.10562368f, -0.02131329f, -0.01730642f, 0.09481703f, 
     -0.06307487f, 0.05074918f, 0.02394946f, 0.07450819f, 0.04479230f, 0.00140066f, 0.03225484f, -0.00895920f, 
     0.03718330f, -0.01693554f, 0.10712077f, -0.08271473f, -0.03538126f, -0.00162356f, -0.00707815f, -0.08779645f, 
     -0.00884949f, -0.04582287f, -0.12974235f, 0.03730662f, -0.06249879f, 0.02832342f, 0.05146339f, -0.06534718f},
    {0.07703234f, -0.02906125f, -0.06026538f, 0.06176595f, -0.02846822f, 0.02350408f, -0.09757905f, 0.08085278f, 
     0.04293108f, 0.06529330f, -0.01043482f, 0.03584943f, 0.04356271f, 0.06401327f, 0.03211605f, 0.07626274f, 
     -0.01304153f, 0.00032154f, 0.00504481f, 0.03246310f, -0.00293443f, 0.08875113f, 0.06468875f, 0.00354993f, 
     0.07854106f, 0.00765252f, -0.02035387f, -0.05481617f, -0.06825577f, -0.07041798f, -0.02760891f, -0.00253866f},
    {-0.02454091f, -0.02572745f, 0.05951010f, -0.10760848f, 0.07821004f, 0.08853716f, -0.05368651f, 0.10459001f, 
     -0.03233873f, 0.10260200f, -0.02793332f, 0.02793755f, -0.02563227f, -0.03613213f, 0.02220844f, -0.00601435f, 
     -0.02229866f, -0.07602027f, -0.08247740f, -0.03785116f, 0.00052894f, 0.06528772f, 0.01921906f, -0.03156041f, 
     -0.08699541f, -0.00225075f, -0.05791455f, 0.08549619f, -0.02055886f, 0.00941132f, 0.04146113f, -0.06390013f},
    {0.07155932f, -0.03698654f, 0.00397245f, 0.04586580f, -0.03498344f, -0.05199244f, -0.09120499f, -0.02255086f, 
     -0.03499850f, -0.01797827f, 0.02045748f, -0.00254142f, 0.00739140f, -0.02162871f, 0.00004655f, 0.01354181f, 
     0.09229609f, -0.01217601f, -0.03150520f, -0.05402087f, -0.03391920f, 0.06803285f, -0.06714754f, 0.00886744f, 
     0.07546735f, -0.12760513f, -0.08905146f, 0.08465493f, -0.03966729f, -0.00662638f, 0.02679311f, -0.00840758f},
    {0.09178676f, 0.06900537f, 0.03797123f, 0.03800221f, 0.02344410f, -0.00195615f, -0.02866486f, 0.07098410f, 
     0.00933173f, -0.05248181f, -0.07475097f, 0.09931229f, -0.02009363f, -0.07381598f, -0.06041675f, 0.04181923f, 
     0.09425191f, -0.03047704f, -0.00141009f, -0.08597530f, -0.12505205f, 0.05712230f, -0.03199767f, 0.04839830f, 
     0.02246213f, 0.07660205f, -0.02558101f, 0.10879976f, -0.06222516f, -0.03604348f, -0.06239624f, 0.08574850f},
    {0.00511181f, 0.01864747f, 0.03668713f, -0.03205473f, -0.01625565f, -0.03826362f, -0.01829047f, -0.03576726f, 
     0.01797095f, -0.04576979f, 0.00366497f, -0.03710362f, 0.00502876f, 0.08872261f, 0.01888235f, 0.02328789f, 
     -0.00693127f, 0.01378725f, 0.05939090f, 0.02213182f, -0.03452824f, -0.02646996f, -0.04883352f, 0.02014102f, 
     0.08524024f, -0.02389306f, 0.00464544f, -0.03241457f, -0.01441101f, -0.02218721f, 0.01594021f, 0.03799651f},
    {0.04607607f, -0.01818177f, 0.04450140f, -0.08133364f, -0.07933509f, 0.01909598f, -0.05787302f, 0.01208342f, 
     0.00787340f, 0.03919638f, 0.03711028f, -0.05709115f, -0.01299843f, 0.00860251f, -0.02116977f, -0.01580686f, 
     -0.03739146f, -0.05325635f, 0.02192306f, -0.04632610f, 0.00543883f, -0.02168510f, -0.03690412f, 0.07561676f, 
     0.00503356f, -0.06824398f, -0.05376839f, 0.04345730f, -0.04220920f, -0.00212936f, -0.01648328f, 0.01838373f},
    {0.05226655f, 0.00290671f, 0.08281010f, 0.01042894f, 0.01848737f, -0.04175766f, -0.04129985f, 0.08103829f, 
     -0.04556908f, -0.07554542f, -0.06591166f, 0.03467357f, 0.00855375f, -0.02552113f, -0.08824939f, 0.03951478f, 
     0.04917485f, 0.06030024f, -0.01326351f, 0.02197051f, 0.01267444f, 0.01397289f, -0.02019386f, 0.05131461f, 
     0.01217179f, 0.03073351f, -0.09944061f, -0.00723896f, 0.04548644f, -0.00018321f, -0.06951480f, 0.02465466f},
    {0.01947616f, -0.02859495f, 0.03170649f, -0.02447213f, 0.05055287f, -0.10560494f, 0.02568148f, 0.07098476f, 
     -0.06890284f, 0.00437165f, 0.05807526f, 0.03135042f, 0.07414699f, -0.03803651f, 0.02900644f, -0.01012568f, 
     -0.10261359f, -0.08358543f, -0.00546805f, -0.07849520f, -0.03214204f, 0.05461848f, 0.05052926f, -0.06395897f, 
     -0.11403799f, 0.00032565f, -0.01109366f, 0.01077734f, 0.06126931f, 0.01771255f, 0.12637231f, -0.13176577f},
    {0.05530079f, -0.06023052f, 0.10168052f, -0.01716963f, -0.05607293f, -0.04810578f, -0.10901520f, -0.03038863f, 
     0.05176185f, -0.00488132f, -0.04375916f, -0.01424452f, 0.06804425f, 0.08944832f, -0.01665113f, -0.03861808f, 
     0.07233395f, 0.01947439f, 0.05931509f, 0.05698095f, -0.03056607f, 0.10122948f, -0.00460183f, 0.07783319f, 
     0.03209618f, 0.00262400f, -0.04590798f, 0.04236732f, 0.01191530f, -0.09902237f, -0.04205336f, 0.02703964f},
    {0.02847165f, -0.03696493f, 0.09497201f, -0.05378980f, 0.07098265f, 0.02281527f, 0.01773014f, 0.01013847f, 
     -0.01766118f, 0.04938199f, 0.03613834f, 0.07545036f, 0.05840451f, -0.04981888f, 0.10066261f, 0.01379152f, 
     -0.01864006f, -0.08773224f, -0.03556490f, -0.05077785f, 0.06670579f, -0.03040728f, 0.03379313f, -0.11197864f, 
     -0.11058418f, 0.07176226f, 0.07818188f, 0.07640477f, -0.00501354f, 0.01072641f, 0.07268573f, -0.03444413f},
    {-0.01130471f, -0.01466939f, -0.02170473f, -0.04190760f, -0.03234472f, 0.05248517f, -0.02992870f, -0.01302066f, 
     -0.05312036f, -0.02703126f, 0.06821698f, -0.08849087f, -0.00502329f, -0.00760848f, -0.02383353f, 0.01061542f, 
     0.00709820f, 0.04358477f, 0.00881969f, -0.02676463f, -0.00547056f, 0.00000827f, -0.02385904f, 0.05060747f, 
     -0.04002066f, -0.03395013f, -0.01904058f, -0.03961245f, -0.02570310f, 0.04137313f, -0.09206921f, -0.02126387f},
    {0.14478846f, -0.02051026f, 0.10751726f, -0.03410478f, -0.02061250f, -0.01041565f, -0.01009460f, 0.09290931f, 
     -0.04505243f, -0.02771673f, -0.04441933f, 0.01451423f, 0.01940209f, -0.11940777f, -0.09562334f, 0.04472307f, 
     0.08474433f, -0.01720471f, 0.08715076f, -0.04676556f, -0.06700294f, -0.00984626f, -0.01874226f, -0.07435254f, 
     0.02122424f, -0.05544538f, 0.00359639f, 0.12233382f, -0.10017306f, 0.03032137f, -0.04719242f, 0.02143438f},
    {-0.02761055f, -0.06176252f, 0.03955257f, -0.01457355f, -0.09995614f, 0.01626492f, -0.07338648f, -0.02369012f, 
     0.01896067f, 0.02756850f, 0.00789836f, -0.02704142f, 0.02073438f, 0.01702036f, 0.05294542f, 0.02630242f, 
     0.03505296f, -0.02731446f, -0.01879345f, -0.03422214f, 0.03506826f, 0.05623728f, 0.04505258f, 0.00141537f, 
     0.02777774f, -0.02614397f, -0.11098927f, -0.04208619f, 0.04533942f, -0.06617260f, -0.07999063f, -0.04763111f},
    {-0.02583415f, -0.08737389f, 0.04241006f, 0.06199999f, -0.02180909f, -0.03674774f, -0.00524018f, -0.05185280f, 
     -0.05956481f, 0.03470130f, -0.04235031f, 0.02881132f, -0.00176344f, -0.03785197f, -0.04553028f, 0.00605898f, 
     -0.04753097f, 0.04846880f, 0.01201204f, -0.05188818f, -0.03162702f, -0.02965730f, 0.01590544f, -0.02400266f, 
     -0.06688165f, 0.06180358f, -0.02321626f, 0.01864672f, -0.03374178f, 0.07508708f, 0.06233326f, -0.00560189f},
    {0.01506932f, -0.06124229f, 0.01671903f, -0.00556257f, -0.04180136f, -0.02584584f, -0.04646036f, 0.00707690f, 
     -0.01092157f, -0.02361375f, 0.00871051f, -0.00715224f, -0.03430726f, 0.00629823f, 0.00277973f, 0.06279279f, 
     0.01039072f, -0.03751947f, 0.02127283f, -0.04490162f, -0.02390089f, 0.07224512f, 0.03199068f, -0.02940328f, 
     -0.03469485f, -0.07842199f, -0.04936589f, -0.00781264f, -0.05002039f, 0.03568028f, -0.03229523f, -0.01910929f},
    {0.03872508f, -0.02981207f, 0.11040144f, -0.02229052f, 0.01268626f, -0.01945155f, -0.01637252f, 0.00876494f, 
     -0.04096528f, 0.04312636f, -0.04287370f, 0.00503384f, 0.04686810f, 0.00451712f, 0.04053491f, -0.04389631f, 
     -0.03196857f, -0.06772067f, 0.03956181f, 0.00269933f, 0.08771886f, -0.03021678f, 0.08672222f, -0.06554339f, 
     0.01027278f, 0.02061965f, 0.03733814f, 0.07378276f, 0.02330952f, 0.01589013f, 0.08918644f, -0.01598901f},
    {0.02371431f, 0.06733955f, -0.00903991f, 0.00895705f, -0.01566995f, -0.05176824f, -0.00938228f, 0.05854735f, 
     0.07253548f, 0.02884740f, 0.02223034f, -0.04234827f, -0.03585337f, 0.12171490f, 0.06655019f, 0.00621956f, 
     0.03101575f, 0.02995173f, -0.00977521f, -0.04833395f, -0.02789591f, 0.00143091f, -0.01172180f, -0.01937021f, 
     0.00470516f, -0.03919603f, 0.02565999f, -0.02672907f, 0.03328518f, 0.03709055f, -0.04868863f, -0.03336284f},
    {-0.01290871f, -0.10147168f, -0.02241184f, -0.01429213f, 0.11250263f, 0.04426375f, 0.00067342f, 0.02896383f, 
     -0.06059415f, 0.01647753f, -0.04398174f, 0.08723566f, 0.00725663f, -0.04899286f, 0.04470232f, -0.07516123f, 
     -0.05657173f, -0.06932237f, -0.03841429f, 0.00085454f, 0.05144565f, -0.04792508f, 0.06144014f, -0.08549574f, 
     0.01040452f, 0.05299882f, 0.06351973f, -0.02254182f, 0.06414227f, 0.04119680f, 0.09086891f, -0.11416270f},
    {0.00723377f, -0.04041681f, 0.03751669f, -0.00057134f, 0.02527293f, -0.01324512f, -0.01124415f, 0.00236258f, 
     -0.05793780f, -0.05080848f, 0.01623487f, -0.04022911f, 0.03277715f, 0.08751996f, -0.04832527f, -0.01658036f, 
     -0.02242417f, -0.01656698f, -0.02792455f, 0.00368890f, 0.02170838f, 0.03052727f, -0.03931896f, 0.06399673f, 
     0.03280695f, -0.07078490f, -0.03626871f, 0.04172946f, -0.01998170f, -0.09062402f, 0.00284427f, 0.04965441f},
    {0.01918844f, 0.00037011f, 0.09397863f, 0.04606592f, -0.02050626f, 0.06872204f, -0.05974757f, 0.01529105f, 
     0.03113778f, -0.06638969f, -0.03039012f, 0.00444875f, -0.06008450f, 0.04318715f, -0.04310225f, -0.04645343f, 
     -0.02326398f, 0.02513914f, 0.04508780f, -0.07001034f, -0.11778497f, 0.03748459f, -0.08277461f, -0.03239413f, 
     -0.03669419f, 0.00157409f, -0.08496176f, 0.05242913f, -0.00362354f, 0.00328218f, 0.01200148f, 0.03243352f},
    {0.01295285f, 0.03723565f, -0.01273356f, -0.03388968f, -0.07966340f, 0.04906132f, 0.01402799f, 0.00250125f, 
     0.03637062f, 0.02523168f, 0.00799563f, -0.04585034f, -0.03553587f, 0.00771131f, -0.06562030f, 0.00829868f, 
     -0.07393315f, 0.06714880f, -0.04793492f, 0.06195671f, 0.00161377f, -0.01198228f, 0.00890220f, -0.00811662f, 
     0.01703841f, -0.03310895f, 0.03229379f, -0.02927006f, 0.01621222f, -0.04693213f, -0.01813202f, -0.00884386f},
    {-0.00089395f, -0.00595138f, -0.00236681f, -0.08611445f, -0.05896347f, -0.03886376f, 0.02394939f, 0.01919553f, 
     0.07821692f, -0.00773534f, 0.04641484f, -0.01681383f, -0.04860057f, 0.03153872f, -0.02299195f, 0.08004959f, 
     0.03391369f, 0.02288212f, 0.01265749f, -0.04985889f, 0.02179649f, -0.00833882f, 0.04161014f, 0.04058886f, 
     -0.04039701f, 0.02944247f, -0.03589442f, 0.02381472f, -0.05791998f, 0.03785929f, 0.02912107f, -0.02894545f},
    {-0.03173217f, 0.06426535f, 0.04717190f, 0.00807239f, -0.03858422f, -0.00982001f, 0.02238495f, -0.02109120f, 
     0.00048662f, -0.01453747f, -0.02686887f, -0.00748208f, 0.00340814f, 0.00495654f, -0.02251377f, -0.01283296f, 
     -0.03963305f, 0.04271505f, 0.04292919f, 0.03595478f, -0.05078164f, 0.02756415f, 0.03531644f, -0.02574745f, 
     0.00982819f, -0.03752642f, -0.02976395f, -0.07160316f, 0.05284665f, 0.02315367f, -0.01874160f, -0.05430240f},
    {0.00389261f, -0.13060820f, 0.01137503f, 0.00249849f, 0.02679330f, 0.00589235f, 0.00646200f, 0.01875009f, 
     -0.02571944f, 0.07612886f, -0.02349031f, 0.10984332f, 0.04736026f, -0.04796363f, 0.03219591f, -0.00578544f, 
     0.05129955f, -0.08505475f, 0.00540748f, 0.01385043f, 0.04053440f, -0.04361198f, 0.03382401f, -0.03619789f, 
     0.00313346f, 0.05130461f, 0.02557547f, -0.05849810f, 0.05315299f, 0.04819396f, 0.11287896f, 0.05615868f},
    {-0.06899031f, 0.03477319f, -0.01908392f, -0.05191101f, -0.03064023f, 0.01985178f, 0.03699552f, -0.10039688f, 
     0.00596860f, -0.01737240f, -0.06729233f, -0.00774320f, -0.01558654f, 0.00732610f, 0.05031732f, 0.03032054f, 
     -0.03530437f, -0.06531484f, 0.03132765f, 0.04784689f, 0.02557944f, -0.00739690f, 0.00380980f, 0.02736478f, 
     0.01882560f, -0.00078134f, 0.03053732f, 0.03168659f, 0.08106765f, 0.00298047f, 0.06461556f, 0.03260885f},
    {-0.11104787f, -0.08874685f, 0.04994271f, 0.01177093f, 0.01883107f, 0.02793886f, 0.01029872f, 0.05708196f, 
     -0.12979145f, 0.07810336f, 0.02173317f, 0.06518064f, 0.06116604f, 0.07494035f, -0.03303167f, 0.00164977f, 
     -0.01361794f, -0.08978625f, -0.00341147f, 0.00993558f, 0.06407759f, -0.02006743f, 0.04422859f, -0.04538456f, 
     -0.05989845f, 0.03231309f, 0.02002083f, 0.04332247f, 0.06188284f, 0.01859144f, 0.04225042f, -0.02889636f},
    {0.02798903f, 0.02839993f, 0.03051091f, -0.04062699f, 0.05022519f, -0.02854180f, -0.08615325f, -0.00555524f, 
     -0.00223497f, 0.05778802f, 0.02139165f, 0.04347928f, -0.01797530f, 0.01082404f, -0.02894478f, -0.00211448f, 
     0.03721108f, 0.06812107f, 0.05077951f, -0.02790474f, -0.02004452f, -0.01944366f, -0.01209502f, 0.04632026f, 
     0.07986195f, -0.01761548f, 0.00464267f, 0.09462988f, -0.02897957f, 0.00530812f, 0.01016828f, 0.05518353f},
    {0.06771310f, 0.04800187f, -0.00866380f, 0.09712151f, 0.01792032f, 0.06760774f, 0.01307956f, 0.06487754f, 
     0.06340571f, 0.03262624f, -0.05024806f, -0.02002017f, 0.02315750f, -0.00872788f, -0.10822977f, 0.08095707f, 
     0.12109639f, 0.11718663f, 0.00479445f, 0.09446760f, -0.14301257f, -0.06155607f, -0.05906700f, 0.05433530f, 
     0.04740298f, -0.05015594f, 0.06677947f, 0.06453458f, -0.08522228f, -0.02012817f, 0.05778597f, 0.07048191f},
    {-0.01652848f, 0.08730584f, -0.03673633f, 0.06184890f, -0.05081590f, -0.01091717f, 0.06358291f, -0.04709623f, 
     0.00158637f, 0.05797761f, -0.00011439f, -0.05369280f, -0.04091175f, -0.00578347f, 0.00894599f, 0.02192328f, 
     0.04039437f, 0.06770673f, -0.05918428f, -0.00638725f, -0.04646639f, -0.00124294f, 0.02104140f, 0.04735861f, 
     0.00830468f, 0.01870402f, -0.00564236f, 0.00115699f, 0.01677377f, 0.01568073f, -0.07853183f, -0.00411387f},
    {0.03205290f, -0.03310828f, -0.00671660f, -0.00503225f, 0.02966065f, -0.07755228f, -0.00894846f, 0.07356799f, 
     0.02966468f, -0.00565554f, -0.04414479f, 0.02720814f, -0.00217718f, 0.03092009f, 0.08436111f, -0.03347635f, 
     0.01064567f, 0.03536729f, 0.00255157f, -0.01493279f, -0.03242027f, -0.07556885f, 0.00552032f, 0.01750166f, 
     0.02319053f, 0.00236561f, 0.01419761f, 0.02132670f, 0.00637439f, -0.00863654f, 0.04688358f, -0.02838581f},
    {0.08253852f, 0.07350124f, 0.08957972f, 0.04744403f, -0.00170380f, -0.11188916f, -0.08025716f, -0.06531617f, 
     0.02230167f, -0.01668517f, -0.06954187f, 0.04237853f, -0.11671852f, 0.05273922f, 0.09592033f, 0.01695482f, 
     0.02047419f, 0.01903713f, -0.03652523f, 0.03208505f, -0.01367816f, -0.02606523f, -0.08782120f, 0.01451772f, 
     0.01006328f, -0.08029446f, 0.08360095f, 0.00852660f, -0.06084685f, 0.04337997f, 0.04261101f, 0.08409064f},
    {0.02539852f, -0.00767708f, 0.05976923f, -0.06315319f, 0.04432749f, -0.04015024f, -0.04306180f, -0.01410821f, 
     0.00610132f, 0.01257889f, -0.00865535f, 0.02125866f, 0.04979424f, -0.06577896f, 0.01682669f, 0.05821810f, 
     0.02302722f, -0.00517593f, -0.02896835f, -0.02864480f, -0.00590688f, -0.02997446f, 0.04177612f, -0.02816232f, 
     -0.02162570f, 0.00073179f, -0.00493743f, -0.03488228f, 0.02237604f, 0.09462214f, 0.00576047f, 0.00341915f},
    {0.00005928f, 0.06754591f, -0.01529250f, 0.04741630f, -0.00498398f, 0.00229297f, -0.01856870f, -0.11132710f, 
     -0.02467634f, 0.01588582f, -0.00277681f, 0.01392714f, -0.04410613f, 0.00925068f, 0.05484509f, -0.01879509f, 
     0.03865655f, 0.00145687f, 0.02938173f, 0.04843848f, -0.01329865f, -0.02080997f, -0.00238964f, 0.00202286f, 
     0.05627529f, -0.03677309f, -0.04381513f, 0.00561596f, 0.04474501f, 0.06106476f, -0.03212958f, 0.00948101f},
    {-0.05357452f, -0.14286931f, 0.11994485f, -0.02191508f, 0.06755448f, 0.09095309f, 0.00586795f, 0.05014294f, 
     0.01701289f, 0.02986963f, -0.03583210f, 0.09118412f, 0.10723011f, 0.05418096f, -0.01811778f, 0.05583549f, 
     0.03641488f, -0.06247695f, -0.03283018f, -0.03680507f, -0.00209075f, 0.07121818f, 0.05220611f, -0.02863069f, 
     -0.10913365f, 0.04112218f, -0.00921522f, -0.00559016f, 0.03551480f, 0.02340901f, 0.00572532f, -0.05019732f},
    {-0.00714288f, -0.01565363f, 0.06376830f, 0.05150487f, 0.05060899f, 0.00819308f, -0.06613848f, -0.02108894f, 
     -0.06024574f, -0.06964207f, 0.01097834f, -0.00033966f, -0.04418943f, 0.07847508f, 0.00496158f, 0.02798239f, 
     0.07102007f, -0.00137040f, 0.09166124f, 0.05497262f, 0.02288004f, -0.03391250f, 0.02387533f, 0.03113570f, 
     -0.04711796f, -0.03456050f, 0.03769765f, -0.01566507f, 0.00083692f, -0.03229416f, 0.04430715f, -0.00798978f},
    {-0.01956248f, 0.07118455f, -0.00940152f, 0.06564014f, 0.05399024f, -0.05889588f, -0.06459547f, 0.04000945f, 
     0.07794728f, 0.01618878f, -0.01395854f, 0.09188486f, 0.04040923f, -0.04009073f, -0.04825057f, 0.06443887f, 
     0.07062381f, 0.00338961f, 0.04797481f, -0.02420032f, -0.12232744f, -0.07371542f, 0.02253409f, 0.05103938f, 
     0.01022603f, 0.00721094f, -0.00847181f, 0.04579900f, -0.08203375f, 0.08456318f, 0.07627977f, 0.01750970f},
    {-0.05832041f, 0.01426419f, -0.00924777f, 0.01039550f, -0.08407785f, -0.04992839f, -0.02224277f, 0.01698232f, 
     -0.09174764f, -0.02428237f, -0.02664869f, 0.02086670f, 0.03516899f, 0.07074052f, 0.12689753f, -0.02199626f, 
     -0.04440685f, -0.02429477f, -0.02523876f, -0.03707468f, -0.02099604f, -0.00645372f, 0.00700143f, 0.03457200f, 
     0.05362490f, -0.00763817f, 0.03888578f, -0.07087219f, 0.02257823f, -0.02145088f, 0.01253166f, 0.00536054f},
    {0.02531673f, 0.00505446f, -0.02773384f, 0.05687392f, -0.02062237f, 0.04029161f, -0.03321856f, -0.01528533f, 
     -0.01100724f, -0.05768509f, 0.03857490f, 0.08129712f, 0.05638161f, 0.02221812f, -0.01554172f, -0.04159685f, 
     -0.04947842f, -0.05669351f, -0.04051467f, 0.03169658f, 0.01026682f, -0.00092079f, -0.04694199f, -0.02058887f, 
     0.01345988f, -0.07317550f, -0.02643174f, -0.04161653f, 0.01716437f, -0.03332098f, 0.00745870f, 0.01028088f},
    {0.05492374f, -0.01780700f, 0.00322554f, -0.08289130f, 0.01079412f, -0.01050395f, 0.08458339f, -0.02694132f, 
     -0.01441812f, 0.05149024f, -0.00405064f, -0.01955937f, 0.08946434f, 0.02335146f, 0.07030449f, 0.01310099f, 
     -0.02929887f, -0.05050233f, -0.00703796f, 0.02635005f, -0.01584766f, -0.01955427f, -0.04256304f, -0.00720323f, 
     0.00298247f, -0.06022605f, -0.04209036f, 0.02672867f, -0.01706811f, -0.05905788f, 0.03574095f, 0.07478300f},
    {0.04307490f, 0.01079917f, 0.09028285f, -0.03758226f, 0.06391313f, -0.04253210f, -0.06454106f, 0.02457449f, 
     -0.02551230f, -0.03026759f, 0.03512726f, 0.11682343f, 0.00144926f, -0.00044722f, -0.05959908f, 0.02645365f, 
     0.08336730f, -0.05968647f, -0.01570739f, -0.08102141f, 0.04437590f, 0.01412962f, 0.02232111f, 0.04525658f, 
     -0.04654583f, -0.01462571f, 0.02545707f, 0.09854287f, -0.04497770f, 0.00904515f, 0.03080315f, 0.02265497f},
    {0.00480737f, 0.01933980f, -0.06542865f, -0.03496723f, -0.05543184f, -0.01129724f, 0.05364934f, -0.05444548f, 
     -0.09376194f, 0.09217228f, 0.04020679f, -0.02971771f, 0.06389812f, 0.02146717f, 0.05496784f, -0.01113583f, 
     0.01260591f, -0.10457724f, -0.06067747f, -0.08862481f, 0.08177828f, 0.08191491f, 0.00472109f, -0.05160702f, 
     -0.00255182f, 0.05144550f, 0.00075926f, -0.01065720f, 0.09858777f, 0.06989437f, -0.06106123f, 0.04577633f},
    {-0.03412462f, -0.01174373f, 0.03413729f, -0.12727083f, 0.11029515f, 0.00030401f, 0.05207659f, 0.04239071f, 
     -0.00767268f, -0.02443624f, 0.05637584f, 0.03655442f, 0.00525858f, 0.00793108f, -0.01295111f, -0.00895685f, 
     -0.01770130f, -0.05382898f, -0.04441472f, -0.02791076f, -0.05546984f, 0.01162440f, 0.10580840f, 0.02661088f, 
     -0.04020654f, 0.00799324f, 0.02193594f, 0.01889271f, 0.03835773f, 0.02765295f, 0.03685154f, -0.04380113f},
    {0.00432315f, -0.01778603f, 0.04140687f, 0.05785314f, 0.05297194f, -0.01247610f, -0.00144760f, -0.06614997f, 
     -0.03830098f, -0.02200148f, 0.06224107f, 0.09509948f, -0.03543056f, 0.00107297f, -0.06362894f, 0.07302150f, 
     -0.09251238f, 0.02406326f, -0.00103505f, 0.00212397f, -0.06776213f, -0.09505476f, 0.00709294f, 0.00104553f, 
     -0.07615247f, -0.02820415f, 0.07983109f, -0.00821365f, -0.08562498f, 0.00362372f, 0.09030633f, 0.06386108f},
    {-0.02163590f, 0.09543167f, 0.03878721f, 0.05447751f, 0.06734673f, 0.02088514f, 0.08316027f, -0.06324165f, 
     0.01378391f, 0.04940027f, -0.02010348f, 0.02557382f, -0.00521123f, 0.08413577f, -0.07274666f, -0.02525864f, 
     -0.01501719f, 0.05266225f, -0.00260224f, 0.05980995f, 0.00767577f, -0.01490693f, -0.11800623f, 0.01123377f, 
     0.01734167f, 0.01020088f, -0.04822508f, 0.05392449f, -0.01784373f, 0.03186100f, -0.03696114f, -0.05483754f},
    {-0.06325290f, 0.02727616f, -0.01984960f, -0.08856367f, 0.04985541f, 0.05024856f, 0.04597504f, 0.01349585f, 
     0.00062728f, -0.02801886f, -0.00561710f, 0.04128504f, 0.05982103f, 0.01384726f, 0.00377682f, 0.02795410f, 
     -0.10577637f, -0.04547628f, -0.01310848f, -0.06805761f, 0.06582446f, -0.05609500f, 0.08299419f, -0.09596086f, 
     -0.02039348f, -0.06553953f, 0.00458910f, 0.03372596f, 0.04029861f, -0.01487114f, 0.02211923f, 0.07801684f},
    {-0.01510809f, -0.01581194f, 0.05848072f, -0.00606872f, 0.03571494f, -0.03220190f, 0.07443549f, 0.01134341f, 
     0.05132443f, -0.00572859f, -0.02716344f, -0.03897885f, 0.02097961f, 0.01757189f, 0.05047160f, -0.00897199f, 
     -0.02954083f, 0.04258345f, 0.04302211f, -0.06995697f, 0.02229009f, 0.05279195f, -0.00331891f, 0.04979680f, 
     -0.04186531f, -0.03048996f, 0.00856735f, 0.03309144f, -0.08378487f, 0.07019028f, 0.01713487f, -0.07336061f},
    {0.01432329f, 0.03815264f, 0.01905949f, 0.05744655f, 0.05414050f, -0.06563197f, 0.06809495f, -0.04628793f, 
     -0.01431222f, 0.05390966f, -0.04676834f, 0.01354123f, 0.09876548f, 0.01375153f, 0.01573692f, -0.07242636f, 
     0.00929050f, -0.02024886f, -0.05405162f, -0.05922125f, 0.04028836f, 0.02689901f, -0.00863580f, -0.03563022f, 
     -0.04631473f, -0.02114703f, -0.03596270f, -0.03252859f, -0.03101359f, -0.04327952f, -0.05034069f, 0.06496143f},
    {0.00097106f, -0.04799971f, -0.02038917f, -0.09368065f, 0.06945459f, 0.00793792f, 0.01093412f, 0.07035218f, 
     -0.02694595f, -0.05302356f, -0.00220025f, -0.04387368f, 0.02718388f, 0.02593274f, 0.00119487f, -0.05850567f, 
     0.01240298f, -0.05544846f, -0.01612240f, 0.05857536f, -0.00311613f, 0.09042164f, 0.02811418f, -0.07811060f, 
     -0.01231671f, 0.02558649f, 0.02136222f, 0.00563549f, 0.02716359f, -0.00569692f, 0.05396536f, -0.01024901f},
    {-0.04734378f, -0.04744665f, 0.02449246f, -0.06478697f, 0.01510166f, 0.01765387f, -0.07293852f, -0.02962501f, 
     0.00835853f, 0.00695146f, 0.02316023f, 0.08401481f, 0.05462987f, -0.01109132f, -0.04006219f, 0.01371571f, 
     -0.03636017f, -0.00674767f, -0.02049936f, -0.07027048f, -0.00203026f, 0.00918730f, 0.00822950f, -0.00592334f, 
     -0.02166033f, 0.02176083f, -0.02608758f, -0.01443164f, -0.01316830f, -0.00021941f, 0.02406013f, 0.05350799f},
    {-0.00888586f, -0.04274250f, -0.00126955f, -0.04363950f, 0.04286677f, -0.05644753f, 0.03857605f, -0.03644683f, 
     -0.08420777f, -0.00167966f, 0.00766913f, -0.02746779f, 0.05331515f, -0.01283596f, 0.04217914f, 0.04785415f, 
     -0.03681488f, -0.09809306f, -0.06198846f, -0.02456026f, 0.03198459f, 0.10378566f, 0.01445548f, -0.04550081f, 
     0.03027552f, 0.03237250f, -0.01050403f, 0.00247052f, 0.04509100f, -0.00519272f, 0.07516441f, 0.02420961f},
    {0.03794996f, -0.07246728f, 0.01686936f, -0.03815581f, 0.04968263f, -0.02242014f, 0.04401933f, 0.05098129f, 
     -0.02773706f, -0.00706192f, 0.00682810f, 0.01682799f, -0.06770609f, 0.05013767f, -0.02931247f, -0.03139168f, 
     -0.05749189f, -0.00814735f, -0.02913876f, -0.09846405f, 0.01721671f, -0.08249802f, 0.02478105f, -0.07731155f, 
     -0.10787455f, -0.08813313f, -0.00010171f, 0.04105758f, -0.03386061f, -0.01444693f, -0.02493347f, -0.04960508f},
    {0.04789872f, -0.01018240f, 0.06376194f, 0.02541838f, 0.04213437f, -0.02232487f, -0.03208093f, -0.02336295f, 
     0.06585111f, 0.02125362f, -0.05912314f, 0.04582799f, 0.06004061f, -0.08676295f, 0.01847595f, -0.02846649f, 
     0.01446071f, -0.02967935f, -0.07526424f, 0.00093359f, -0.04677459f, -0.04303436f, -0.06520301f, -0.05660032f, 
     0.04700724f, 0.01931894f, -0.08287481f, 0.03487274f, 0.02458724f, 0.01428097f, -0.02810252f, -0.01322167f},
    {-0.02567400f, -0.03103108f, 0.08506158f, -0.03864351f, 0.08787241f, 0.08318128f, 0.00576570f, -0.00335799f, 
     -0.04067319f, 0.02635657f, -0.02426114f, 0.01132964f, 0.01481120f, -0.00179841f, 0.00395891f, -0.02304233f, 
     0.03731539f, 0.03952964f, -0.02507151f, -0.01358447f, 0.02062353f, 0.00991719f, -0.01090105f, -0.00234673f, 
     0.00177068f, 0.00816673f, -0.08502404f, 0.00661562f, -0.02371559f, 0.06076374f, -0.01899085f, -0.07521931f},
    {0.04590943f, -0.03427694f, -0.00738979f, -0.08506268f, -0.01301859f, 0.07211036f, -0.00149230f, 0.01232639f, 
     -0.01929669f, 0.03758571f, 0.01651478f, -0.03089899f, -0.04923338f, -0.01513332f, -0.06633792f, -0.05346682f, 
     0.03905271f, -0.01316733f, 0.06534812f, 0.01818943f, -0.00255288f, 0.04914505f, -0.01626167f, -0.02874342f, 
     0.03148765f, -0.03820905f, -0.08061841f, 0.01472409f, -0.03732741f, 0.01546930f, -0.00439185f, -0.01286860f},
    {0.01243707f, 0.06523968f, 0.03111733f, -0.07324470f, -0.00261571f, -0.03223071f, 0.02277400f, 0.02093098f, 
     -0.03086622f, 0.00661139f, 0.07022289f, 0.06001701f, -0.02432731f, -0.01466253f, 0.03518414f, -0.03767367f, 
     -0.02214496f, -0.09923480f, -0.04705671f, -0.02986027f, 0.02634460f, -0.08045943f, -0.02607521f, 0.00102783f, 
     -0.03221580f, 0.02035619f, -0.00121262f, -0.03854274f, 0.02966886f, -0.04412806f, 0.02110644f, -0.01755864f},
    {-0.10226642f, -0.04780692f, 0.01507205f, -0.09348490f, 0.00911292f, 0.10933448f, 0.02437492f, 0.02454840f, 
     -0.07528655f, 0.05391878f, 0.04750283f, 0.08477959f, 0.00151159f, -0.03097983f, 0.01741446f, -0.07813333f, 
     -0.01689096f, -0.08633955f, -0.02592665f, 0.00851091f, -0.01003681f, 0.02735453f, 0.03801487f, -0.03525266f, 
     -0.01501506f, 0.03827449f, 0.00129593f, 0.03318422f, -0.00810958f, -0.03302198f, 0.01741532f, -0.04560747f},
    {0.02412207f, -0.03574190f, 0.10409587f, -0.06309136f, 0.03156256f, -0.06904189f, 0.00428694f, -0.00230419f, 
     -0.06904353f, 0.01265802f, 0.02275692f, 0.01547474f, 0.04870429f, -0.03746871f, -0.00069568f, 0.03829914f, 
     0.00369016f, -0.07470082f, 0.05385283f, -0.06308018f, -0.00674696f, 0.02847235f, -0.00554356f, -0.01035859f, 
     -0.10872913f, -0.06885219f, 0.00047976f, 0.03580008f, -0.05038447f, -0.01133140f, -0.00646615f, 0.06306336f},
