#ifndef RLM_WEIGHTS_H
#define RLM_WEIGHTS_H

#define RLM_CLASSES 3
#define RLM_FEATURES 784

// Pesos W [clases][features]
const float rlm_weights[RLM_CLASSES][RLM_FEATURES] = {
    {0.00000000f, 0.00032608f, 0.00387239f, -0.00025708f, 0.00000000f, -0.00008079f, -0.00056641f, -0.00217963f, 
     -0.00187273f, 0.00000000f, 0.00166766f, 0.00000000f, 0.00113539f, -0.00304000f, 0.00010554f, -0.00140292f, 
     0.00515111f, -0.00049426f, 0.00000000f, 0.00144562f, 0.00002379f, -0.00068787f, -0.00331090f, 0.00183322f, 
     -0.00168626f, -0.00159245f, 0.00368637f, -0.00248343f, -0.00133350f, -0.00125937f, -0.00151869f, -0.00517053f, 
     -0.00279134f, -0.00715182f, -0.00895460f, -0.00057292f, -0.00390592f, 0.00549043f, -0.00444389f, -0.00733420f, 
     -0.00552298f, 0.00163397f, 0.00436966f, 0.00541846f, 0.00084114f, 0.00007892f, 0.00120466f, 0.00038678f, 
     -0.00565511f, -0.00906712f, -0.00608555f, -0.01006187f, -0.00876520f, 0.00066464f, -0.00095581f, -0.00388948f, 
     -0.00474557f, -0.00202351f, -0.00633054f, -0.01271097f, -0.01394570f, 0.00472910f, -0.00658035f, -0.00051173f, 
     -0.00493598f, -0.00648916f, -0.00418448f, 0.00529583f, -0.00207101f, -0.00229536f, 0.00231735f, 0.00577186f, 
     0.00874270f, 0.00353257f, 0.00551857f, 0.00899558f, 0.00273381f, -0.00447097f, -0.01024479f, -0.00859239f, 
     -0.00814932f, -0.00354897f, -0.00271426f, -0.00019673f, 0.00046604f, -0.00641835f, -0.00558681f, -0.00648028f, 
     0.00478242f, 0.00034730f, 0.00515937f, 0.00117286f, 0.00702448f, 0.01207071f, 0.00752641f, 0.00084541f, 
     0.00343458f, -0.00264318f, -0.00890757f, -0.00251643f, 0.00653326f, -0.00901567f, 0.00313004f, 0.00857517f, 
     0.00093083f, -0.00124255f, 0.00082249f, -0.00728073f, -0.00128373f, 0.00336783f, -0.00896191f, -0.00301862f, 
     -0.00299485f, -0.00391113f, -0.00491200f, -0.00068302f, 0.00205018f, 0.00079247f, -0.00668878f, -0.00124716f, 
     -0.00344087f, 0.00208516f, -0.00301584f, 0.00329355f, 0.00010518f, 0.00124072f, 0.00131289f, 0.00735042f, 
     -0.00039648f, 0.00491507f, -0.00198965f, 0.00638664f, -0.00081892f, -0.00608880f, -0.00270302f, 0.00417483f, 
     -0.00876635f, -0.00114266f, 0.00217030f, 0.00077363f, -0.00487572f, 0.00190759f, 0.00469223f, 0.00414956f, 
     0.00048283f, -0.00085829f, -0.00978768f, 0.00386359f, -0.01469040f, 0.00149250f, -0.01494191f, 0.00087818f, 
     0.01188645f, 0.00162775f, -0.00140475f, 0.00561732f, -0.00369551f, -0.00415140f, -0.00051027f, -0.01255622f, 
     0.00015334f, -0.00458811f, -0.00807381f, -0.00425526f, -0.00003738f, -0.00159195f, -0.00137547f, 0.00444306f, 
     0.00000000f, 0.00163469f, -0.00389793f, 0.00103871f, 0.00439817f, 0.01025556f, -0.00062233f, 0.00434805f, 
     -0.00127483f, 0.00638038f, -0.00474561f, 0.01292114f, 0.00545907f, 0.00264260f, 0.00151091f, 0.00111819f, 
     0.00811334f, -0.00482771f, 0.00291507f, -0.00280978f, -0.00329450f, -0.00120197f, -0.00470938f, -0.00101349f, 
     -0.00873106f, -0.00383026f, -0.00370530f, 0.00643988f, -0.00272788f, -0.00017599f, 0.00081461f, -0.00393596f, 
     0.00723394f, 0.00467061f, -0.00566732f, 0.00281609f, -0.00145289f, 0.00089908f, 0.00294620f, 0.00260551f, 
     -0.00165462f, -0.01057247f, -0.00745402f, 0.00031337f, 0.00789094f, 0.00813823f, 0.00226082f, 0.00009695f, 
     -0.00027949f, 0.00634081f, 0.00257364f, 0.00084592f, 0.00442796f, -0.00071980f, -0.00069134f, 0.00452832f, 
     -0.00044804f, -0.00471515f, -0.00312315f, -0.00353202f, 0.00829429f, -0.00121260f, -0.00052772f, 0.00449524f, 
     -0.00641203f, -0.00444849f, -0.00378323f, 0.00212295f, -0.00680247f, 0.00009420f, -0.00585253f, -0.00325562f, 
     -0.00788070f, 0.00178835f, 0.00239344f, -0.00602072f, 0.00107011f, 0.00566133f, 0.00861019f, 0.00422393f, 
     0.00022922f, -0.00780695f, 0.00229949f, -0.00587673f, -0.00024445f, -0.00621950f, -0.00833342f, 0.00442235f, 
     0.00235510f, -0.00790068f, 0.00239841f, 0.00197326f, -0.00341683f, 0.01205459f, -0.00309507f, 0.00375340f, 
     -0.00426265f, -0.00000385f, 0.00494005f, -0.00704350f, 0.00455659f, 0.00308811f, 0.00266423f, -0.00303036f, 
     -0.00895871f, 0.00275704f, 0.00767190f, -0.00023305f, 0.00184637f, 0.00073764f, -0.00585331f, -0.00400589f, 
     -0.00235283f, 0.00065955f, -0.00819524f, -0.00167897f, -0.00292554f, -0.00361560f, 0.00389128f, -0.00244791f, 
     -0.00905579f, -0.00203617f, -0.00541570f, -0.00172251f, 0.00625782f, -0.00862830f, 0.00074914f, 0.00943875f, 
     0.00479777f, 0.00034030f, -0.00584124f, -0.00061842f, 0.00454041f, 0.00475329f, 0.01010230f, 0.00029124f, 
     -0.00214455f, -0.00105945f, -0.00313189f, -0.00277694f, 0.00049011f, 0.00559816f, 0.00429047f, -0.00619786f, 
     0.00328323f, 0.00207714f, -0.00049669f, 0.00514850f, -0.00025476f, -0.00063518f, 0.01338078f, -0.00213008f, 
     0.00216320f, -0.00495034f, -0.00348875f, -0.00406043f, 0.00981816f, -0.00146528f, 0.00194946f, -0.00848245f, 
     -0.00460050f, 0.00119859f, 0.00664210f, 0.00503054f, 0.00591999f, -0.00059159f, 0.00957237f, -0.00302389f, 
     -0.00068242f, 0.00867795f, 0.00122672f, -0.00556630f, 0.00020272f, 0.01092503f, 0.00096514f, 0.00625228f, 
     0.00116768f, 0.01333252f, -0.00828485f, 0.00031055f, -0.00309970f, -0.00601958f, 0.00768628f, -0.00800572f, 
     -0.00950364f, -0.00423632f, -0.00149433f, -0.00772819f, 0.00256916f, -0.00021530f, -0.00395312f, 0.00563305f, 
     -0.00406292f, -0.00080936f, 0.00473319f, -0.00133846f, -0.00122498f, 0.00554612f, 0.00149831f, -0.00066473f, 
     0.00155797f, -0.00030593f, -0.00431462f, -0.00133498f, -0.00401374f, -0.00000810f, 0.00251344f, -0.00258803f, 
     0.00455193f, -0.00013818f, -0.00359577f, 0.00247906f, -0.00641453f, -0.00696597f, 0.00512327f, -0.00014107f, 
     0.01024333f, 0.00066963f, 0.00102548f, 0.00519146f, 0.00413882f, -0.00521729f, -0.00252481f, -0.00007035f, 
     -0.00522155f, 0.00309466f, -0.00378060f, -0.00200273f, -0.00179978f, 0.00563177f, -0.00662137f, -0.01598359f, 
     -0.00793036f, 0.00387050f, 0.00907467f, -0.00263252f, 0.00366340f, -0.01128173f, -0.00186008f, 0.00136270f, 
     0.00405781f, 0.00103685f, 0.00151019f, 0.00550221f, -0.00068802f, 0.00231128f, -0.00542366f, 0.00309834f, 
     0.00908793f, 0.00158702f, 0.00781875f, 0.00143832f, 0.00000000f, 0.00355450f, 0.00073563f, 0.00103142f, 
     0.00350880f, 0.01483298f, 0.00366374f, -0.01010168f, -0.00297213f, 0.00996170f, 0.00539924f, -0.00594440f, 
     0.00048333f, -0.00273635f, 0.00743694f, 0.00335419f, 0.00502228f, -0.00292869f, 0.00270684f, 0.00658314f, 
     0.00551056f, 0.00138941f, 0.00392326f, 0.00074826f, 0.00621411f, 0.00793387f, 0.00889565f, 0.00065464f, 
     0.00071757f, 0.00182193f, 0.00231965f, 0.00377468f, -0.00104401f, 0.01190450f, -0.00165037f, -0.00469143f, 
     -0.00308132f, 0.00171016f, 0.00219537f, -0.00133224f, -0.00176721f, -0.00281942f, 0.00864825f, 0.00608005f, 
     -0.00989618f, -0.00710553f, 0.00119563f, 0.00830144f, 0.00750139f, 0.00167317f, 0.00192617f, -0.00065194f, 
     0.00404923f, -0.00337821f, 0.00593600f, 0.00000500f, -0.00089935f, 0.00779211f, 0.00544341f, 0.01283199f, 
     0.00352362f, -0.01429296f, 0.00798837f, 0.01067904f, 0.00244389f, 0.00491187f, 0.00026576f, -0.00692388f, 
     0.00288103f, -0.00423890f, 0.00193520f, 0.01004558f, -0.00863307f, -0.00541919f, -0.01283806f, 0.00370996f, 
     0.00005095f, -0.01084388f, -0.00500250f, -0.00031713f, 0.00394930f, -0.00495141f, 0.00467303f, -0.00409312f, 
     -0.00163407f, 0.01138799f, -0.00324817f, -0.00301458f, -0.00165359f, -0.00913678f, -0.00660211f, 0.00226899f, 
     0.00121637f, 0.00670077f, 0.00979142f, -0.01212102f, 0.00297234f, -0.00232436f, -0.00350572f, -0.00599711f, 
     -0.00043986f, -0.00694937f, -0.00943283f, 0.00429188f, -0.00793257f, -0.00957397f, -0.00229250f, -0.00028341f, 
     -0.00123942f, 0.00058056f, 0.00155142f, -0.00227949f, -0.00026099f, -0.00043732f, 0.00290837f, 0.00000491f, 
     0.00396392f, 0.00514790f, -0.00023169f, 0.00130069f, 0.00159548f, -0.00061937f, -0.00251955f, -0.01012433f, 
     -0.00177136f, -0.00351005f, 0.00043794f, 0.00220774f, 0.00650788f, 0.00891714f, 0.00841433f, 0.00096432f, 
     -0.00131920f, 0.00138477f, -0.00950140f, 0.00009871f, -0.00634408f, 0.00290859f, -0.00089504f, -0.00506559f, 
     0.00437649f, 0.00005762f, 0.00055432f, 0.00139786f, -0.00443174f, -0.00654068f, -0.00217150f, 0.01108107f, 
     -0.00483433f, -0.00368773f, -0.00091900f, -0.00085186f, 0.00198846f, -0.00750523f, 0.00302659f, -0.00464721f, 
     0.00253454f, 0.00875727f, -0.00516962f, -0.00689454f, 0.00813326f, 0.00156226f, -0.00932269f, -0.00213352f, 
     -0.00208963f, -0.00054411f, 0.00532056f, -0.00719096f, -0.00290974f, -0.00502158f, -0.00258105f, 0.00235386f, 
     0.00098241f, -0.00675510f, 0.00030027f, 0.01557574f, 0.00180011f, -0.00447399f, -0.00573020f, -0.00030087f, 
     0.01390674f, 0.00646415f, 0.00288138f, 0.00343740f, 0.00813554f, 0.00173277f, -0.01252424f, 0.00022104f, 
     -0.00031571f, 0.00341362f, -0.00194946f, 0.00489800f, 0.00377621f, -0.00470670f, -0.00547443f, -0.00193446f, 
     0.00183342f, -0.00325879f, -0.01656426f, -0.00371320f, -0.00049797f, -0.00651528f, -0.00025216f, -0.00395392f, 
     0.00446060f, -0.00352282f, -0.00730680f, 0.00069945f, 0.00022438f, 0.00640484f, 0.00124737f, 0.00096987f, 
     0.00333047f, -0.00318354f, -0.00632128f, 0.00440010f, -0.00459191f, 0.00748746f, -0.00227097f, -0.00626653f, 
     -0.00816390f, -0.00503189f, -0.00485903f, 0.00066901f, 0.00000000f, -0.00147032f, -0.00506191f, -0.00490818f, 
     -0.01009044f, -0.01316108f, -0.00663791f, -0.00254954f, 0.01310800f, -0.00644105f, 0.00069057f, -0.00572510f, 
     0.00076986f, 0.00822048f, -0.00021887f, 0.00118959f, 0.00233583f, 0.01046062f, 0.00280865f, 0.00577982f, 
     0.00733815f, -0.00238376f, -0.00995899f, -0.00723464f, -0.01128973f, -0.00233792f, -0.00383853f, -0.00243100f, 
     0.00238378f, -0.00160989f, -0.00587696f, -0.00901632f, -0.00684307f, -0.01082184f, -0.00951287f, -0.00468629f, 
     -0.00192295f, -0.00535039f, -0.00832823f, -0.00179829f, 0.00953361f, -0.00332223f, 0.00489428f, 0.00809458f, 
     -0.00453224f, 0.00066755f, -0.00328423f, 0.00257524f, -0.00502662f, -0.00251814f, -0.01733720f, -0.00762357f, 
     -0.00517241f, -0.00698706f, -0.00051706f, -0.00231054f, -0.00269872f, -0.00160965f, 0.00206376f, -0.00618655f, 
     -0.00347233f, -0.00661376f, -0.00389025f, -0.00355231f, -0.00156903f, -0.00421106f, 0.00123912f, -0.00124019f, 
     0.00330050f, 0.00458074f, 0.00408601f, 0.00478047f, 0.00143906f, 0.00351709f, 0.00694430f, 0.00941427f, 
     -0.00136055f, -0.00970713f, -0.00757755f, -0.00289401f, -0.00526573f, -0.00185404f, -0.00703678f, -0.00033474f, 
     -0.00483421f, -0.00660741f, -0.00735044f, -0.00822393f, -0.01004550f, -0.00237965f, -0.00765548f, -0.00004559f, 
     -0.00094350f, -0.00217413f, 0.00260294f, 0.00800720f, -0.00739592f, -0.00516886f, -0.00512126f, -0.00187455f, 
     -0.00416823f, 0.00636468f, 0.00628729f, 0.00314183f, 0.00250266f, 0.00113634f, -0.00835646f, 0.00000977f, 
     -0.00021277f, -0.00484348f, -0.00306983f, -0.00147161f, 0.00065303f, -0.00057851f, 0.00074625f, -0.00287237f, 
     -0.00023616f, 0.00198280f, -0.00213193f, 0.00296914f, 0.00663619f, 0.00986747f, -0.00072475f, 0.00145312f, 
     0.01055298f, -0.00050975f, -0.00239157f, -0.00167599f, -0.00282641f, 0.00824430f, 0.01201061f, 0.00629053f, 
     0.00777337f, 0.00367466f, -0.00041868f, -0.00132768f, -0.00223997f, 0.00341297f, -0.00086202f, -0.00234912f},
    {0.00000000f, -0.00219271f, -0.00272064f, 0.00044318f, 0.00000000f, 0.00009700f, -0.00148536f, -0.00108570f, 
     -0.00470104f, 0.00000000f, 0.00058578f, 0.00000000f, -0.00018908f, -0.00270681f, -0.00319592f, -0.00198012f, 
     -0.00448805f, 0.00058824f, 0.00000000f, -0.00137739f, 0.00003172f, -0.00101207f, -0.00642671f, -0.00342817f, 
     -0.00151666f, -0.00109181f, -0.00354398f, -0.00040754f, -0.00028157f, -0.00526211f, -0.00037086f, 0.00129452f, 
     0.00014318f, 0.00178706f, 0.00983713f, 0.00376507f, 0.00089054f, -0.00873031f, 0.00431456f, 0.00268382f, 
     -0.00067614f, -0.00213254f, 0.00022328f, 0.00204260f, -0.00012492f, 0.00116065f, -0.00018201f, -0.00379476f, 
     0.00539125f, 0.00340882f, 0.00468403f, 0.00052351f, 0.00033434f, -0.00043972f, 0.00109052f, 0.00014576f, 
     -0.00348091f, -0.00247785f, 0.00441631f, 0.01296831f, 0.01172248f, -0.00016776f, 0.01102801f, 0.00808858f, 
     0.00204142f, -0.01060558f, 0.00214106f, -0.00021040f, -0.00136903f, -0.00045543f, 0.00306286f, -0.00123400f, 
     -0.00217319f, 0.00138642f, -0.00247646f, 0.00290859f, 0.00123126f, 0.00189667f, 0.00609818f, 0.00393658f, 
     -0.00297184f, 0.00528866f, 0.00412837f, 0.00026302f, -0.00178126f, -0.00252866f, 0.00652027f, 0.00932718f, 
     -0.00088564f, 0.00137760f, 0.00509946f, -0.00394059f, -0.00308285f, -0.01443582f, -0.01087511f, 0.00045698f, 
     -0.00141697f, 0.00252469f, 0.00146609f, -0.00311650f, -0.00607748f, 0.00269238f, -0.00415234f, 0.00641577f, 
     0.01096410f, -0.00374643f, -0.00338102f, 0.00205696f, 0.00600341f, 0.00015851f, 0.00682514f, 0.00412836f, 
     -0.00118868f, 0.00256450f, 0.00112915f, 0.00493305f, 0.00556441f, 0.00589071f, 0.01209918f, -0.00052581f, 
     -0.00126798f, -0.00850003f, -0.00312552f, -0.00028250f, 0.00338804f, 0.00031907f, -0.00840404f, -0.00851370f, 
     0.00104616f, -0.00566653f, -0.00321869f, 0.00145251f, 0.00135310f, 0.00178916f, 0.00020150f, -0.00344043f, 
     0.00774208f, 0.00369876f, 0.00220300f, 0.00271478f, 0.00570013f, -0.00099225f, -0.00213071f, -0.00044090f, 
     0.00359473f, 0.00517961f, 0.00728922f, 0.00025730f, 0.01329301f, 0.00744872f, 0.00248316f, -0.00157990f, 
     -0.00004403f, -0.00401737f, -0.00171048f, -0.00854534f, 0.00107758f, -0.00695652f, -0.00392625f, 0.00623278f, 
     0.00201371f, 0.00352300f, 0.00522260f, -0.00140112f, -0.00453069f, 0.00399197f, 0.00439458f, -0.00667983f, 
     0.00000000f, -0.00188885f, 0.00590903f, -0.00147697f, -0.00049714f, -0.00208265f, 0.00544654f, -0.00339390f, 
     -0.00123063f, -0.00751660f, -0.00022328f, 0.00180528f, -0.00863893f, 0.00039564f, -0.00482830f, 0.00341095f, 
     -0.00159751f, -0.00250735f, 0.00233627f, 0.00899937f, 0.00076921f, 0.00333102f, 0.00228604f, -0.00416340f, 
     0.00078831f, 0.00304235f, -0.00359021f, -0.00728361f, -0.00013907f, -0.00037206f, 0.00766539f, 0.00345627f, 
     -0.00525543f, -0.00618078f, -0.00857083f, -0.00378441f, 0.00755179f, -0.00135612f, 0.00796051f, 0.00200902f, 
     -0.00538679f, -0.00276820f, -0.00384074f, 0.01022581f, -0.00152383f, 0.00144116f, -0.00622005f, 0.00015154f, 
     0.00588405f, 0.00391869f, -0.00730549f, -0.00704205f, -0.01283054f, 0.00037155f, -0.00643053f, -0.00138308f, 
     -0.00369096f, -0.00096945f, -0.00025387f, -0.00050311f, -0.00154593f, -0.00500857f, 0.00181621f, -0.01191274f, 
     0.00840692f, 0.00129271f, -0.00362709f, -0.00273575f, 0.00358106f, 0.00528012f, 0.01459833f, 0.00546593f, 
     -0.00068950f, 0.00049022f, 0.00073343f, 0.00439844f, -0.00140923f, 0.00349153f, -0.00637083f, -0.00565341f, 
     -0.00489333f, -0.00038399f, -0.00178627f, 0.00515719f, 0.00026847f, -0.00049031f, 0.00686024f, -0.00469077f, 
     -0.01033014f, 0.00104680f, -0.00141679f, -0.00186999f, 0.00743058f, -0.00371265f, -0.00148797f, 0.00324019f, 
     -0.01362039f, 0.00475122f, -0.01002800f, 0.00165417f, 0.00426246f, 0.00203128f, -0.00154596f, 0.00351510f, 
     0.00500687f, -0.00041311f, 0.00087737f, 0.00121328f, 0.00072407f, -0.00422266f, 0.00374318f, 0.00639049f, 
     -0.00073810f, -0.00348857f, 0.00216352f, 0.00456543f, 0.00086151f, 0.00138123f, -0.00010385f, 0.00617037f, 
     0.00316284f, -0.00140131f, 0.00615855f, 0.00360250f, -0.00222926f, 0.00841150f, -0.00619218f, -0.00361631f, 
     -0.00041457f, 0.00771478f, -0.00697890f, -0.00222063f, -0.00488282f, 0.00578639f, -0.00486526f, -0.00135657f, 
     0.00755641f, 0.00042596f, -0.00652548f, 0.00228517f, -0.00045055f, -0.00739998f, -0.00735886f, 0.00517785f, 
     0.00025649f, 0.00842550f, 0.01344201f, -0.00781455f, 0.00469882f, 0.00312080f, -0.00260258f, 0.00275077f, 
     0.00112144f, -0.00902861f, 0.00143642f, 0.00141737f, -0.00572530f, 0.00500156f, -0.00409391f, 0.00758890f, 
     0.00552917f, 0.00829325f, -0.00471756f, 0.00129286f, 0.00405941f, -0.00237791f, -0.00431221f, 0.00248819f, 
     -0.00107115f, -0.00566644f, -0.00355175f, -0.00221454f, 0.00190528f, -0.00534533f, 0.00354732f, -0.00539646f, 
     -0.00226210f, -0.00306981f, 0.00640253f, 0.00435434f, -0.00578917f, 0.00894732f, 0.00255287f, 0.00924577f, 
     -0.00382701f, -0.00399514f, -0.00474618f, 0.00461959f, 0.00243054f, -0.00158125f, -0.00322011f, -0.00382722f, 
     0.01138596f, -0.00347108f, 0.00585008f, 0.00478724f, -0.00445074f, -0.00310355f, -0.00053666f, -0.00081513f, 
     0.00027478f, -0.00155985f, -0.00013881f, -0.00550504f, 0.00594715f, -0.00031702f, -0.00677193f, -0.00189863f, 
     -0.00245254f, 0.00804520f, -0.00839113f, -0.00550000f, -0.00209949f, 0.00776548f, -0.00723955f, 0.00367398f, 
     -0.00420166f, 0.00071165f, -0.00273543f, 0.00321585f, 0.00500032f, 0.00089990f, 0.00617170f, 0.00277302f, 
     -0.00214836f, -0.01000214f, 0.00185207f, -0.00094103f, -0.00417703f, 0.00224770f, 0.00802842f, 0.01065597f, 
     -0.00399378f, 0.00298693f, 0.00048371f, 0.00066895f, 0.00605121f, 0.00599013f, 0.00380987f, -0.00015826f, 
     0.00094931f, -0.00361608f, 0.00143554f, 0.00069597f, -0.00283383f, -0.00219826f, 0.00100324f, -0.00044208f, 
     0.00239224f, 0.00153871f, -0.00389699f, 0.00141357f, 0.00000000f, -0.00925600f, -0.00159504f, 0.01469294f, 
     -0.00313354f, 0.00376797f, 0.00441816f, 0.01006738f, 0.01654623f, -0.00140297f, -0.00576753f, 0.00057055f, 
     -0.00948712f, -0.00666246f, 0.00017065f, -0.00471910f, -0.00441597f, -0.00271834f, 0.00646783f, 0.00260057f, 
     0.00381006f, 0.00735824f, 0.00441980f, 0.00407914f, -0.00632690f, -0.00747739f, -0.00549473f, 0.00222416f, 
     0.00342973f, -0.00745436f, -0.00046396f, 0.01025603f, 0.00428712f, -0.00023648f, -0.01753472f, 0.00083494f, 
     0.00279798f, 0.00128105f, -0.00079908f, 0.00912454f, -0.00833376f, -0.00643161f, -0.01240116f, -0.00233517f, 
     -0.00872906f, 0.00843381f, 0.00208582f, -0.00542509f, -0.00402812f, -0.00500480f, -0.00263426f, -0.00623043f, 
     -0.00909186f, -0.00629197f, -0.00426806f, 0.00318486f, 0.00108785f, -0.00081141f, -0.00107994f, -0.00574254f, 
     0.00606653f, 0.00543340f, -0.01378076f, 0.00055511f, 0.00288180f, 0.00108217f, 0.00382563f, 0.00615181f, 
     -0.00973232f, 0.00391518f, -0.00382910f, 0.00123776f, -0.00265165f, 0.00556364f, 0.00904687f, -0.00521906f, 
     -0.00578394f, 0.00514050f, -0.00211932f, 0.00236855f, -0.00210825f, -0.00520778f, 0.00105500f, 0.00578030f, 
     0.00350381f, -0.00928315f, 0.00373958f, -0.00048224f, -0.00270568f, -0.00295308f, -0.00642470f, -0.00828780f, 
     -0.00488918f, -0.00415171f, -0.00615896f, 0.00158261f, -0.00162281f, -0.00204988f, 0.00101939f, 0.00014751f, 
     0.01007938f, 0.00451672f, 0.01319841f, -0.00224159f, 0.00826706f, 0.00943099f, 0.00029761f, 0.00157701f, 
     0.00623274f, -0.00150423f, -0.00667482f, 0.00048617f, -0.00110252f, 0.00051989f, 0.00275965f, -0.00554311f, 
     -0.01410444f, 0.00298279f, 0.00128553f, -0.00099082f, -0.00025021f, -0.00096533f, 0.00554622f, 0.01338783f, 
     0.00620567f, 0.00338784f, 0.00056593f, 0.00896964f, 0.00204615f, -0.00517543f, -0.00710597f, -0.01014917f, 
     -0.00423504f, -0.01051087f, 0.00197473f, 0.00002996f, 0.00532119f, -0.00671175f, -0.00011168f, 0.00318789f, 
     -0.00257497f, 0.00122870f, 0.00541089f, -0.00068828f, 0.00017179f, 0.01334350f, 0.00268638f, -0.00973177f, 
     -0.00303594f, 0.00456869f, -0.00207973f, 0.00644867f, -0.00393778f, -0.00062177f, -0.01381729f, 0.00151824f, 
     0.00274569f, -0.00425140f, 0.00990624f, -0.00014948f, -0.00701369f, 0.00430305f, 0.00670053f, 0.00544158f, 
     -0.00394271f, 0.00743936f, 0.00606427f, 0.00409626f, -0.00092457f, 0.00772587f, 0.00683605f, 0.00118551f, 
     -0.00259827f, 0.00850891f, 0.00993139f, -0.00505074f, -0.00610013f, -0.00391409f, -0.00169159f, 0.00483776f, 
     0.00113505f, -0.00227430f, -0.01288380f, -0.00354292f, -0.00431156f, -0.00772141f, 0.00432431f, -0.00439725f, 
     -0.00476645f, -0.00150557f, 0.00625895f, 0.00096678f, -0.00179117f, 0.00856519f, 0.00573383f, 0.00293203f, 
     -0.00121238f, 0.00029323f, 0.00886690f, -0.00426132f, -0.00189977f, 0.00684462f, -0.00153540f, 0.00659170f, 
     -0.00647080f, -0.00299228f, 0.00706887f, 0.00227155f, 0.00393185f, -0.00707342f, -0.00235978f, 0.00045709f, 
     -0.00115758f, -0.00234240f, 0.01171300f, -0.00254948f, -0.00460091f, 0.00633134f, 0.00678685f, -0.00215237f, 
     0.01062463f, 0.00500480f, 0.00871512f, 0.00078449f, 0.00000000f, 0.00420182f, 0.00178956f, -0.00026450f, 
     -0.00354431f, 0.00629138f, 0.00198421f, 0.00814069f, -0.00597396f, -0.00229806f, 0.00649328f, 0.00690513f, 
     0.00217085f, -0.00256229f, 0.00362262f, 0.00512101f, -0.00548541f, -0.00785461f, 0.00465012f, -0.00459522f, 
     -0.00196464f, -0.00297562f, 0.00188707f, 0.00337060f, 0.00335039f, 0.00517922f, 0.00842495f, 0.00187891f, 
     -0.00212939f, 0.00246804f, 0.00872827f, 0.00415075f, 0.00408240f, 0.00722213f, 0.00457454f, 0.00425464f, 
     -0.00495858f, 0.00211336f, 0.00190582f, -0.00508452f, -0.01036478f, -0.00887695f, 0.00025173f, 0.00166062f, 
     0.00487882f, -0.00723031f, 0.00729951f, 0.00307823f, -0.00185750f, -0.00477733f, 0.02445189f, 0.00928383f, 
     -0.00337712f, -0.00212400f, -0.00698339f, 0.00547160f, 0.00162515f, 0.00092884f, -0.00175618f, -0.00170254f, 
     -0.00301251f, 0.00445371f, 0.00003690f, -0.00049415f, -0.00491316f, 0.00114472f, 0.00180968f, -0.00572125f, 
     -0.00247081f, 0.00095587f, 0.00427299f, 0.00253483f, 0.00085575f, -0.00481697f, 0.00385497f, 0.00029122f, 
     0.00055277f, 0.00710906f, 0.00672313f, -0.00052722f, 0.00362427f, -0.00563904f, -0.00143366f, 0.00045756f, 
     -0.00565005f, 0.00460581f, -0.00368027f, -0.00329003f, 0.00163062f, 0.00030611f, 0.00027853f, -0.00445150f, 
     -0.00383141f, 0.00641372f, 0.00722484f, 0.00399430f, 0.00180242f, 0.00037087f, 0.00316503f, 0.00755283f, 
     0.00489507f, -0.00793528f, -0.00520221f, 0.00036801f, -0.00695789f, -0.00520743f, 0.00543500f, -0.00473947f, 
     -0.00541573f, -0.00241365f, -0.00454975f, -0.00197225f, -0.00001814f, 0.00187673f, 0.00135592f, 0.00528112f, 
     0.00124857f, 0.00208104f, 0.00265149f, -0.00498981f, -0.00132369f, -0.00433561f, 0.00782044f, -0.00354362f, 
     0.00185624f, 0.00202118f, 0.00516552f, 0.00324533f, 0.00633095f, -0.00381436f, -0.00914444f, -0.00169806f, 
     -0.00284636f, -0.00274524f, 0.00326111f, 0.00237055f, 0.00112710f, -0.00123651f, 0.00149998f, 0.00085999f},
    {0.00000000f, 0.00186663f, -0.00115175f, -0.00018610f, 0.00000000f, -0.00001621f, 0.00205178f, 0.00326534f, 
     0.00657377f, 0.00000000f, -0.00225344f, 0.00000000f, -0.00094631f, 0.00574681f, 0.00309038f, 0.00338305f, 
     -0.00066306f, -0.00009398f, 0.00000000f, -0.00006823f, -0.00005550f, 0.00169994f, 0.00973761f, 0.00159495f, 
     0.00320292f, 0.00268425f, -0.00014238f, 0.00289097f, 0.00161507f, 0.00652148f, 0.00188954f, 0.00387601f, 
     0.00264816f, 0.00536476f, -0.00088254f, -0.00319216f, 0.00301539f, 0.00323988f, 0.00012933f, 0.00465037f, 
     0.00619912f, 0.00049857f, -0.00459293f, -0.00746106f, -0.00071622f, -0.00123957f, -0.00102265f, 0.00340797f, 
     0.00026386f, 0.00565830f, 0.00140152f, 0.00953836f, 0.00843087f, -0.00022492f, -0.00013471f, 0.00374372f, 
     0.00822648f, 0.00450136f, 0.00191423f, -0.00025733f, 0.00222322f, -0.00456134f, -0.00444766f, -0.00757685f, 
     0.00289456f, 0.01709474f, 0.00204341f, -0.00508543f, 0.00344005f, 0.00275079f, -0.00538021f, -0.00453786f, 
     -0.00656952f, -0.00491899f, -0.00304211f, -0.01190417f, -0.00396507f, 0.00257431f, 0.00414661f, 0.00465580f, 
     0.01112117f, -0.00173969f, -0.00141411f, -0.00006628f, 0.00131521f, 0.00894701f, -0.00093346f, -0.00284690f, 
     -0.00389678f, -0.00172490f, -0.01025883f, 0.00276774f, -0.00394163f, 0.00236512f, 0.00334870f, -0.00130239f, 
     -0.00201761f, 0.00011849f, 0.00744148f, 0.00563293f, -0.00045578f, 0.00632329f, 0.00102230f, -0.01499094f, 
     -0.01189494f, 0.00498898f, 0.00255853f, 0.00522377f, -0.00471968f, -0.00352633f, 0.00213677f, -0.00110974f, 
     0.00418354f, 0.00134663f, 0.00378285f, -0.00425003f, -0.00761459f, -0.00668318f, -0.00541040f, 0.00177297f, 
     0.00470885f, 0.00641487f, 0.00614136f, -0.00301105f, -0.00349322f, -0.00155979f, 0.00709114f, 0.00116329f, 
     -0.00064968f, 0.00075146f, 0.00520834f, -0.00783915f, -0.00053418f, 0.00429964f, 0.00250152f, -0.00073441f, 
     0.00102427f, -0.00255611f, -0.00437330f, -0.00348842f, -0.00082441f, -0.00091534f, -0.00256152f, -0.00370866f, 
     -0.00407755f, -0.00432131f, 0.00249845f, -0.00412089f, 0.00139739f, -0.00894122f, 0.01245876f, 0.00070172f, 
     -0.01184242f, 0.00238962f, 0.00311523f, 0.00292802f, 0.00261792f, 0.01110791f, 0.00443652f, 0.00632344f, 
     -0.00216705f, 0.00106511f, 0.00285122f, 0.00565638f, 0.00456806f, -0.00240002f, -0.00301911f, 0.00223678f, 
     0.00000000f, 0.00025416f, -0.00201110f, 0.00043826f, -0.00390104f, -0.00817291f, -0.00482421f, -0.00095415f, 
     0.00250545f, 0.00113622f, 0.00496889f, -0.01472641f, 0.00317986f, -0.00303824f, 0.00331739f, -0.00452914f, 
     -0.00651583f, 0.00733506f, -0.00525135f, -0.00618959f, 0.00252530f, -0.00212905f, 0.00242334f, 0.00517688f, 
     0.00794275f, 0.00078791f, 0.00729551f, 0.00084373f, 0.00286695f, 0.00054806f, -0.00848000f, 0.00047969f, 
     -0.00197851f, 0.00151017f, 0.01423815f, 0.00096832f, -0.00609891f, 0.00045704f, -0.01090671f, -0.00461453f, 
     0.00704141f, 0.01334068f, 0.01129476f, -0.01053917f, -0.00636711f, -0.00957939f, 0.00395923f, -0.00024850f, 
     -0.00560456f, -0.01025950f, 0.00473185f, 0.00619612f, 0.00840257f, 0.00034825f, 0.00712187f, -0.00314523f, 
     0.00413900f, 0.00568460f, 0.00337701f, 0.00403514f, -0.00674836f, 0.00622117f, -0.00128849f, 0.00741750f, 
     -0.00199488f, 0.00315578f, 0.00741032f, 0.00061280f, 0.00322140f, -0.00537431f, -0.00874580f, -0.00221031f, 
     0.00857021f, -0.00227858f, -0.00312687f, 0.00162228f, 0.00033912f, -0.00915285f, -0.00223936f, 0.00142947f, 
     0.00466411f, 0.00819095f, -0.00051322f, 0.00071954f, -0.00002402f, 0.00670980f, 0.00147319f, 0.00026842f, 
     0.00797505f, 0.00685388f, -0.00098162f, -0.00010327f, -0.00401375f, -0.00834194f, 0.00458303f, -0.00699359f, 
     0.01788304f, -0.00474737f, 0.00508795f, 0.00538933f, -0.00881906f, -0.00511939f, -0.00111827f, -0.00048475f, 
     0.00395183f, -0.00234394f, -0.00854927f, -0.00098023f, -0.00257044f, 0.00348503f, 0.00211013f, -0.00238460f, 
     0.00309093f, 0.00282902f, 0.00603172f, -0.00288646f, 0.00206403f, 0.00223437f, -0.00378743f, -0.00372246f, 
     0.00589295f, 0.00343747f, -0.00074285f, -0.00187999f, -0.00402857f, 0.00021681f, 0.00544305f, -0.00582244f, 
     -0.00438321f, -0.00805508f, 0.01282013f, 0.00283905f, 0.00034242f, -0.01053968f, -0.00523704f, 0.00106533f, 
     -0.00541186f, 0.00063348f, 0.00965738f, 0.00049177f, -0.00003956f, 0.00180182f, 0.00306839f, 0.00102002f, 
     -0.00353971f, -0.01050265f, -0.01294532f, 0.00266605f, -0.00444407f, -0.00248562f, -0.01077820f, -0.00062069f, 
     -0.00328464f, 0.01397895f, 0.00205233f, 0.00264306f, -0.00409286f, -0.00353628f, 0.00214445f, 0.00089355f, 
     -0.00092867f, -0.00949185f, -0.00192454f, -0.00632339f, -0.00997941f, 0.00296950f, -0.00526017f, 0.00053571f, 
     0.00175358f, -0.00301151f, 0.00232503f, 0.00778084f, -0.00210800f, -0.00557971f, -0.00451246f, -0.00085581f, 
     0.00109442f, -0.01026271f, 0.00188232f, -0.00466489f, 0.00888887f, -0.00292774f, -0.01023915f, -0.00124006f, 
     0.01333065f, 0.00823146f, 0.00624052f, 0.00310860f, -0.00499970f, 0.00179655f, 0.00717323f, -0.00180583f, 
     -0.00732303f, 0.00428044f, -0.01058327f, -0.00344878f, 0.00567572f, -0.00244257f, -0.00096165f, 0.00147986f, 
     -0.00183275f, 0.00186578f, 0.00445342f, 0.00684002f, -0.00193341f, 0.00032512f, 0.00425849f, 0.00448666f, 
     -0.00209939f, -0.00790702f, 0.01198690f, 0.00302095f, 0.00851402f, -0.00079951f, 0.00211628f, -0.00353292f, 
     -0.00604167f, -0.00138128f, 0.00170995f, -0.00840730f, -0.00913914f, 0.00431739f, -0.00364689f, -0.00270267f, 
     0.00736991f, 0.00690748f, 0.00192852f, 0.00294376f, 0.00597681f, -0.00787947f, -0.00140705f, 0.00532762f, 
     0.01192414f, -0.00685743f, -0.00955839f, 0.00196358f, -0.00971461f, 0.00529160f, -0.00194979f, -0.00120445f, 
     -0.00500712f, 0.00257923f, -0.00294573f, -0.00619819f, 0.00352185f, -0.00011302f, 0.00442042f, -0.00265626f, 
     -0.01148016f, -0.00312573f, -0.00392176f, -0.00285189f, 0.00000000f, 0.00570149f, 0.00085941f, -0.01572436f, 
     -0.00037526f, -0.01860095f, -0.00808190f, 0.00003430f, -0.01357409f, -0.00855873f, 0.00036829f, 0.00537385f, 
     0.00900379f, 0.00939881f, -0.00760759f, 0.00136492f, -0.00060631f, 0.00564702f, -0.00917467f, -0.00918371f, 
     -0.00932061f, -0.00874765f, -0.00834306f, -0.00482740f, 0.00011279f, -0.00045649f, -0.00340092f, -0.00287880f, 
     -0.00414730f, 0.00563243f, -0.00185570f, -0.01403071f, -0.00324311f, -0.01166802f, 0.01918509f, 0.00385649f, 
     0.00028334f, -0.00299121f, -0.00139629f, -0.00779229f, 0.01010098f, 0.00925103f, 0.00375291f, -0.00374489f, 
     0.01862524f, -0.00132829f, -0.00328144f, -0.00287635f, -0.00347327f, 0.00333162f, 0.00070809f, 0.00688237f, 
     0.00504263f, 0.00967018f, -0.00166794f, -0.00318987f, -0.00018850f, -0.00698071f, -0.00436348f, -0.00708945f, 
     -0.00959015f, 0.00885956f, 0.00579239f, -0.01123415f, -0.00532570f, -0.00599404f, -0.00409138f, 0.00077207f, 
     0.00685129f, 0.00032372f, 0.00189390f, -0.01128334f, 0.01128472f, -0.00014445f, 0.00379119f, 0.00150910f, 
     0.00573299f, 0.00570338f, 0.00712183f, -0.00205141f, -0.00184105f, 0.01015918f, -0.00572803f, -0.00168718f, 
     -0.00186974f, -0.00210484f, -0.00049140f, 0.00349683f, 0.00435927f, 0.01208987f, 0.01302681f, 0.00601880f, 
     0.00367281f, -0.00254905f, -0.00363245f, 0.01053842f, -0.00134953f, 0.00437424f, 0.00248633f, 0.00584961f, 
     -0.00963952f, 0.00243265f, -0.00376558f, -0.00205030f, -0.00033449f, 0.00014299f, 0.00199489f, -0.00129360f, 
     -0.00499332f, 0.00092367f, 0.00512340f, 0.00179331f, 0.00136351f, -0.00008257f, -0.00566802f, 0.00553820f, 
     0.01014052f, -0.00813070f, -0.00105384f, -0.00030988f, -0.00134527f, 0.00158470f, -0.00302667f, -0.00326350f, 
     -0.00443431f, 0.00012221f, -0.00100386f, -0.01117738f, -0.00855403f, -0.00374171f, -0.00130836f, 0.00918486f, 
     0.00555425f, 0.00912610f, 0.00752668f, -0.00012867f, 0.00102289f, 0.00380316f, 0.00100673f, 0.00187770f, 
     -0.00180152f, -0.00128632f, -0.00596522f, -0.00070958f, 0.00425995f, -0.00680282f, -0.00051488f, -0.00134929f, 
     0.00787027f, -0.00088096f, 0.00299873f, -0.00559681f, 0.00194932f, 0.00812700f, 0.01079070f, 0.00312898f, 
     -0.00528023f, -0.00450587f, -0.00473662f, 0.00704402f, -0.00111956f, -0.00586532f, 0.00262216f, -0.00330806f, 
     0.00603234f, -0.00689525f, -0.01138483f, 0.00309470f, 0.00383431f, -0.00270429f, -0.00425500f, -0.00353937f, 
     0.00161586f, -0.00175381f, -0.01023166f, -0.01052500f, 0.00430001f, 0.00838807f, 0.00742179f, -0.00453689f, 
     -0.01504179f, -0.00418984f, 0.01000242f, 0.00010551f, -0.00382398f, 0.00598864f, 0.00819993f, 0.00417621f, 
     0.00508216f, -0.00190805f, -0.00430949f, -0.00586478f, -0.00198504f, -0.00385848f, -0.00025940f, -0.00099757f, 
     -0.00062104f, 0.00296556f, 0.00769736f, 0.00797452f, 0.00239774f, -0.00032933f, 0.00178756f, -0.00263777f, 
     0.00201020f, 0.00651511f, 0.00023793f, -0.00297100f, -0.00415623f, 0.00066858f, 0.00111241f, -0.00142696f, 
     -0.00217289f, 0.00552594f, -0.00539172f, -0.00185062f, 0.00919282f, -0.01381880f, -0.00451588f, 0.00841890f, 
     -0.00246074f, 0.00002708f, -0.00385609f, -0.00145350f, 0.00000000f, -0.00273150f, 0.00327235f, 0.00517268f, 
     0.01363476f, 0.00686970f, 0.00465370f, -0.00559116f, -0.00713405f, 0.00873911f, -0.00718385f, -0.00118003f, 
     -0.00294072f, -0.00565819f, -0.00340375f, -0.00631060f, 0.00314958f, -0.00260601f, -0.00745876f, -0.00118460f, 
     -0.00537351f, 0.00535938f, 0.00807193f, 0.00386405f, 0.00793934f, -0.00284130f, -0.00458642f, 0.00055209f, 
     -0.00025439f, -0.00085816f, -0.00285131f, 0.00486557f, 0.00276067f, 0.00359971f, 0.00493833f, 0.00043165f, 
     0.00688153f, 0.00323704f, 0.00642241f, 0.00688282f, 0.00083117f, 0.01219918f, -0.00514601f, -0.00975520f, 
     -0.00034658f, 0.00656275f, -0.00401528f, -0.00565347f, 0.00688411f, 0.00729548f, -0.00711468f, -0.00166025f, 
     0.00854953f, 0.00911106f, 0.00750045f, -0.00316105f, 0.00107357f, 0.00068082f, -0.00030758f, 0.00788909f, 
     0.00648484f, 0.00216005f, 0.00385335f, 0.00404646f, 0.00648219f, 0.00306634f, -0.00304880f, 0.00696144f, 
     -0.00082969f, -0.00553661f, -0.00835899f, -0.00731530f, -0.00229481f, 0.00129989f, -0.01079926f, -0.00970549f, 
     0.00080778f, 0.00259807f, 0.00085442f, 0.00342123f, 0.00164146f, 0.00749308f, 0.00847044f, -0.00012283f, 
     0.01048426f, 0.00200160f, 0.01103071f, 0.01151396f, 0.00841488f, 0.00207354f, 0.00737695f, 0.00449709f, 
     0.00477490f, -0.00423959f, -0.00982779f, -0.01200150f, 0.00559349f, 0.00479800f, 0.00195623f, -0.00567828f, 
     -0.00072684f, 0.00157060f, -0.00108507f, -0.00350984f, 0.00445523f, 0.00407109f, 0.00292146f, 0.00472970f, 
     0.00562850f, 0.00725713f, 0.00761958f, 0.00344386f, -0.00063489f, -0.00129822f, -0.00210217f, -0.00240875f, 
     -0.00101240f, -0.00406384f, -0.00051956f, 0.00202067f, -0.00531250f, -0.00553186f, -0.00709569f, 0.00209051f, 
     -0.01240922f, -0.00151143f, -0.00277395f, -0.00156933f, -0.00350455f, -0.00442994f, -0.00286618f, -0.00459247f, 
     -0.00492701f, -0.00092942f, -0.00284244f, -0.00104287f, 0.00111288f, -0.00217646f, -0.00063795f, 0.00148913f}
};

// Sesgos b [clases]
const float rlm_biases[RLM_CLASSES] = {
    -0.00050365f, -0.00057654f, 0.00108020f
};

#endif // RLM_WEIGHTS_H
