#pragma once

#define INPUT_DIM 784
#define OUTPUT_DIM 10
#define HIDDEN_DIM 32

static const float W1[32][784] = {
  {1.27316597e-38f,2.61639799e-39f,-1.36357131e-39f,1.56161822e-39f,2.18004206e-40f,5.53602577e-40f,-7.29975186e-39f,-1.14733400e-38f,-3.02775897e-39f,9.26881863e-40f,1.65072945e-38f,-1.02662531e-38f,1.58964992e-02f,6.15995973e-02f,7.04350621e-02f,1.30345277e-03f,-6.95569805e-39f,1.10187475e-38f,1.15154840e-38f,8.48135055e-39f,7.66251861e-39f,5.68567603e-39f,1.49403163e-38f,-8.61720643e-39f,1.25302581e-38f,1.35723029e-38f,-1.13675686e-38f,2.53920046e-39f,-4.48316577e-39f,-1.63186727e-38f,-3.60545967e-39f,-1.51126774e-38f,1.67354791e-38f,6.66315998e-07f,1.89613909e-01f,2.03001156e-01f,1.20780148e-01f,4.30788063e-02f,3.01361866e-02f,2.11088732e-02f,1.66773647e-02f,7.12398365e-02f,-5.54075763e-02f,5.17470762e-02f,8.23005289e-02f,1.17528953e-01f,1.47576153e-01f,2.44806647e-01f,2.19718993e-01f,1.55947894e-01f,1.45020753e-01f,2.40025401e-01f,-3.41083473e-39f,8.49359790e-39f,-1.00920366e-38f,1.18607808e-38f,1.21190457e-38f,-7.03028917e-39f,1.48676029e-38f,-1.21623613e-01f,-1.82576831e-02f,1.63773187e-02f,6.02289960e-02f,1.80261210e-01f,3.32880288e-01f,3.37556541e-01f,3.67729664e-01f,4.49719012e-01f,2.91749835e-01f,-1.36703870e-03f,3.27264756e-01f,2.78487980e-01f,4.28782254e-01f,3.92926961e-01f,1.32683545e-01f,1.10992566e-01f,3.32680434e-01f,3.61999691e-01f,3.11781764e-01f,3.12624514e-01f,2.48302668e-01f,6.17423505e-02f,-1.05979839e-38f,-1.65517171e-40f,1.47698105e-38f,-8.52662650e-39f,-1.99116707e-01f,-5.96622899e-02f,3.94059747e-01f,-1.99150220e-02f,1.37958750e-01f,7.70522207e-02f,4.53379340e-02f,2.77755737e-01f,1.91955626e-01f,-1.63345337e-02f,1.45339202e-02f,-4.13009822e-02f,4.90675643e-02f,-6.61551021e-03f,-1.38782695e-01f,-2.32584685e-01f,-2.23461948e-02f,1.07406668e-01f,-8.91944915e-02f,2.11937100e-01f,2.50177026e-01f,9.45975333e-02f,-5.26903309e-02f,-1.87310800e-01f,2.35198140e-01f,-1.35137468e-38f,1.33939919e-38f,-5.00511760e-06f,-3.08368176e-01f,-1.96320534e-01f,7.85653442e-02f,1.33399695e-01f,3.56025994e-01f,5.26213869e-02f,2.16671437e-01f,1.71367109e-01f,1.95395276e-01f,6.10502297e-03f,2.08684755e-03f,-6.00261129e-02f,-1.11392841e-01f,-4.36537527e-02f,-2.17423812e-01f,-2.33251914e-01f,-4.45365033e-04f,7.51663297e-02f,-1.40507147e-01f,2.14088317e-02f,-2.87246674e-01f,-5.00455387e-02f,-8.76580179e-02f,-1.93076506e-01f,-3.15826714e-01f,7.95566887e-02f,-1.66987413e-39f,1.22965342e-38f,1.06805973e-01f,2.14221433e-01f,2.17188209e-01f,1.46365345e-01f,1.13026664e-01f,-1.02132432e-01f,-2.21309271e-02f,8.24967995e-02f,3.18946354e-02f,3.15506570e-02f,2.92007234e-02f,-1.14065975e-01f,4.17995453e-02f,-3.94191667e-02f,3.30641749e-03f,-1.03091918e-01f,-1.20558247e-01f,-4.03901649e-04f,-1.12226546e-01f,-1.02818891e-01f,8.65201876e-02f,8.51717517e-02f,5.78686483e-02f,-6.67675436e-02f,3.40759754e-01f,3.76261622e-01f,-2.98723622e-39f,7.66347051e-02f,1.09722605e-02f,-1.50505016e-02f,2.29078963e-01f,3.51386964e-01f,1.44444302e-01f,-1.14312947e-01f,-1.43444240e-01f,4.25896309e-02f,-3.28507386e-02f,-1.23923458e-01f,-5.82975745e-02f,-1.03077672e-01f,-2.00967550e-01f,-1.50029793e-01f,-1.22042291e-01f,-3.37240636e-01f,-2.10169643e-01f,-1.71128392e-01f,-1.84443414e-01f,-2.08641037e-01f,-1.26810327e-01f,-6.43119141e-02f,3.90252709e-01f,1.41674936e-01f,2.70895362e-01f,1.88217342e-01f,6.32190337e-39f,2.79489428e-01f,1.93458900e-01f,-8.05746540e-02f,1.11794300e-01f,3.36731941e-01f,3.09787574e-03f,5.48287202e-03f,-2.13368163e-02f,-7.09693283e-02f,-1.51534587e-01f,-5.47134541e-02f,-2.42143467e-01f,-2.86545366e-01f,-4.06951047e-02f,-2.62204021e-01f,-2.56675661e-01f,-2.18483105e-01f,-2.57105798e-01f,-2.16148302e-01f,-7.28410333e-02f,-1.96586534e-01f,-2.99242407e-01f,-5.15789509e-01f,1.09658994e-01f,2.20113575e-01f,1.63892284e-01f,2.77264148e-01f,-2.92547166e-01f,3.71547580e-01f,1.90642998e-01f,3.11142623e-01f,1.32541925e-01f,7.79211000e-02f,5.08510508e-02f,-7.66087994e-02f,-2.49725893e-01f,-1.53241053e-01f,-1.29548699e-01f,-1.62800714e-01f,-1.70681164e-01f,-1.72409311e-01f,-1.95948601e-01f,-2.11246476e-01f,-2.38452539e-01f,-2.54941851e-01f,-2.98940271e-01f,-2.23957062e-01f,-2.17638407e-02f,-2.58360505e-01f,-3.22487712e-01f,-3.51501018e-01f,3.63078248e-03f,2.20213547e-01f,1.18913054e-01f,-6.66083097e-02f,5.13928235e-02f,1.64280072e-01f,1.81940943e-01f,3.85146201e-01f,5.06394655e-02f,6.74639456e-03f,-1.77800223e-01f,-1.95096448e-01f,-1.25434995e-01f,-1.22581348e-01f,-2.44048849e-01f,-1.44967541e-01f,-2.21199334e-01f,-3.43366712e-01f,-1.58426136e-01f,-2.05914631e-01f,-1.12193242e-01f,-1.82409704e-01f,-1.98555395e-01f,-1.78138807e-01f,-8.32729936e-02f,-3.56451049e-02f,-1.15904190e-01f,-2.85439193e-01f,8.93730745e-02f,2.12437749e-01f,2.23566294e-01f,5.90079390e-02f,5.56205064e-02f,1.17808439e-01f,1.10989716e-03f,2.49635220e-01f,-2.19154030e-01f,1.11771420e-01f,-1.59191385e-01f,8.26042332e-03f,3.44602615e-02f,-1.42565042e-01f,-2.08669275e-01f,-1.98799357e-01f,-1.82086557e-01f,-9.20528919e-02f,-1.86889738e-01f,8.41521770e-02f,1.66877463e-01f,9.95487347e-03f,-1.32399082e-01f,-1.05938159e-01f,-6.83836937e-02f,-1.41937537e-02f,-5.70032299e-02f,-1.82232156e-01f,2.05596849e-01f,2.32766226e-01f,-4.27549817e-02f,-3.07476699e-01f,-1.81218907e-02f,2.24641636e-01f,-5.44726476e-02f,1.61396682e-01f,7.07860366e-02f,1.63951758e-02f,-1.00871421e-01f,-8.53440613e-02f,-3.31556648e-02f,-1.41585246e-01f,-1.16439909e-01f,-1.74919873e-01f,-2.47727782e-02f,9.21760276e-02f,2.03869417e-01f,2.38638312e-01f,1.09927408e-01f,-1.42702028e-01f,-2.50013936e-02f,6.88831788e-03f,-3.28272022e-02f,2.78167371e-02f,-9.21063125e-02f,-2.94612441e-02f,3.63662653e-02f,1.70440033e-01f,-2.48562038e-01f,-8.09037536e-02f,1.49072800e-03f,1.06815405e-01f,-5.37550300e-02f,-1.53388530e-02f,-2.01789409e-01f,-1.52678728e-01f,-3.01968396e-01f,-8.27554017e-02f,-3.29143330e-02f,-1.60864443e-01f,1.84964407e-02f,1.65240541e-01f,3.13461721e-01f,4.25987333e-01f,3.11084211e-01f,1.50167897e-01f,1.73658118e-01f,-5.43399565e-02f,9.82379168e-02f,1.68267637e-01f,3.52022611e-02f,6.18360117e-02f,1.19077802e-01f,-1.04622900e-01f,1.22740947e-01f,4.53163564e-01f,1.63647369e-01f,1.55084759e-01f,2.54305732e-03f,-5.52966306e-03f,3.80745977e-01f,1.65967345e-01f,-2.42505059e-01f,-6.99640214e-02f,-2.08609968e-01f,-1.75459206e-01f,3.13442051e-02f,3.47859971e-02f,5.66935763e-02f,1.70057550e-01f,4.69947636e-01f,3.57034296e-01f,1.20885938e-01f,2.43708149e-01f,1.77319422e-01f,1.72660187e-01f,1.82589039e-01f,1.34484559e-01f,1.09641775e-01f,1.16825469e-01f,9.13182646e-02f,2.42717877e-01f,4.24315244e-01f,3.65111172e-01f,4.01348352e-01f,2.41777301e-01f,1.12737112e-01f,-1.63914606e-01f,3.67124498e-01f,2.84491807e-01f,-5.09879440e-02f,1.71046741e-02f,1.76425427e-02f,-1.03587978e-01f,4.94210832e-02f,6.21844269e-02f,8.38558674e-02f,3.05363864e-01f,3.61136198e-01f,7.85162225e-02f,1.13731340e-01f,1.24715216e-01f,1.57617912e-01f,1.47541106e-01f,2.25717217e-01f,6.21752702e-02f,1.42339692e-01f,4.71893363e-02f,2.90810674e-01f,2.67514110e-01f,2.82979339e-01f,2.03665689e-01f,5.17043471e-01f,6.22547753e-02f,7.26429746e-02f,-2.26488024e-01f,2.69894600e-01f,1.49496078e-01f,3.45526487e-02f,-3.09190545e-02f,8.13485160e-02f,2.90309563e-02f,1.51495472e-01f,-3.36315706e-02f,-8.81689116e-02f,1.60242364e-01f,1.96863979e-01f,1.30032137e-01f,1.84643388e-01f,1.19549952e-01f,2.12468967e-01f,2.15188190e-01f,2.14194790e-01f,2.94733882e-01f,7.62470141e-02f,1.04681052e-01f,6.28934130e-02f,1.51209295e-01f,3.82739604e-01f,3.70796680e-01f,1.36016846e-01f,3.08991551e-01f,-2.94716329e-39f,-1.37624025e-01f,4.60876599e-02f,2.75211722e-01f,1.77899033e-01f,1.57219782e-01f,1.72905833e-01f,2.53427386e-01f,1.07509740e-01f,8.31291378e-02f,7.99481943e-02f,1.96200520e-01f,1.55142188e-01f,2.86464840e-01f,2.85661548e-01f,2.76099414e-01f,1.73663184e-01f,1.96650803e-01f,1.80832997e-01f,2.31111750e-01f,2.16603294e-01f,2.91521400e-01f,2.14635536e-01f,2.72915035e-01f,3.13515425e-01f,2.20360562e-01f,2.35942349e-01f,1.84269309e-01f,2.69670361e-39f,-3.84589024e-02f,4.48947787e-01f,5.14875889e-01f,2.39036098e-01f,1.58200860e-01f,3.74431401e-01f,1.88426122e-01f,5.98529615e-02f,-9.22049806e-02f,-3.54121737e-02f,2.16542184e-02f,3.60240899e-02f,4.10351865e-02f,1.64126754e-01f,1.12788633e-01f,1.67971909e-01f,1.63766935e-01f,2.37063453e-01f,1.46868825e-01f,1.56270385e-01f,1.81905508e-01f,1.77116141e-01f,1.53113440e-01f,-2.99321115e-02f,4.70624268e-01f,3.99286672e-02f,-2.77172863e-01f,-3.68202478e-02f,6.72324561e-04f,3.15693378e-01f,5.01284242e-01f,2.77465284e-01f,2.35711575e-01f,1.94842473e-01f,4.74822000e-02f,9.00232866e-02f,3.56284380e-02f,5.04279230e-03f,-8.57739598e-02f,1.61190331e-01f,1.04412310e-01f,1.52373433e-01f,8.07515383e-02f,1.86422348e-01f,2.41453320e-01f,1.81400850e-01f,-2.01986078e-03f,6.34166971e-02f,1.67455539e-01f,5.50879873e-02f,1.74363211e-01f,2.02939361e-01f,5.78985274e-01f,2.79244445e-02f,3.24642152e-01f,-6.00692230e-39f,9.54604000e-02f,9.00519043e-02f,1.81991234e-01f,2.76549697e-01f,1.56358942e-01f,8.30280110e-02f,9.18416157e-02f,-3.96852642e-02f,8.12035352e-02f,2.83492692e-02f,8.13872814e-02f,-2.67069116e-02f,1.46336898e-01f,1.72529399e-01f,1.80201367e-01f,1.43807113e-01f,2.44812265e-01f,1.23252258e-01f,-1.14605501e-01f,2.12609302e-02f,-6.25280216e-02f,-6.71395138e-02f,1.54612004e-03f,1.06975101e-01f,5.56016147e-01f,3.71461451e-01f,1.79829717e-01f,4.65058730e-39f,-3.15841407e-01f,3.40621471e-01f,4.25733477e-01f,-6.01815758e-03f,-4.35564056e-04f,-4.91256565e-02f,-2.95272190e-02f,2.11185217e-02f,9.38839093e-02f,8.91513526e-02f,9.52769145e-02f,9.39217675e-03f,1.17386691e-01f,8.95012096e-02f,1.41807437e-01f,1.05780378e-01f,1.31883085e-01f,2.08764419e-01f,-1.67281419e-01f,2.64048669e-02f,-2.03560412e-01f,-1.18416905e-01f,-1.77174985e-01f,-5.68498187e-02f,2.87355989e-01f,1.31103739e-01f,-4.87741223e-03f,2.19774153e-02f,1.15382843e-01f,2.91744113e-01f,2.32483178e-01f,-2.05637068e-01f,-5.59708551e-02f,-2.53280163e-01f,3.01651470e-03f,-7.58081004e-02f,-1.02392331e-01f,-3.99659500e-02f,-4.51535955e-02f,-2.33735293e-02f,5.26333004e-02f,9.37810168e-02f,-2.09099357e-03f,1.09614782e-01f,2.79409457e-02f,-1.12639211e-01f,-6.38615191e-02f,-1.60619289e-01f,-2.06586540e-01f,-9.59958807e-02f,-1.47519812e-01f,-2.24378809e-01f,3.41926724e-01f,1.63882136e-01f,6.82514636e-38f,2.17322521e-02f,6.10293308e-03f,3.09407949e-01f,1.16200313e-01f,2.10868265e-03f,-2.49513999e-01f,-3.77883852e-01f,-1.56688273e-01f,-1.63885713e-01f,-1.95790678e-02f,6.03596587e-03f,1.05660126e-01f,-2.78245211e-02f,-9.09788311e-02f,-2.22377568e-01f,4.43682587e-03f,2.74643321e-02f,-1.28927782e-01f,-1.89745903e-01f,1.46332905e-02f,-9.05722305e-02f,-2.02359006e-01f,-2.27795526e-01f,-3.44817400e-01f,-1.21481687e-01f,8.04604292e-02f,2.48664930e-01f,1.65303535e-24f,4.10170290e-39f,1.44645124e-38f,2.27363244e-01f,3.98163825e-01f,2.68750382e-03f,-1.82375938e-01f,-1.85395256e-01f,-1.82330623e-01f,-2.18463227e-01f,7.27220848e-02f,-7.06000999e-02f,9.51724276e-02f,-2.88731996e-02f,-2.54238751e-02f,1.78058390e-02f,-1.15158789e-01f,-1.32079452e-01f,-3.45322698e-01f,-5.11337757e-01f,-2.47304142e-01f,-3.52007717e-01f,-2.32255504e-01f,-1.15746871e-01f,-2.44417056e-01f,-2.54514217e-01f,1.75198644e-01f,3.46170306e-01f,1.99808205e-39f,3.88016742e-39f,-4.13160801e-39f,2.18619406e-02f,2.71847546e-01f,1.02292567e-01f,-2.53235519e-01f,2.39485763e-02f,-1.43395215e-01f,-6.18788190e-02f,1.69607196e-02f,-9.35277790e-02f,-2.88227201e-02f,5.54899313e-03f,-1.51069060e-01f,3.68996263e-02f,-2.42740959e-01f,-2.00316176e-01f,-2.79087186e-01f,-3.26987118e-01f,-3.19111168e-01f,-1.82706907e-01f,8.14341158e-02f,3.21693309e-02f,-3.18411775e-02f,2.54702181e-01f,1.95578516e-01f,8.75480324e-02f,-2.22021028e-39f,-4.47452817e-39f,8.26577900e-39f,1.59750087e-03f,5.54608973e-03f,-2.30857596e-01f,-7.92878270e-02f,-5.44858202e-02f,-2.92177379e-01f,-6.40437961e-01f,-3.83562863e-01f,-8.73496309e-02f,-8.68977755e-02f,-2.45658979e-01f,-1.84035555e-01f,-2.37595394e-01f,-2.93848336e-01f,-1.88389674e-01f,-3.33280057e-01f,-1.52778447e-01f,-1.61667719e-01f,-1.57977156e-02f,-9.63357463e-02f,2.50305701e-02f,7.83914328e-02f,1.46845862e-01f,5.14585599e-02f,4.44847755e-02f,1.21005149e-38f,-1.73243846e-38f,-1.34843616e-38f,-8.44590050e-39f,-2.69594099e-02f,-2.37848446e-01f,-2.84199536e-01f,-3.14191669e-01f,-5.11151731e-01f,-7.61934400e-01f,-4.70329881e-01f,-9.28754658e-02f,-3.28188866e-01f,-3.44467729e-01f,-2.10746005e-01f,-6.35974228e-01f,-6.01204991e-01f,-5.20229876e-01f,-2.16929868e-01f,-5.05173244e-02f,-6.91832155e-02f,-2.63519764e-01f,-3.84065419e-01f,-4.15359944e-01f,-5.08349299e-01f,-3.27982873e-01f,-1.10462088e-38f,-9.64528867e-39f,-5.41214538e-39f,-1.32278904e-38f,1.46639424e-38f,2.05294989e-39f,1.64398766e-38f,-1.05935123e-38f,9.67676464e-39f,-1.78968176e-01f,-2.05083966e-01f,-1.89433277e-01f,-7.27260858e-02f,-2.57957995e-01f,-3.99370372e-01f,-3.39004248e-01f,-1.75569311e-01f,-5.69547534e-01f,-2.43651897e-01f,2.88277090e-01f,1.89708203e-01f,-3.26855518e-02f,-1.15531147e-01f,2.28867009e-02f,-1.80782657e-02f,-2.53998358e-02f,1.46650326e-38f,1.26792484e-38f,3.55890013e-39f,-1.28578060e-38f,-8.76657784e-39f},
  {1.14793922e-38f,-6.90846869e-39f,1.06416315e-38f,1.54126520e-38f,1.02950680e-38f,9.32443336e-39f,5.72363020e-39f,1.67677426e-38f,-9.04820660e-39f,-4.85376157e-40f,-2.30435545e-39f,1.52400190e-38f,-1.05865784e-02f,-3.55318971e-02f,-3.46906569e-39f,1.69618155e-38f,2.20239277e-40f,-1.29002135e-39f,6.02658673e-39f,-7.15377159e-39f,1.62401650e-38f,-1.28596067e-38f,4.25734372e-39f,4.62468710e-39f,3.80156999e-39f,-5.15066028e-39f,8.56813436e-39f,-1.05643611e-38f,1.36630748e-38f,5.02616192e-39f,3.17665534e-39f,-1.71041608e-38f,-9.06081549e-39f,3.26036975e-09f,-2.94558555e-02f,-3.65210399e-02f,-5.64766154e-02f,-1.87430099e-01f,-2.45057032e-01f,4.43655998e-02f,-4.73087244e-02f,-4.77609374e-02f,5.99987246e-02f,2.54514843e-01f,3.41574103e-01f,6.43769503e-02f,-2.82191783e-01f,-5.15114181e-02f,-2.00667262e-01f,-1.05439343e-01f,-1.95076481e-01f,-1.67478994e-01f,-8.51634517e-39f,-4.44097828e-39f,-1.17132745e-38f,-8.65175685e-39f,-1.13273975e-38f,9.24224300e-39f,1.37521049e-38f,4.84394407e-39f,-1.75096896e-02f,2.64746486e-04f,-2.61796527e-02f,-1.60270005e-01f,-7.00453669e-02f,-5.74731678e-02f,4.56124842e-02f,1.42883852e-01f,8.02437067e-02f,3.22011024e-01f,-9.06659216e-02f,-1.76946912e-02f,-2.29341224e-01f,-4.72430140e-01f,-4.08288270e-01f,-1.50853217e-01f,-1.74662277e-01f,-1.89297035e-01f,-1.18469156e-01f,-8.33767429e-02f,1.66079327e-01f,1.57824427e-01f,-4.11150358e-39f,-5.42649467e-39f,1.71618228e-38f,2.20430274e-39f,3.43767732e-01f,2.13484034e-01f,3.86308739e-03f,-1.99028775e-01f,-1.07622482e-01f,1.72153190e-01f,-1.37445763e-01f,-1.76111817e-01f,-3.25633109e-01f,-1.16048634e-01f,6.60350174e-02f,7.47207329e-02f,-3.71609867e-01f,-7.20059574e-01f,-6.68024361e-01f,-4.87201363e-01f,-3.37210864e-01f,-1.73450317e-02f,1.36083111e-01f,-2.67418772e-01f,-2.11940601e-01f,1.76030044e-02f,1.61726505e-01f,1.25251710e-01f,1.25622147e-38f,-1.29905188e-38f,1.70812944e-38f,4.78953866e-39f,4.16106999e-01f,1.05645537e-01f,2.80884951e-01f,2.24950284e-01f,3.60665917e-01f,-2.33701114e-02f,1.73317596e-01f,7.19287097e-02f,1.81585342e-01f,4.90865000e-02f,9.57625285e-02f,1.05836041e-01f,-1.81385383e-01f,-3.09998274e-01f,-5.20786345e-01f,-6.07196093e-01f,-4.78424639e-01f,-9.93975773e-02f,-1.78972274e-01f,-2.10336983e-01f,-2.81345457e-01f,4.13659252e-02f,1.13259412e-01f,8.60968605e-02f,-2.81544328e-02f,5.77439084e-39f,1.47948671e-38f,1.21599104e-38f,2.99598366e-01f,1.99612990e-01f,4.02620465e-01f,3.05971503e-01f,3.08341514e-02f,-9.25195664e-02f,2.34864722e-03f,-2.23453548e-02f,8.09284225e-02f,2.10796166e-02f,3.44010219e-02f,2.16074958e-02f,-1.42200992e-01f,-7.62912259e-02f,-3.12183291e-01f,-6.34279728e-01f,-2.66663730e-01f,-3.05073470e-01f,-2.38428175e-01f,-1.58070773e-01f,-1.92099646e-01f,-7.03716874e-02f,-5.15383370e-02f,2.71940255e-03f,3.14468890e-02f,1.60114899e-38f,-3.85532520e-39f,-2.00674184e-24f,-1.62765071e-01f,2.73873806e-01f,9.78991836e-02f,-2.43604660e-01f,1.45590708e-01f,4.70389687e-02f,5.81775457e-02f,7.34210834e-02f,7.16807842e-02f,2.34398276e-01f,1.74474001e-01f,1.81318253e-01f,1.34871304e-01f,3.52702886e-02f,-2.34406926e-02f,-3.33772033e-01f,-3.88175637e-01f,-7.19740868e-01f,-4.01896536e-01f,-1.38621405e-01f,-4.32408631e-01f,-2.34751090e-01f,-1.92308500e-02f,1.61443576e-01f,-2.04653755e-01f,-2.26896271e-01f,1.14876094e-38f,9.77118686e-03f,-9.30802375e-02f,1.74746811e-01f,1.12595864e-01f,-2.01677710e-01f,3.52549087e-03f,-2.52239764e-01f,-7.32269213e-02f,5.79408929e-03f,-1.21509787e-02f,2.77856495e-02f,1.82764784e-01f,2.43472293e-01f,3.03489745e-01f,1.86484292e-01f,5.61557105e-03f,-3.11692029e-01f,-4.44473088e-01f,-5.52282035e-01f,-5.46946108e-01f,-2.68403500e-01f,-3.23184609e-01f,-2.83462554e-01f,-5.23403473e-02f,7.75222853e-02f,-3.66357923e-01f,-2.31016263e-01f,-5.18313944e-02f,7.66073093e-02f,-3.63128185e-02f,-9.20416489e-02f,2.26556405e-01f,-5.69199510e-02f,-8.79668817e-02f,-7.75228888e-02f,1.88951753e-02f,1.81279518e-02f,1.94283292e-01f,4.41297404e-02f,1.34417951e-01f,2.69078016e-01f,4.01726782e-01f,2.16246545e-01f,-5.26404269e-02f,-1.11619189e-01f,-1.73374325e-01f,-3.07926446e-01f,-7.11440563e-01f,-3.18801820e-01f,-2.61915922e-01f,-3.06219906e-01f,-3.34333986e-01f,-2.27955535e-01f,-7.72978961e-02f,-8.89796317e-02f,-1.67794165e-03f,1.66085854e-01f,1.01238534e-01f,1.95803002e-01f,9.35172588e-02f,-2.99412594e-03f,-1.68764796e-02f,-3.69179547e-02f,3.37063372e-02f,5.76976389e-02f,9.56468806e-02f,2.66778804e-02f,1.28976926e-01f,2.17659026e-01f,4.08539176e-01f,2.52987564e-01f,-1.10976070e-01f,7.20769614e-02f,-1.23515315e-01f,-3.29856545e-01f,-4.45835978e-01f,-4.88340974e-01f,-3.71867597e-01f,-5.68384409e-01f,-3.74189883e-01f,-1.72921538e-01f,2.94363260e-01f,4.44383591e-01f,2.25039907e-02f,1.13697164e-01f,1.36704996e-01f,2.14707181e-01f,1.02747343e-01f,1.03134647e-01f,8.51166174e-02f,1.38064131e-01f,9.46830586e-02f,-1.01972446e-01f,7.37103373e-02f,1.18691333e-01f,1.22093588e-01f,2.92513758e-01f,3.88477504e-01f,1.25105515e-01f,3.93315889e-02f,-2.42996868e-02f,-3.21920440e-02f,-5.98582886e-02f,-2.53607422e-01f,-3.34762394e-01f,-2.79600441e-01f,-2.78653532e-01f,-3.28631312e-01f,1.13725245e-01f,3.81798953e-01f,4.44780201e-01f,1.10442135e-02f,3.89105082e-02f,4.46773440e-01f,9.16958973e-02f,1.87169924e-01f,9.72984731e-02f,1.10957466e-01f,1.15180351e-01f,2.00486276e-03f,6.65806383e-02f,3.74998152e-02f,5.71894608e-02f,-7.20703006e-02f,3.23299289e-01f,5.18485248e-01f,1.96850285e-01f,1.35283582e-02f,7.78126046e-02f,1.73327848e-01f,5.11855483e-02f,-3.43203545e-02f,-2.54238218e-01f,5.12303226e-02f,-4.82188985e-02f,-1.76678613e-01f,-1.73535854e-01f,-1.42028913e-01f,2.46325675e-02f,1.79620180e-02f,1.08629698e-02f,4.10219669e-01f,1.92090094e-01f,1.93491220e-01f,2.28246912e-01f,-2.40241154e-03f,3.76170799e-02f,-2.11124122e-03f,2.06455588e-02f,-2.35012084e-01f,-2.12954357e-01f,1.03703812e-02f,2.06103370e-01f,4.75451648e-01f,3.05498451e-01f,1.01235799e-01f,1.69185922e-01f,1.38198927e-01f,-4.34138887e-02f,-1.33622095e-01f,-2.98604697e-01f,-3.21030825e-01f,-2.67060101e-01f,-3.24042022e-01f,-6.33340031e-02f,-1.62394181e-01f,-1.73768587e-02f,2.30895355e-03f,3.00783608e-02f,4.11007971e-01f,2.62675077e-01f,1.36472434e-01f,-1.80966958e-01f,-4.68951128e-02f,3.97644900e-02f,3.92989162e-03f,-1.41923130e-01f,-6.08038083e-02f,-9.74221081e-02f,1.45192817e-02f,1.60558015e-01f,3.28936338e-01f,7.44283125e-02f,1.11930691e-01f,2.10089386e-01f,1.01031713e-01f,-4.36387286e-02f,-2.96912849e-01f,-6.89315647e-02f,-1.73451900e-01f,-1.72884669e-02f,3.21255088e-01f,3.68974060e-01f,5.59231341e-01f,5.03464080e-02f,-1.71852022e-01f,4.54313457e-02f,3.63616437e-01f,4.40629989e-01f,-1.98168859e-01f,-3.02153587e-01f,-1.36940569e-01f,-1.86849654e-01f,-7.38240480e-02f,3.06299459e-02f,7.38469437e-02f,4.99705970e-02f,8.94152671e-02f,6.63992837e-02f,4.44225818e-02f,-1.50856664e-02f,-7.18053728e-02f,2.73738578e-02f,3.94417122e-02f,-1.09867454e-02f,-2.33875234e-02f,8.32571276e-03f,-1.09776817e-01f,3.60570014e-01f,2.40044609e-01f,3.70400488e-01f,5.44854999e-01f,5.27966674e-03f,-9.17214155e-02f,-2.86057005e-39f,-4.37733643e-02f,3.98889959e-01f,-1.76766500e-01f,-3.63100976e-01f,-9.33452174e-02f,-1.12894580e-01f,2.63753161e-02f,6.02817051e-02f,6.89745322e-02f,4.40395102e-02f,-8.37139115e-02f,1.51079580e-01f,1.51251763e-01f,3.32088061e-02f,7.67171010e-02f,1.36241689e-01f,-2.23871251e-03f,-8.75883922e-02f,1.90053806e-01f,1.85687140e-01f,-1.02593690e-01f,2.76703089e-02f,2.32580796e-01f,2.62808293e-01f,1.60655200e-01f,3.54235649e-01f,2.39899214e-39f,2.20775208e-03f,2.81731524e-02f,3.86613071e-01f,1.15973689e-01f,-2.66212881e-01f,-1.12229757e-01f,5.17659485e-02f,2.06458822e-01f,1.46790445e-01f,1.98259428e-01f,1.81318417e-01f,-2.74536666e-02f,5.32627329e-02f,1.19454965e-01f,-8.47318023e-02f,9.48467180e-02f,5.57020195e-02f,1.46694735e-01f,8.94547254e-02f,-7.62416422e-03f,1.91080704e-01f,4.75949869e-02f,-8.62947181e-02f,9.66926664e-02f,-1.47381172e-01f,1.46579102e-01f,4.63114440e-01f,-1.36832045e-38f,1.19874778e-03f,-4.22363020e-02f,2.75843292e-01f,6.66852444e-02f,1.17510065e-01f,-5.61869889e-03f,-1.70731679e-01f,5.04622571e-02f,8.10995474e-02f,2.81824507e-02f,-9.31883454e-02f,1.59233063e-01f,4.65827510e-02f,5.76091371e-02f,1.40576750e-01f,4.26063910e-02f,8.15790594e-02f,4.64492999e-02f,2.06467317e-04f,-1.89785920e-02f,1.14571229e-01f,1.47622213e-01f,9.22305286e-02f,-3.06973815e-01f,4.53409515e-02f,1.61413103e-01f,4.50970232e-01f,2.60653704e-01f,4.83254466e-04f,1.66091725e-01f,2.42704079e-01f,4.87815440e-02f,-1.41432017e-01f,1.04097158e-01f,-4.85296436e-02f,-1.64859504e-01f,-2.10639268e-01f,-8.41413885e-02f,3.59297097e-02f,-1.37736976e-01f,-1.48414791e-01f,1.06414802e-01f,6.42327368e-02f,-1.19146891e-01f,6.13180958e-02f,4.56387214e-02f,1.19287279e-02f,8.36304948e-02f,1.74973845e-01f,1.86596513e-01f,-1.57655105e-01f,-5.52344859e-01f,4.55752425e-02f,4.21045482e-01f,2.56126165e-01f,-1.12089766e-38f,3.13330829e-01f,3.58360559e-01f,9.50112566e-02f,6.48060767e-03f,-1.02137916e-01f,-2.21459389e-01f,-1.52198300e-01f,-2.06891939e-01f,-1.95987448e-01f,-8.26938823e-02f,-2.33022824e-01f,-1.65883109e-01f,2.45858189e-02f,2.23392118e-02f,3.60928588e-02f,4.29386720e-02f,-3.03544253e-02f,5.90725429e-02f,1.43940032e-01f,7.14032426e-02f,4.58831191e-02f,4.35173400e-02f,-9.40904990e-02f,-2.18652308e-01f,-7.57903159e-02f,3.22133243e-01f,1.67652234e-01f,-3.41932940e-39f,6.98704198e-02f,1.12824820e-01f,6.94159865e-02f,-5.09155951e-02f,-1.35229632e-01f,-2.87747830e-01f,-2.23320961e-01f,-1.55016005e-01f,-1.49773419e-01f,-2.18324319e-01f,-2.20251724e-01f,-9.85550210e-02f,-4.50302474e-03f,1.54919580e-01f,2.13265400e-02f,5.13173230e-02f,5.78854531e-02f,-1.14651397e-01f,1.22377925e-01f,8.48509148e-02f,-1.84176881e-02f,4.19512987e-02f,-2.43917014e-02f,4.93767262e-02f,-1.13800853e-01f,2.10707694e-01f,1.49750097e-38f,-6.44476356e-12f,-1.98328329e-04f,3.87383699e-02f,-4.85614315e-02f,1.66635901e-01f,-1.69083342e-01f,-3.81520003e-01f,-3.01362157e-01f,-1.70848459e-01f,-1.56323478e-01f,-1.37457743e-01f,-1.63227051e-01f,-5.99554591e-02f,-1.79547593e-02f,8.34048316e-02f,2.44569797e-02f,-3.20421010e-02f,-1.21698745e-01f,-2.98394952e-02f,6.15289360e-02f,-5.27297109e-02f,-1.04409918e-01f,-8.13334510e-02f,-2.74384409e-01f,7.27593750e-02f,-1.75152928e-01f,-3.93104032e-02f,-1.34329031e-39f,-9.22891017e-12f,-2.56978956e-06f,-1.94126237e-02f,-3.15745957e-02f,1.72095492e-01f,-2.64877677e-01f,-3.91107857e-01f,-2.71826208e-01f,-5.48159070e-02f,-1.19382665e-01f,-5.55577837e-02f,-1.50516599e-01f,3.07213776e-02f,3.00094560e-02f,1.26318932e-01f,4.60631996e-02f,-1.40236750e-01f,-8.24453458e-02f,3.06217689e-02f,-3.05002034e-02f,1.36953488e-01f,-1.53270245e-01f,9.50689316e-02f,-1.15548410e-01f,-5.59467934e-02f,1.15516067e-01f,-1.99720800e-01f,7.58464425e-39f,1.18627832e-38f,1.10353838e-38f,-4.88395058e-02f,3.46038230e-02f,-5.26991747e-02f,-3.65152657e-01f,-2.73968577e-01f,-3.87057364e-01f,-4.04716879e-01f,-1.95492804e-01f,-1.01494350e-01f,-6.71746954e-02f,4.90889279e-03f,2.41819751e-02f,1.78855825e-02f,6.41412660e-02f,-1.67940229e-01f,7.47771561e-02f,-1.12554945e-01f,5.42684160e-02f,-6.39190227e-02f,4.10362706e-02f,2.63465233e-02f,-8.19231719e-02f,-1.78853255e-02f,-1.37696743e-01f,-2.62050360e-01f,-2.56052963e-39f,-1.44263733e-38f,-1.09668855e-38f,2.31004339e-02f,-2.27531046e-02f,-6.52071983e-02f,-9.18619037e-02f,-3.06636482e-01f,-3.08921754e-01f,-2.83761442e-01f,-2.02341557e-01f,-2.34462485e-01f,-1.53162241e-01f,-2.37576321e-01f,-4.86438833e-02f,-1.11533731e-01f,-4.82654572e-02f,-1.51987851e-01f,-3.60779129e-02f,-8.46351236e-02f,-8.41117557e-03f,-3.30817848e-02f,-3.13472562e-02f,-7.34949633e-02f,-1.17987879e-01f,-1.31898209e-01f,6.30902052e-02f,6.14896603e-02f,-1.27290169e-38f,3.78835154e-39f,-1.03070266e-38f,-2.60626501e-03f,-3.10133807e-02f,6.08141571e-02f,1.00199468e-01f,-3.21249515e-01f,-3.64864230e-01f,-2.50355303e-01f,-4.47137117e-01f,-2.17752382e-01f,-2.07918454e-02f,6.33486137e-02f,-1.59970410e-02f,2.75874091e-03f,-8.90860260e-02f,-2.40765628e-03f,1.38883535e-02f,-1.54632792e-01f,2.70558950e-02f,-6.15235195e-02f,-2.90869572e-03f,-1.75758824e-01f,-1.99369892e-01f,-2.32632905e-01f,-2.67147715e-03f,-5.51220030e-03f,-1.02714897e-38f,4.87478105e-39f,-6.85044513e-39f,1.13897721e-38f,9.32790858e-39f,5.69399409e-02f,3.90644334e-02f,2.23086029e-02f,2.01888934e-01f,2.81749338e-01f,3.22718263e-01f,3.78772855e-01f,1.09275296e-01f,1.80020317e-01f,8.48110169e-02f,2.23923564e-01f,1.49001464e-01f,2.15086192e-01f,2.57491022e-01f,1.73568070e-01f,1.23974688e-01f,1.67322010e-01f,3.00392807e-01f,5.41934550e-01f,4.56076622e-01f,2.99366951e-01f,3.36442014e-20f,7.61932078e-39f,-1.43943172e-38f,2.38736417e-39f,1.34476798e-38f,-1.06041019e-38f,3.62390216e-39f,3.67566102e-08f,4.26276674e-05f,1.91113755e-01f,2.05097020e-01f,1.86394110e-01f,1.41922370e-01f,2.87595719e-01f,2.05432653e-01f,1.40676588e-01f,2.66687274e-01f,4.25817937e-01f,3.45263898e-01f,3.30361307e-01f,3.30237389e-01f,4.58802730e-01f,4.34739590e-01f,3.21541399e-01f,2.28592977e-01f,2.68708140e-01f,2.60678735e-02f,-5.33075236e-39f,1.69023177e-38f,2.01753628e-39f,6.82347293e-39f},
  {-1.50423967e-38f,-1.16950408e-39f,-4.87314433e-39f,1.30199685e-38f,7.61520376e-39f,-5.55355601e-39f,-1.28492203e-39f,-9.70601534e-39f,-1.11508830e-38f,-1.22699992e-38f,-9.14887028e-39f,-3.52293300e-39f,-2.42887026e-12f,-1.24464833e-07f,7.86126337e-39f,1.18978353e-38f,5.49474351e-40f,2.36891747e-39f,1.32294542e-38f,2.93015292e-39f,-5.67712251e-39f,3.29196398e-39f,-4.08833872e-39f,1.05664238e-38f,1.35683653e-38f,1.42952762e-38f,5.82047954e-39f,9.80216263e-39f,1.48561810e-38f,2.42340837e-39f,-1.43025518e-38f,1.28396018e-38f,5.14980128e-39f,6.04691817e-18f,8.73653367e-02f,1.14269994e-01f,7.53351254e-03f,5.68138296e-03f,-4.77317199e-02f,-7.52712265e-02f,-4.50041480e-02f,-6.18828982e-02f,1.11295968e-01f,2.28979573e-01f,2.04113990e-01f,6.10518940e-02f,4.34620219e-04f,1.85860664e-01f,1.67064086e-01f,1.09287113e-38f,-2.90393603e-39f,-5.31010983e-39f,-5.30610071e-39f,-2.43235426e-39f,1.45168635e-38f,7.15686566e-39f,6.84938574e-39f,1.01727668e-38f,3.57970101e-39f,-2.54082024e-05f,-2.40789886e-05f,-2.61728419e-05f,2.88676098e-02f,-6.22440018e-02f,8.45313072e-02f,1.95534468e-01f,3.32329869e-01f,2.45978564e-01f,1.23613864e-01f,-2.59505473e-02f,9.78049487e-02f,2.55501717e-01f,-1.54342696e-01f,-3.39086980e-01f,-2.94873238e-01f,-1.88652188e-01f,2.14986205e-02f,-1.20671196e-02f,7.48208463e-02f,4.48647588e-02f,3.00930527e-39f,-3.10758674e-39f,1.32874526e-38f,1.35975893e-38f,5.29094006e-39f,1.66427426e-38f,1.49051145e-01f,2.60658246e-02f,-1.88164487e-01f,-1.13417143e-02f,4.79269111e-05f,1.58533618e-01f,1.20785937e-01f,4.18208800e-02f,-4.45349030e-02f,-1.08338125e-01f,1.70493096e-01f,4.55343258e-03f,-1.92899719e-01f,-1.59143791e-01f,-2.26270825e-01f,-3.32197428e-01f,-6.29105031e-01f,-5.08215010e-01f,-2.44731188e-01f,-1.56227022e-01f,2.74621975e-02f,-3.52394879e-01f,-3.40385377e-01f,-2.92960227e-01f,-1.64517667e-38f,8.76479119e-39f,1.73165542e-38f,5.89946058e-06f,2.12865755e-01f,1.48932785e-01f,1.14631176e-01f,7.83998519e-02f,2.16020361e-01f,9.55090895e-02f,-3.42003326e-03f,-9.14345086e-02f,1.84927911e-01f,8.56630132e-02f,1.34532824e-01f,1.39455974e-01f,1.31785311e-03f,3.72217372e-02f,5.56382202e-02f,-1.38102472e-01f,-1.56725809e-01f,-2.11023211e-01f,-3.96959275e-01f,-1.71903461e-01f,-2.15614766e-01f,-3.75195652e-01f,-2.41991967e-01f,2.44651183e-01f,4.65217352e-01f,-4.96141464e-02f,6.67376661e-39f,-1.69054230e-38f,9.68447328e-02f,3.07532489e-01f,3.12934369e-01f,4.44581926e-01f,1.47958651e-01f,2.62486544e-02f,6.57069832e-02f,9.10570845e-02f,2.11496234e-01f,-6.60327524e-02f,-6.64699003e-02f,-2.44648140e-02f,9.23598837e-03f,1.16905160e-01f,1.21025838e-01f,-1.44196033e-01f,-3.39507982e-02f,-2.13552207e-01f,-3.20103794e-01f,-1.47178590e-01f,-7.42209330e-02f,-2.12553725e-01f,1.00259250e-02f,6.50548458e-01f,5.11928797e-01f,1.68212384e-01f,1.40859923e-40f,6.12496585e-02f,6.61401404e-03f,3.49398285e-01f,1.80364996e-01f,-1.09979184e-02f,3.66852395e-02f,-2.65903212e-02f,2.17665017e-01f,2.03678280e-01f,2.07036391e-01f,4.35176343e-02f,4.81767729e-02f,-1.46136269e-01f,-3.22126038e-02f,-1.06876805e-01f,2.45526806e-02f,1.67939626e-02f,1.31182566e-01f,3.39650512e-02f,-1.58918202e-01f,-1.16255872e-01f,-2.04730526e-01f,-1.90590009e-01f,-1.62804930e-03f,4.16355908e-01f,4.62523967e-01f,2.16646552e-01f,-6.70258011e-39f,4.09819871e-01f,2.82791913e-01f,4.90187585e-01f,2.14251563e-01f,8.55860040e-02f,1.80132449e-01f,-1.68583263e-03f,1.25756338e-01f,5.69695085e-02f,5.37138097e-02f,1.04354543e-03f,-2.39474289e-02f,-1.35121227e-03f,7.53709897e-02f,-1.27518609e-01f,1.29373476e-01f,2.17583120e-01f,1.90114573e-01f,7.43929893e-02f,-1.01578170e-02f,2.85817776e-02f,2.09092170e-01f,-2.71795895e-02f,6.11762963e-02f,1.13468073e-01f,6.89821899e-01f,3.33505839e-01f,-3.69273752e-01f,3.13389808e-01f,3.39302689e-01f,2.43988350e-01f,3.05727273e-01f,1.17320009e-01f,5.66766635e-02f,-4.89459820e-02f,-4.61129099e-02f,-4.39167917e-02f,5.29749244e-02f,7.74457008e-02f,2.06639186e-01f,7.31111392e-02f,3.47314060e-01f,1.43308789e-01f,2.03853801e-01f,2.40121260e-01f,1.32944375e-01f,2.39495665e-01f,4.99513298e-02f,-2.15495806e-02f,2.38312349e-01f,1.38701573e-01f,-2.82680755e-03f,2.08866984e-01f,3.69136900e-01f,-3.50660309e-02f,4.57614921e-02f,2.10973069e-01f,2.18007997e-01f,4.30055827e-01f,3.54677975e-01f,1.29601702e-01f,1.33573964e-01f,1.98506936e-01f,3.41081992e-02f,3.92049626e-02f,1.01550877e-01f,7.48268366e-02f,1.85867310e-01f,3.64815950e-01f,4.13193196e-01f,4.05666441e-01f,1.56071395e-01f,2.08109885e-01f,1.15156375e-01f,-1.93287444e-04f,1.35143191e-01f,-7.42806792e-02f,1.20414183e-01f,1.99320361e-01f,4.99422029e-02f,1.60401821e-01f,1.08586974e-03f,1.34463981e-01f,4.69799265e-02f,5.97783215e-02f,-1.50849344e-02f,2.44935483e-01f,1.24644987e-01f,2.85815269e-01f,9.75029320e-02f,-3.83617431e-02f,4.78597246e-02f,-6.19297773e-02f,1.67832538e-01f,1.37930587e-01f,1.48031518e-01f,4.93023843e-01f,2.03144178e-01f,1.19589716e-01f,1.78766236e-01f,7.29581388e-03f,-6.44226819e-02f,-2.94880960e-02f,4.70105745e-02f,-4.80428189e-02f,-6.47256374e-02f,-2.54288241e-02f,-3.61022115e-01f,-7.18480200e-02f,-1.34976923e-01f,2.14210853e-01f,-9.18800477e-03f,4.97218296e-02f,9.58404839e-02f,9.80948657e-03f,-5.00700735e-02f,4.71920334e-02f,7.20318183e-02f,-1.00797065e-01f,-1.89889818e-01f,3.38051505e-02f,7.27119446e-02f,2.52437711e-01f,2.10637320e-02f,1.07070670e-01f,3.08577623e-02f,-1.40375227e-01f,-1.66884899e-01f,-7.72131681e-02f,5.23773246e-02f,-1.00912586e-01f,-4.50769775e-02f,-1.30351648e-01f,-2.00350448e-01f,-9.23199877e-02f,-5.87012112e-01f,4.87296246e-02f,1.73186511e-01f,-6.04175441e-02f,-3.56122404e-02f,6.58017546e-02f,-8.57514367e-02f,-1.76659256e-01f,-3.86291414e-01f,-7.03239292e-02f,-2.00029776e-01f,-1.22468159e-01f,-2.61367788e-03f,2.11532116e-02f,1.75447168e-03f,-7.09514618e-02f,-1.92634135e-01f,-3.45667571e-01f,-2.98346072e-01f,-3.20698619e-01f,-1.52642250e-01f,-1.10274963e-02f,8.26811865e-02f,-1.87450945e-01f,-2.06444830e-01f,-3.46661061e-01f,-3.43409330e-01f,-3.25697511e-01f,-6.73179269e-01f,-9.93071422e-02f,-1.82057217e-01f,-1.48793776e-02f,-2.41774553e-03f,5.52165322e-02f,9.48289558e-02f,-2.70081311e-01f,-4.39308047e-01f,-2.83551365e-01f,-1.87321175e-02f,-1.11485586e-01f,9.92153212e-03f,-4.23674956e-02f,-9.99983251e-02f,-2.67794430e-01f,-4.59395349e-01f,-5.20065129e-01f,-2.36282274e-01f,-2.53559887e-01f,-4.96468805e-02f,8.89168158e-02f,8.01544189e-02f,-1.76240295e-01f,-3.08193684e-01f,-1.91418976e-01f,-4.28825080e-01f,-3.02990109e-01f,-3.44875991e-01f,-1.15401469e-01f,-1.07674874e-01f,-2.30739079e-02f,-4.59367447e-02f,5.54073825e-02f,1.89379513e-01f,6.81373253e-02f,-2.19836310e-01f,-4.22667950e-01f,-1.96945772e-01f,-1.90087751e-01f,-7.23948106e-02f,-5.27978055e-02f,-1.03198700e-01f,-2.36072525e-01f,-3.47511858e-01f,-2.86086261e-01f,-1.28461733e-01f,-8.42197612e-02f,1.96194220e-02f,3.17318477e-02f,-2.91571282e-02f,-2.83714943e-02f,-2.53517717e-01f,-1.38025517e-02f,-2.06044167e-01f,-3.02480962e-02f,-1.66157916e-01f,-1.09499060e-01f,4.46117997e-01f,8.29421729e-03f,-9.92156565e-03f,1.05365351e-01f,1.15416661e-01f,3.33542168e-01f,-1.22546539e-01f,-3.94170195e-01f,-2.50722945e-01f,-2.36807227e-01f,-2.32695952e-01f,-1.56628117e-01f,-2.21605718e-01f,-1.39340863e-01f,-2.94856369e-01f,-1.16186261e-01f,1.16464095e-02f,9.76363290e-03f,3.01158335e-02f,-5.16655929e-02f,7.24218935e-02f,5.56293353e-02f,6.15264429e-03f,-3.39413993e-02f,-1.46735078e-02f,-1.05028898e-01f,1.20341005e-02f,1.02256732e-02f,4.90962505e-01f,4.77213860e-02f,1.47849011e-38f,1.12542927e-01f,7.31443241e-02f,2.54734874e-01f,-2.20579073e-01f,-5.12501538e-01f,-3.17603976e-01f,-1.84453800e-01f,-1.15006760e-01f,-1.24591678e-01f,-2.06147507e-01f,-1.57759145e-01f,-2.16666788e-01f,4.48560156e-02f,5.53158224e-02f,-7.42919371e-02f,4.73108590e-02f,4.94330563e-02f,1.03517905e-01f,-1.45600839e-02f,3.31994034e-02f,1.17442511e-01f,8.59834328e-02f,1.69370487e-01f,1.50059417e-01f,-1.90848636e-03f,3.92596394e-01f,1.14509866e-01f,8.25927697e-39f,5.03794253e-02f,2.21823394e-01f,-3.49827111e-01f,-4.29777116e-01f,-3.10730249e-01f,-4.64789659e-01f,-2.72312492e-01f,-1.03376515e-01f,-2.91897029e-01f,-2.26003259e-01f,-2.77272552e-01f,4.60304543e-02f,5.51897511e-02f,3.01068649e-02f,-6.54312894e-02f,-1.95251044e-03f,3.46638411e-02f,-2.10266467e-03f,-3.71514224e-02f,-3.51222372e-03f,1.94293126e-01f,1.75872687e-02f,1.15544401e-01f,8.82600397e-02f,4.41275656e-01f,2.56322205e-01f,2.72765875e-01f,2.80344874e-01f,8.03772477e-04f,2.04990730e-01f,-3.45022321e-01f,-3.66114706e-01f,-1.44911870e-01f,-1.69122994e-01f,-1.47831947e-01f,-1.34558141e-01f,-1.54620096e-01f,-5.64545207e-02f,-2.56549537e-01f,6.53957529e-03f,1.78261817e-01f,-5.59683517e-02f,6.21172488e-02f,1.68699712e-01f,1.70483381e-01f,1.36614576e-01f,-7.78564578e-03f,7.87803233e-02f,1.06051989e-01f,7.26328716e-02f,7.39545375e-02f,5.97722828e-02f,8.12787265e-02f,4.89860147e-01f,3.10903937e-01f,4.13285517e-39f,2.83865511e-01f,2.00652376e-01f,-1.45352691e-01f,-4.02299762e-02f,-1.00694567e-01f,-7.46285319e-02f,-1.28180772e-01f,6.50613979e-02f,3.02508008e-02f,-7.45969787e-02f,-4.60916013e-02f,-4.96256724e-02f,1.74749285e-01f,1.18043683e-01f,1.61818966e-01f,1.97804108e-01f,1.52457744e-01f,-6.79698810e-02f,-6.13497421e-02f,2.23217343e-04f,1.54438540e-02f,6.44821078e-02f,1.04185097e-01f,1.74496159e-01f,9.15546864e-02f,3.16553116e-01f,1.00277878e-01f,1.18064552e-38f,5.13783284e-02f,2.45257229e-01f,2.57669419e-01f,-1.04828559e-01f,-8.65039602e-02f,-9.47997645e-02f,6.54561445e-02f,1.59956500e-01f,7.08844364e-02f,-5.64384423e-02f,-3.27361561e-02f,2.53021345e-02f,4.49733585e-02f,1.89888373e-01f,2.12767512e-01f,4.57137562e-02f,4.43856940e-02f,-1.80080049e-02f,-1.24592140e-01f,1.79219823e-02f,2.12940693e-01f,1.14762411e-01f,2.09544614e-01f,1.21370859e-01f,2.00172365e-01f,2.57845253e-01f,-1.09764769e-05f,1.86036769e-02f,5.06200269e-02f,3.37637126e-01f,3.86338651e-01f,8.81803408e-02f,4.15713266e-02f,-5.40032238e-02f,-1.05245963e-01f,4.89003304e-03f,1.26771018e-01f,2.60624468e-01f,1.16829112e-01f,2.12397888e-01f,1.46876395e-01f,5.84727563e-02f,9.69222933e-03f,1.19009294e-01f,1.19067363e-01f,1.99813098e-01f,8.30758289e-02f,2.50114128e-04f,7.90818706e-02f,1.24628894e-01f,1.77826315e-01f,4.87273276e-01f,7.45163187e-02f,-4.57975827e-02f,2.73204996e-08f,1.83783695e-02f,8.26347526e-03f,1.20548315e-01f,8.15534070e-02f,3.37681770e-01f,2.81429887e-01f,1.61240339e-01f,5.08849360e-02f,8.31084028e-02f,1.90272421e-01f,8.15297738e-02f,3.38263251e-02f,1.28346995e-01f,-3.00394483e-02f,7.58551359e-02f,6.38177097e-02f,2.63486151e-02f,1.26072377e-01f,1.57659188e-01f,6.29705563e-02f,1.08030789e-01f,-4.50588129e-02f,1.68331832e-01f,1.53927639e-01f,4.08960432e-01f,1.07663907e-01f,-7.15097189e-02f,5.13891258e-08f,2.34997752e-39f,2.87082335e-39f,2.43112281e-01f,2.11570621e-01f,2.99117565e-02f,5.09690382e-02f,6.25149608e-02f,1.92225769e-01f,9.93593857e-02f,4.98309731e-02f,6.53630346e-02f,2.29297370e-01f,2.72235274e-02f,-5.65744489e-02f,-7.47372163e-04f,7.68361986e-02f,7.88217336e-02f,2.12509371e-02f,-5.13200182e-03f,9.11128893e-03f,-2.06077937e-02f,-2.26865962e-01f,9.23820809e-02f,2.43160650e-01f,3.11624438e-01f,1.10323422e-01f,1.29033431e-01f,-1.11142348e-38f,1.07888926e-38f,-1.25820347e-38f,1.04813762e-01f,3.03674221e-01f,5.17297089e-01f,1.59723684e-01f,1.23656549e-01f,-6.73032086e-03f,-1.47276372e-01f,4.99525703e-02f,-4.14192490e-02f,5.14552630e-02f,9.08434168e-02f,-7.01482147e-02f,9.08929408e-02f,1.89541608e-01f,5.58929257e-02f,1.12408035e-01f,-1.59018219e-01f,-1.13415043e-03f,-2.38598317e-01f,-5.71661582e-03f,-1.43223986e-01f,8.81677344e-02f,5.08700252e-01f,1.64904460e-01f,5.35486564e-02f,1.63443515e-38f,-1.73261853e-38f,9.46605419e-39f,-2.01505190e-03f,3.11781149e-02f,-1.69124380e-01f,3.48138101e-02f,2.22906440e-01f,2.49121919e-01f,2.06851676e-01f,1.78595543e-01f,4.60119359e-02f,1.39815673e-01f,3.35343391e-01f,1.11832768e-01f,2.12765977e-01f,9.96688232e-02f,2.48278037e-01f,3.02399814e-01f,9.86751691e-02f,2.95813709e-01f,1.98383823e-01f,-4.37069312e-02f,-6.29566982e-02f,-1.56421645e-03f,4.36005622e-01f,1.25240422e-06f,4.13650423e-06f,1.37658671e-38f,-9.61887980e-39f,-3.07610657e-39f,-1.56329978e-39f,-2.80512706e-03f,-4.85331684e-01f,-2.26734266e-01f,-7.08887205e-02f,1.69489458e-01f,4.16225158e-02f,7.86157101e-02f,1.61112845e-01f,1.78546414e-01f,9.41825360e-02f,2.28970334e-01f,6.52672723e-02f,1.75952479e-01f,1.70597777e-01f,7.12545961e-02f,1.50614351e-01f,3.06271106e-01f,3.02831173e-01f,1.26964912e-01f,-2.91832983e-01f,-4.10691351e-02f,-3.12315533e-03f,1.52243557e-03f,-3.55321646e-40f,1.66169811e-38f,-4.11925697e-39f,8.46828344e-39f,1.03861271e-38f,2.17601052e-39f,6.66984543e-02f,1.09358840e-01f,1.71193540e-01f,2.57986784e-01f,3.21286261e-01f,1.05869390e-01f,1.59675658e-01f,3.71060111e-02f,-5.89876529e-03f,3.28014940e-01f,1.64525107e-01f,-1.73070580e-01f,-8.67681429e-02f,2.84792691e-01f,-3.70870228e-03f,1.01238586e-01f,3.40816438e-01f,1.09757863e-01f,-2.94687688e-01f,1.11868801e-02f,1.71548121e-38f,-1.27037263e-38f,1.18676107e-38f,1.62958666e-38f},
  {1.70134337e-38f,-2.90213536e-39f,1.12299625e-38f,8.86593131e-39f,-1.62093813e-38f,1.59455041e-38f,-1.27224630e-38f,-1.11292133e-38f,-3.85959636e-40f,1.93880713e-39f,1.14280094e-39f,-1.09661064e-38f,-1.95273105e-03f,-6.03139820e-03f,5.02264709e-04f,1.52653054e-30f,1.17158333e-38f,1.38161555e-38f,1.04012359e-38f,-7.85810063e-39f,-7.91826679e-39f,-3.15206675e-40f,7.42864750e-40f,-7.72273520e-39f,5.34181701e-39f,-1.66056110e-38f,-9.62310892e-39f,-1.16184949e-38f,1.33791984e-38f,-1.09065736e-38f,-1.61616642e-38f,9.84208422e-39f,-7.51264973e-39f,9.69987093e-29f,7.27256164e-02f,1.25632346e-01f,1.15327444e-02f,-6.55244440e-02f,-3.23434696e-02f,2.72763334e-02f,8.49233381e-03f,3.09513342e-02f,-1.96666136e-01f,-1.04740448e-01f,1.50057510e-01f,8.05332884e-02f,1.86877418e-03f,6.73558265e-02f,7.58754984e-02f,2.10848786e-02f,6.53019622e-02f,5.07209934e-02f,7.39910813e-39f,1.61862178e-38f,-1.08805501e-38f,-1.71600193e-38f,1.24839270e-38f,-9.14971667e-39f,1.53469059e-38f,8.01685092e-04f,-7.66435079e-03f,-1.13013934e-03f,3.84357907e-02f,1.29232079e-01f,1.83571056e-01f,2.56242156e-01f,8.17058682e-02f,2.44381487e-01f,7.97470063e-02f,-3.03813756e-01f,9.83242244e-02f,-6.91416487e-02f,1.37326837e-01f,4.53478724e-01f,3.51664066e-01f,-1.84172958e-01f,-1.20818578e-01f,-3.20002399e-02f,4.10195887e-02f,1.64070934e-01f,2.81036925e-02f,1.05645515e-01f,1.36270825e-38f,1.89138439e-39f,-8.17771299e-39f,2.62343812e-39f,-1.91484258e-01f,1.06599614e-01f,3.58689994e-01f,1.09348342e-01f,-3.25438357e-03f,1.04403265e-01f,2.91026711e-01f,3.37698221e-01f,3.05643737e-01f,3.86255383e-01f,3.40764165e-01f,1.29286289e-01f,7.99460635e-02f,1.86342388e-01f,4.10647154e-01f,3.53504181e-01f,4.11329001e-01f,1.59998298e-01f,1.38363048e-01f,7.44761229e-02f,1.22298881e-01f,1.83101948e-02f,1.66908979e-01f,1.11396804e-01f,-1.92668095e-01f,8.00102887e-39f,1.07456345e-38f,4.68553571e-06f,-3.07517648e-01f,7.75315985e-02f,-1.46464348e-01f,-2.67280608e-01f,1.65666100e-02f,1.65364087e-01f,1.54472023e-01f,3.42049271e-01f,2.77197093e-01f,4.26909596e-01f,2.74072558e-01f,3.83405425e-02f,2.88454533e-01f,4.08024013e-01f,3.59598815e-01f,3.38476568e-01f,4.17794198e-01f,1.52248591e-01f,2.56065689e-02f,-1.76604152e-01f,-1.06265783e-01f,-4.97252904e-02f,2.64339954e-01f,2.77256012e-01f,3.49075049e-01f,-1.36593699e-01f,1.33941446e-38f,-3.78141372e-39f,1.07623814e-02f,4.54982162e-01f,-9.81230512e-02f,-5.73686361e-01f,-9.53131095e-02f,-1.91567261e-02f,-1.40268192e-01f,-1.43794060e-01f,1.66475133e-04f,9.97762531e-02f,2.67628599e-02f,7.05858767e-02f,3.60043682e-02f,1.26507238e-01f,2.87146986e-01f,1.63415924e-01f,1.25406176e-01f,2.22247079e-01f,3.52174640e-01f,1.39849603e-01f,1.07783630e-01f,-1.88162714e-01f,1.79249868e-01f,4.46675718e-01f,2.82729566e-01f,-1.53949574e-01f,-6.40013086e-39f,1.19912867e-02f,-6.61819503e-02f,-7.60710239e-02f,-1.58388987e-01f,-2.75218546e-01f,-1.75313458e-01f,-2.75010318e-02f,-2.07246095e-01f,1.27011642e-01f,1.14952795e-01f,-7.97775947e-03f,1.41869197e-02f,1.72818914e-01f,9.21690315e-02f,1.92294449e-01f,1.67128131e-01f,9.06274542e-02f,6.93220124e-02f,9.97341424e-02f,7.54022971e-02f,9.85451341e-02f,8.52664709e-02f,2.41361693e-01f,2.94947833e-01f,2.83356458e-01f,8.26059803e-02f,2.77605653e-02f,3.56609440e-40f,-8.77690986e-02f,-2.32031792e-01f,-1.95435151e-01f,5.38075492e-02f,-2.47653536e-02f,-1.91703111e-01f,5.45568801e-02f,2.56440580e-01f,-2.22080406e-02f,-4.39952910e-02f,6.15685619e-02f,4.76868898e-02f,1.15875661e-01f,2.26730987e-01f,2.28459120e-01f,1.30440265e-01f,-1.24904305e-01f,-1.31937787e-01f,-2.14790210e-01f,-1.60650730e-01f,1.42920632e-02f,1.10691227e-01f,1.08475059e-01f,8.38233456e-02f,1.37143448e-01f,7.86574930e-02f,-9.79670212e-02f,4.45982218e-02f,-2.80178934e-01f,-9.55130458e-02f,2.10133870e-03f,1.00281820e-01f,8.39177370e-02f,1.19478188e-01f,-1.09304830e-01f,-2.28412692e-02f,-3.40043046e-02f,-9.59834829e-03f,9.99066383e-02f,1.05669826e-01f,2.73877859e-01f,1.61288917e-01f,-3.73462327e-02f,-1.38725936e-02f,-1.27810076e-01f,-2.84427911e-01f,-1.61995634e-01f,-1.59551457e-01f,-1.22626871e-01f,3.92943695e-02f,1.49028301e-02f,6.55234084e-02f,2.00883284e-01f,5.12650728e-01f,2.85451829e-01f,-4.73500714e-02f,-1.86777845e-01f,1.91729575e-01f,6.25427961e-02f,-6.77881017e-02f,1.78926781e-01f,1.14902496e-01f,2.63895243e-02f,1.21431671e-01f,2.04363968e-02f,5.26153594e-02f,3.51368338e-02f,-1.85117554e-02f,5.63855842e-02f,-7.28794783e-02f,-4.93560545e-02f,-6.07886426e-02f,-1.04141653e-01f,-2.54203886e-01f,-1.45122021e-01f,-7.43661076e-02f,-1.20908223e-01f,-1.08429212e-02f,2.02113152e-01f,6.04752637e-02f,3.32008988e-01f,2.59901553e-01f,-3.70778888e-01f,-7.25333095e-02f,-1.62972987e-01f,1.12190910e-01f,-8.64384249e-02f,-2.28382453e-01f,3.05480510e-01f,1.82188209e-02f,-6.02317378e-02f,5.44813536e-02f,5.03314510e-02f,-7.67448694e-02f,-4.90950234e-02f,1.83484539e-01f,-5.12749793e-05f,1.08423106e-01f,-1.15251839e-02f,6.91642240e-02f,-8.79178792e-02f,4.65477221e-02f,-6.02191035e-03f,-3.83341722e-02f,-2.53426313e-01f,-8.49225372e-02f,1.84173882e-01f,1.81417409e-02f,1.08092606e-01f,1.08598739e-01f,-2.42202878e-01f,-6.80248672e-03f,-1.64722875e-01f,-3.95249158e-01f,-1.61604121e-01f,-1.40521407e-01f,-1.18261378e-03f,3.77505012e-02f,5.02399802e-02f,-6.99892193e-02f,-1.15450263e-01f,-1.34333238e-01f,1.77236926e-02f,7.29834586e-02f,1.02041371e-01f,9.29033682e-02f,6.28563687e-02f,6.47253394e-02f,-3.87226269e-02f,8.17644373e-02f,1.22589782e-01f,-6.98553324e-02f,-8.76758099e-02f,-3.93089294e-01f,-2.58064091e-01f,1.94834955e-02f,4.28131849e-01f,5.10976672e-01f,7.03383312e-02f,-2.41246162e-04f,-1.79279968e-01f,-4.27598178e-01f,-6.37816936e-02f,-1.34174272e-01f,-1.65303037e-01f,1.43573694e-02f,4.62128827e-03f,-1.08732224e-01f,6.10212795e-02f,5.37582152e-02f,9.58045125e-02f,1.82545960e-01f,1.38076439e-01f,2.05423072e-01f,-7.74341263e-03f,-6.76746517e-02f,1.31778464e-01f,1.46046523e-02f,1.46249264e-01f,-6.54405281e-02f,-2.14820430e-01f,-4.98419344e-01f,-4.86215055e-01f,-3.75391573e-01f,-8.45340192e-02f,2.08521202e-01f,-1.59207597e-01f,1.15754893e-02f,-9.09749568e-02f,-3.45038563e-01f,-2.55725056e-01f,-2.19983488e-01f,1.20370496e-04f,-2.55298167e-01f,8.08016732e-02f,-3.41110900e-02f,4.00593579e-02f,-1.09586403e-01f,3.74498707e-03f,1.15831375e-01f,2.70602345e-01f,2.01115534e-01f,-2.77952775e-02f,-9.11860168e-02f,6.44147173e-02f,8.67878124e-02f,1.30763814e-01f,-4.90003414e-02f,-3.10972571e-01f,-3.50986034e-01f,-3.08040023e-01f,-3.21166664e-01f,-2.63397425e-01f,5.66908568e-02f,5.90535328e-02f,6.71023726e-02f,-7.81865716e-02f,-3.75500560e-01f,-2.35694423e-01f,-3.22130471e-01f,-2.92611986e-01f,-3.69154438e-02f,3.90535928e-02f,-1.52458966e-01f,-1.79912865e-01f,-1.59069389e-01f,-1.35298967e-01f,7.22446665e-02f,6.15087450e-02f,1.11743599e-01f,-7.12039918e-02f,-9.10454914e-02f,-7.11101741e-02f,2.17273177e-04f,-3.11560571e-01f,-1.56082854e-01f,-2.35140711e-01f,-2.09231779e-01f,-3.20831358e-01f,-4.92504686e-01f,-1.78499743e-01f,-8.81407131e-03f,2.67686299e-03f,1.80999227e-02f,3.79883684e-02f,-1.35825828e-01f,-3.04611653e-01f,-3.86044741e-01f,-1.98063135e-01f,8.65341350e-02f,-9.82377902e-02f,-1.25833109e-01f,-1.72658905e-01f,-1.37832418e-01f,7.11656064e-02f,7.19655529e-02f,8.26951712e-02f,5.90428002e-02f,-1.77904576e-01f,-4.14144546e-02f,-2.35658869e-01f,-2.32772112e-01f,-8.76028687e-02f,-2.71895051e-01f,-2.80903101e-01f,-2.72175401e-01f,-2.00237960e-01f,1.71981975e-01f,1.03071425e-02f,-8.10032412e-02f,1.22706227e-01f,1.32721812e-38f,2.20833998e-02f,3.90750393e-02f,-7.39162490e-02f,-1.38171062e-01f,-1.66361973e-01f,-1.60081238e-01f,-1.13900609e-01f,-8.26889426e-02f,-2.10545465e-01f,-2.61037778e-02f,2.47442666e-02f,8.67155790e-02f,1.45500541e-01f,-2.72490773e-02f,-2.06408069e-01f,-1.43334374e-01f,-2.41935655e-01f,-2.27751479e-01f,-7.86646307e-02f,-9.08166915e-02f,-1.09927863e-01f,1.13961399e-01f,2.41697147e-01f,3.09962511e-01f,1.57555461e-01f,-7.00547248e-02f,2.24528164e-01f,3.58936996e-39f,6.25184551e-03f,-1.08611375e-01f,2.51944095e-01f,-1.58230308e-02f,-6.05309755e-02f,-2.10515663e-01f,-1.60270795e-01f,-7.83168897e-02f,-8.02102163e-02f,-5.46768606e-02f,-3.46114263e-02f,2.77569331e-02f,-7.17739239e-02f,-2.36559361e-01f,-2.09007859e-01f,-2.11889356e-01f,5.24420403e-02f,-1.11107916e-01f,8.00193474e-02f,1.06336772e-01f,1.94084883e-01f,2.05149382e-01f,7.19654933e-02f,-9.16532800e-02f,-1.84549987e-02f,-2.15662226e-01f,2.81658649e-01f,-8.25521722e-02f,1.28846301e-03f,-1.11900464e-01f,1.15671553e-01f,2.42004082e-01f,3.44925281e-03f,1.24674728e-02f,-8.79517794e-02f,-1.14846259e-01f,-1.88697562e-01f,-1.12390019e-01f,-7.78974220e-02f,-1.06283411e-01f,-1.71427578e-01f,-2.59880960e-01f,-1.97400182e-01f,-1.02084726e-01f,-9.77037996e-02f,-4.70797308e-02f,4.81141917e-02f,1.06071167e-01f,1.66862369e-01f,1.46407411e-01f,7.32318163e-02f,-1.18444890e-01f,-1.83099419e-01f,-2.25664407e-01f,1.26893803e-01f,-1.58160228e-38f,-2.96780229e-01f,-1.91906281e-02f,-8.68137032e-02f,6.80112168e-02f,1.56895056e-01f,-1.15350887e-01f,-1.25965565e-01f,-1.65975064e-01f,-1.02448948e-01f,5.13608791e-02f,-1.85815066e-01f,-1.22016430e-01f,2.91766897e-02f,-1.60738781e-01f,1.89965647e-02f,2.01123208e-02f,2.06942230e-01f,9.25230756e-02f,5.86987473e-03f,2.92265974e-02f,2.40520045e-01f,2.65839130e-01f,2.18544915e-01f,-2.28767768e-01f,9.33124200e-02f,2.36657068e-01f,1.23645049e-02f,1.54676698e-38f,-4.58280407e-02f,1.47204369e-01f,1.12489322e-02f,1.54224709e-01f,1.87106341e-01f,-1.01693094e-01f,3.15714255e-02f,-1.27863092e-02f,8.94064903e-02f,7.28551745e-02f,5.33265807e-02f,3.22132483e-02f,3.09814125e-01f,7.75169656e-02f,1.73248217e-01f,1.43582597e-01f,1.89496085e-01f,2.57233679e-01f,1.75114870e-01f,2.46000573e-01f,2.58277714e-01f,2.60393977e-01f,4.88631010e-01f,1.30557448e-01f,4.02189225e-01f,-1.06525444e-03f,4.36332822e-03f,1.27007701e-02f,-1.14569524e-02f,2.57412821e-01f,1.17186807e-01f,7.93978348e-02f,-1.68288916e-01f,1.04384109e-01f,2.00663090e-01f,1.60938442e-01f,1.68402746e-01f,2.56758898e-01f,2.76106596e-01f,7.83411637e-02f,3.77715141e-01f,2.71934360e-01f,3.22367162e-01f,3.30265611e-01f,3.64699334e-01f,3.19387048e-01f,3.59933108e-01f,1.59320846e-01f,2.12188259e-01f,3.77920777e-01f,4.73139375e-01f,4.60469946e-02f,2.58848131e-01f,7.49271140e-02f,-2.16448246e-08f,1.24810711e-02f,3.01581481e-03f,2.81238705e-01f,3.49383682e-01f,1.67688578e-01f,-5.04064113e-02f,8.27312917e-02f,6.65327311e-02f,1.52441442e-01f,1.97052091e-01f,1.96922794e-01f,2.15068966e-01f,1.35530040e-01f,2.00522125e-01f,2.82192051e-01f,2.95281917e-01f,1.58096656e-01f,2.88010567e-01f,3.14390421e-01f,2.58857369e-01f,3.22847724e-01f,2.04211876e-01f,2.19444379e-01f,5.14143229e-01f,1.96885392e-01f,5.62774874e-02f,-9.75261629e-02f,-2.35729843e-07f,1.49618753e-38f,-5.65002840e-39f,2.14585751e-01f,6.21558726e-01f,3.98255050e-01f,1.72626212e-01f,-2.81069763e-02f,8.81219506e-02f,3.23537409e-01f,1.14557646e-01f,1.36013210e-01f,1.81445733e-01f,8.90626684e-02f,2.84538656e-01f,1.76150084e-01f,1.58696398e-01f,2.85609424e-01f,3.62704635e-01f,3.19812328e-01f,2.65332967e-01f,1.19286940e-01f,2.36282423e-01f,2.80387580e-01f,5.09057283e-01f,3.99619699e-01f,2.26458073e-01f,-1.82279065e-01f,-1.51783507e-38f,-1.32004557e-39f,3.01118861e-39f,-9.49447677e-02f,1.89169183e-01f,-1.96782976e-01f,-1.13460854e-01f,1.52222842e-01f,1.69828266e-01f,1.50853500e-01f,2.14825511e-01f,1.47690490e-01f,1.73650041e-01f,1.73690557e-01f,1.44319043e-01f,1.83230132e-01f,2.42825449e-01f,3.67963761e-01f,3.96447062e-01f,4.76784825e-01f,4.14190382e-01f,2.29276776e-01f,3.03475671e-02f,-3.30531262e-02f,1.30750433e-01f,3.66436303e-01f,-8.52472782e-02f,3.06916167e-03f,-7.34276191e-39f,-4.15499008e-39f,-3.95411394e-39f,8.25657472e-02f,-6.69629574e-02f,-1.47303089e-01f,-2.30645999e-01f,8.80741552e-02f,3.28106359e-02f,1.01249181e-01f,1.55572087e-01f,7.55545422e-02f,-5.02405176e-03f,2.28165433e-01f,3.08019847e-01f,5.51806800e-02f,1.84591815e-01f,2.22962752e-01f,3.26925904e-01f,2.47344181e-01f,3.78253549e-01f,3.46379727e-01f,9.55105051e-02f,1.88601464e-01f,2.52168834e-01f,3.43745381e-01f,1.57722160e-02f,1.97163131e-02f,7.27801352e-39f,-2.42155585e-39f,-5.56699586e-39f,-1.11610760e-38f,1.00580393e-03f,5.41359223e-02f,-2.49119818e-01f,-3.43423337e-01f,-3.97972137e-01f,-1.76229209e-01f,-9.45553854e-02f,1.30252272e-01f,7.07625896e-02f,2.76804995e-02f,5.02315611e-02f,6.22773729e-02f,-5.76348566e-02f,-1.36526572e-02f,1.38821170e-01f,-1.74664989e-01f,-2.67500818e-01f,-6.17753481e-03f,-4.32767794e-02f,6.09426610e-02f,-7.75941163e-02f,-1.64127603e-01f,-6.94613053e-15f,-1.14435217e-39f,-8.59691003e-40f,-1.22010118e-38f,6.91753509e-39f,4.94550178e-39f,-9.97255072e-39f,-1.56488866e-04f,3.33703272e-02f,3.44083905e-02f,-5.38822189e-02f,-7.04500079e-02f,-2.29030237e-01f,-3.98139983e-01f,-1.21112749e-01f,-2.35481098e-01f,-3.00355405e-01f,-2.88254887e-01f,-1.23690166e-01f,-2.04395607e-01f,-4.10960644e-01f,-2.13346034e-01f,-1.47293344e-01f,-3.97412539e-01f,-2.79916108e-01f,-2.77558595e-01f,-9.53543484e-02f,-7.61832726e-39f,-2.88143678e-39f,-1.16349854e-38f,4.52418598e-39f},
  {7.10033588e-39f,-1.69647036e-38f,-4.91007835e-39f,1.32736974e-38f,-6.11093789e-39f,1.14539488e-38f,7.92320776e-39f,-5.51653931e-39f,-1.20578089e-39f,-1.57329538e-38f,-3.80176898e-39f,-1.48352386e-38f,3.65437171e-03f,2.06461772e-02f,2.22350913e-03f,9.89840487e-07f,1.52711965e-38f,-6.11079636e-39f,1.00831314e-38f,8.31344416e-39f,2.91493342e-39f,1.30402887e-38f,-1.68834380e-38f,-1.73532556e-38f,1.30549477e-38f,2.63040537e-39f,-1.33412036e-38f,3.94975730e-39f,-1.42313140e-38f,1.43643742e-39f,2.31004752e-39f,4.56317431e-39f,-3.76716391e-39f,6.51391403e-08f,1.91054624e-02f,3.51712964e-02f,1.78318992e-02f,4.66211252e-02f,1.81667656e-01f,-9.72574856e-03f,8.10786486e-02f,9.53531042e-02f,2.17805713e-01f,-2.23359279e-02f,-1.77719027e-01f,1.07048333e-01f,1.45564243e-01f,1.09263793e-01f,1.42286599e-01f,1.47687137e-01f,1.53994158e-01f,9.06913131e-02f,-1.10518392e-38f,-5.26484649e-40f,1.37773199e-38f,6.01711535e-39f,-2.80588858e-39f,-8.33483779e-39f,9.76653602e-39f,-1.17224447e-01f,-3.88513319e-02f,4.57216427e-03f,4.82948273e-02f,1.02078065e-01f,-2.52952203e-02f,-3.73585671e-02f,3.30438614e-02f,-3.13017145e-02f,-9.13764983e-02f,-4.61401418e-02f,8.01843703e-02f,1.02062963e-01f,-1.09895632e-01f,1.88888416e-01f,4.28156585e-01f,2.58229822e-01f,1.86730787e-01f,1.79944277e-01f,2.62443095e-01f,5.49022630e-02f,-1.00231402e-01f,-1.11685678e-01f,-9.06443925e-39f,-9.12970052e-39f,7.31751332e-39f,3.09265730e-39f,-2.28362128e-01f,-7.77850673e-02f,4.23709661e-01f,-1.90053686e-01f,-1.51547983e-01f,-1.70363232e-01f,-1.68653026e-01f,2.46380582e-01f,2.08251849e-01f,2.87766699e-02f,1.14131488e-01f,1.28682733e-01f,7.74537846e-02f,6.26195148e-02f,6.34849966e-02f,-3.83040458e-02f,9.67684314e-02f,1.23223431e-01f,-6.32066801e-02f,4.35769528e-01f,4.02373463e-01f,4.25689429e-01f,1.20413460e-01f,4.02691886e-02f,-2.41565295e-02f,4.48569651e-40f,-8.78309775e-39f,-7.91220828e-06f,-3.12010407e-01f,-2.23407507e-01f,-4.57232259e-03f,-1.31453201e-01f,-1.17182016e-01f,-7.04803132e-03f,2.64276713e-02f,2.29772329e-01f,1.08948074e-01f,1.29744619e-01f,1.10033549e-01f,-1.75747252e-03f,2.13198751e-01f,5.46929128e-02f,1.88898370e-01f,1.27315834e-01f,9.92989764e-02f,7.71290362e-02f,2.07671925e-01f,3.41293424e-01f,2.85206199e-01f,4.70915586e-01f,4.57932770e-01f,5.32074630e-01f,4.50349003e-01f,3.39297593e-01f,-1.44077865e-38f,1.16731105e-39f,-8.91468301e-02f,4.77961488e-02f,-2.01539740e-01f,-3.26940477e-01f,-5.72139211e-02f,2.17957377e-01f,2.27745235e-01f,9.43002775e-02f,1.07550405e-01f,6.79442585e-02f,1.65451333e-01f,-7.50579238e-02f,2.39016637e-01f,4.75800224e-02f,-1.95160583e-02f,1.79065019e-01f,5.89447170e-02f,1.25633866e-01f,2.29162052e-01f,1.28775463e-01f,2.07448721e-01f,3.13356109e-02f,2.71371186e-01f,5.40114105e-01f,4.69069123e-01f,3.44015360e-01f,-2.19150328e-39f,2.19735986e-04f,-1.94925979e-01f,-3.97947222e-01f,-8.85713920e-02f,1.21007495e-01f,1.44907340e-01f,6.68819770e-02f,1.48227513e-01f,3.47454138e-02f,-3.38885039e-02f,-2.51632817e-02f,1.03518590e-01f,-7.10168928e-02f,-9.48819816e-02f,-5.75772040e-02f,-1.30566433e-01f,-1.28194258e-01f,-2.19067767e-01f,6.20367564e-02f,7.86074474e-02f,-6.76433891e-02f,9.03085768e-02f,3.25774074e-01f,3.73649567e-01f,5.47590554e-01f,2.76039094e-01f,1.47124305e-01f,9.64097407e-39f,-1.92590252e-01f,-9.80411172e-02f,-9.75050852e-02f,-8.53611752e-02f,1.76837862e-01f,-6.46967208e-03f,1.82012558e-01f,3.19505781e-01f,1.26026407e-01f,3.55522558e-02f,-6.37320355e-02f,-4.78290990e-02f,-6.21788725e-02f,-1.39235109e-01f,1.75469201e-02f,9.90979932e-03f,-7.14016482e-02f,-3.65153477e-02f,3.87234725e-02f,-1.48644457e-02f,1.35358512e-01f,8.07125717e-02f,1.25565991e-01f,2.03839570e-01f,3.82720381e-01f,5.40997565e-01f,1.31461084e-01f,3.20284247e-01f,-1.40143752e-01f,1.99614018e-01f,1.46915033e-01f,-5.33315912e-02f,2.36500159e-01f,1.43062994e-01f,1.39724314e-01f,6.68119416e-02f,1.07331708e-01f,1.86906606e-02f,-7.11383007e-04f,3.74348201e-02f,1.21479563e-01f,7.10954219e-02f,-9.33401212e-02f,-1.26929283e-01f,-1.61583588e-01f,-1.44323796e-01f,-8.97882208e-02f,6.97454321e-04f,2.44835718e-03f,1.34748053e-02f,1.19596213e-01f,1.45166889e-01f,3.43251199e-01f,6.40284121e-01f,2.46976659e-01f,-6.46050507e-03f,-1.90260753e-01f,2.84964859e-01f,-9.73795131e-02f,2.69958675e-02f,1.15982868e-01f,8.45127553e-03f,-4.62974645e-02f,-2.16707997e-02f,-4.13557738e-02f,-1.76400431e-02f,9.98897702e-02f,1.47631273e-01f,1.41545653e-01f,6.25855699e-02f,-1.35782599e-01f,-1.65969566e-01f,-5.70235029e-02f,-1.01749159e-01f,-8.93477425e-02f,-8.44960939e-03f,1.50473416e-01f,2.62757447e-02f,7.84549937e-02f,1.81886449e-01f,4.26770419e-01f,2.09611669e-01f,-3.52773488e-01f,-7.27015734e-03f,-1.30769387e-01f,1.64815709e-01f,-7.98216984e-02f,6.28451034e-02f,4.48553935e-02f,3.56489867e-02f,1.11737266e-01f,-1.68110486e-02f,6.71425164e-02f,1.38980195e-01f,1.34149656e-01f,1.99188054e-01f,-5.64951859e-02f,-1.33731784e-02f,-1.41649842e-01f,-2.56223351e-01f,-2.01640472e-01f,-1.02646150e-01f,-9.23125520e-02f,3.64711462e-03f,8.52966234e-02f,1.10505424e-01f,7.96070322e-02f,2.01471329e-01f,4.88950759e-02f,1.47910669e-01f,-1.23258688e-01f,-3.34210112e-04f,2.46352926e-01f,-1.21311933e-01f,-3.97835299e-03f,-3.30767483e-02f,1.29176751e-01f,1.23901755e-01f,-3.60721610e-02f,-1.68889523e-01f,9.82734635e-02f,7.21094534e-02f,2.27009635e-02f,9.97484922e-02f,5.47606796e-02f,4.01768312e-02f,-2.38018304e-01f,-2.06884518e-01f,-1.51327744e-01f,-1.53323635e-01f,-4.78732772e-02f,-3.23903143e-01f,-5.89157678e-02f,-1.71875879e-01f,-3.53331375e-03f,2.60896504e-01f,3.73175234e-01f,6.44632041e-01f,1.00020036e-01f,-3.00009870e-05f,-2.46195530e-04f,-1.61795199e-01f,1.31885648e-01f,-1.99451111e-03f,6.37571067e-02f,-1.28361974e-02f,9.73947123e-02f,-1.36433598e-02f,-2.15010438e-02f,-1.41890710e-02f,5.08450679e-02f,2.04897076e-01f,2.40366459e-01f,1.79022050e-03f,-7.04178214e-02f,-2.43092552e-02f,-1.35212347e-01f,-9.08697173e-02f,-5.92592098e-02f,-3.74280736e-02f,-3.28577757e-02f,-2.75335293e-02f,1.03333257e-01f,5.09964764e-01f,2.30334505e-01f,2.62250364e-01f,4.12809588e-02f,5.18057263e-03f,1.81723817e-03f,-1.99441373e-01f,6.71369210e-02f,-9.44686607e-02f,3.80436704e-02f,6.20835796e-02f,8.23592243e-04f,-7.34419972e-02f,5.59080392e-02f,5.86492941e-02f,1.61681056e-01f,1.94748491e-01f,1.30976230e-01f,-1.51202222e-02f,6.45820424e-02f,-7.28058517e-02f,-5.88666275e-02f,-9.39928666e-02f,1.01232715e-01f,1.57901555e-01f,-8.18628911e-03f,1.40125602e-01f,1.80198714e-01f,1.15318418e-01f,-1.23773500e-01f,-8.49178657e-02f,1.18010610e-01f,1.10052958e-01f,-1.19306892e-01f,-2.30239660e-01f,3.15079675e-03f,-3.52688357e-02f,1.25538409e-01f,-3.65894996e-02f,-1.86913088e-01f,-4.07848880e-02f,4.47191074e-02f,1.10533066e-01f,2.51686454e-01f,1.68314949e-01f,1.24385925e-02f,1.73265159e-01f,1.96648929e-02f,6.42267540e-02f,-7.32300505e-02f,-1.49171904e-01f,-1.37553498e-01f,4.43577506e-02f,5.43654077e-02f,4.00762744e-02f,9.63299796e-02f,1.20641388e-01f,1.98221639e-01f,-2.83839375e-01f,7.21109752e-03f,5.54273278e-02f,-1.84985057e-01f,3.35959047e-01f,1.09741136e-01f,4.14519645e-02f,-2.57760972e-01f,-8.70340914e-02f,2.09032260e-02f,-1.03432983e-02f,8.88607576e-02f,5.70182465e-02f,1.58391550e-01f,5.52644394e-02f,1.14250854e-01f,1.70545965e-01f,1.09223507e-01f,3.50458249e-02f,-1.05593748e-01f,-6.54291781e-03f,-5.00375293e-02f,-1.89965770e-01f,-7.79069141e-02f,2.20710766e-02f,8.47065374e-02f,-2.01179795e-02f,3.94286007e-01f,-3.06555450e-01f,-1.92910492e-01f,-1.38446326e-39f,-1.17117763e-01f,-3.42021622e-02f,1.01622887e-01f,-2.59987503e-01f,-1.76942065e-01f,-4.10113484e-02f,-3.30293328e-02f,1.26791731e-01f,1.36568949e-01f,1.69682756e-01f,1.33861706e-01f,2.01899871e-01f,1.23261258e-01f,1.28597960e-01f,1.44120052e-01f,1.05452515e-01f,-4.56862524e-02f,-1.00935444e-01f,-4.26108949e-02f,-8.29749629e-02f,9.83100981e-02f,4.06693108e-02f,7.31147872e-03f,2.14534681e-02f,5.32772243e-01f,-6.93243071e-02f,-3.11130911e-01f,-1.73227886e-38f,-1.22136079e-01f,2.33586997e-01f,1.71479117e-02f,-4.71391492e-02f,-3.37857716e-02f,2.11349383e-01f,1.11834161e-01f,2.39269748e-01f,3.01787108e-01f,2.16721803e-01f,1.52817145e-01f,1.30684078e-01f,1.40561387e-01f,2.12146401e-01f,2.27959752e-02f,8.34173411e-02f,-3.07053477e-02f,2.71170437e-02f,-5.58664165e-02f,2.62737162e-02f,8.82845446e-02f,8.32600147e-02f,2.12089375e-01f,2.64024198e-01f,1.58312112e-01f,-2.57262051e-01f,-4.08052027e-01f,-2.30569229e-01f,-5.78175392e-03f,1.33587435e-01f,-7.18184635e-02f,1.30823031e-01f,1.50802314e-01f,2.61260331e-01f,1.41107336e-01f,1.34351492e-01f,2.67246872e-01f,9.93852615e-02f,1.57401368e-01f,2.27003872e-01f,2.03880638e-01f,1.62551314e-01f,7.49689192e-02f,1.09674022e-01f,-1.75938830e-02f,1.28578802e-04f,-3.69576514e-02f,1.51658103e-01f,1.42041862e-01f,9.11649466e-02f,1.95646048e-01f,2.75266618e-01f,4.47008200e-02f,-3.30767959e-01f,-1.40626803e-01f,1.21494076e-38f,-2.20572546e-01f,5.44968955e-02f,4.25693998e-03f,1.12561427e-01f,-1.24384008e-01f,1.27632767e-01f,1.41037941e-01f,7.18936622e-02f,6.00336380e-02f,3.33275236e-02f,5.00085577e-02f,-8.98212418e-02f,-3.03110555e-02f,8.07037279e-02f,1.24330841e-01f,1.27610549e-01f,1.29536957e-01f,-5.75005040e-02f,-7.07200319e-02f,8.38014334e-02f,1.93627134e-01f,9.00520459e-02f,1.20297372e-01f,9.25329700e-02f,2.59988189e-01f,-3.48069742e-02f,-3.40381041e-02f,1.61458828e-38f,8.94583687e-02f,7.69316554e-02f,-6.14981875e-02f,6.49437159e-02f,-4.69196998e-02f,-1.75867928e-04f,2.01110870e-01f,1.96595088e-01f,2.36254614e-02f,2.22473778e-02f,-3.27514112e-02f,-2.05150377e-02f,4.49209921e-02f,8.34156424e-02f,1.47962630e-01f,1.43223450e-01f,1.15359314e-01f,1.98059738e-01f,6.21546730e-02f,8.61931965e-02f,7.51722232e-02f,2.06306875e-01f,-6.67163208e-02f,-1.26486257e-01f,-9.33176056e-02f,-4.42169271e-02f,1.31364772e-02f,-1.44096818e-02f,-6.36395719e-03f,7.77312517e-02f,-2.50276681e-02f,6.16078116e-02f,-4.54746420e-03f,6.12425618e-02f,1.91702023e-01f,1.45277768e-01f,2.26467803e-01f,1.25365660e-01f,6.30499795e-02f,1.09603247e-02f,2.28961661e-01f,2.56287903e-01f,3.12450230e-01f,9.41310897e-02f,1.88910425e-01f,1.69631019e-01f,4.95060235e-02f,9.82686877e-02f,2.20708638e-01f,1.64443374e-01f,1.38907284e-01f,-2.06653610e-01f,1.74185798e-01f,1.01537451e-01f,3.54943808e-09f,-1.41589204e-02f,1.58609055e-05f,8.10534507e-02f,8.68149474e-02f,2.53178552e-02f,-6.90378845e-02f,3.80227976e-02f,4.00441252e-02f,-4.25309092e-02f,-3.03209685e-02f,2.14131642e-02f,1.19091190e-01f,8.64165351e-02f,2.18313590e-01f,8.62553045e-02f,1.57441482e-01f,1.02672018e-01f,1.25494435e-01f,4.57674973e-02f,1.33458197e-01f,4.08003926e-02f,1.95431679e-01f,-4.75600548e-02f,5.33167878e-03f,-1.87950045e-01f,-3.86759639e-02f,2.27103606e-01f,-2.20588667e-08f,-5.22989530e-39f,-1.17270955e-38f,7.77057558e-02f,-3.65863740e-02f,3.20124894e-01f,7.34717548e-02f,2.80800648e-02f,-9.29462016e-02f,8.28570426e-02f,5.64221479e-02f,-2.35514548e-02f,3.94292083e-03f,5.12554124e-02f,1.03502780e-01f,1.15113087e-01f,4.37759981e-02f,1.88693658e-01f,2.28266083e-02f,7.74769932e-02f,1.71903014e-01f,-6.27965778e-02f,-2.05873530e-02f,-9.75248963e-02f,2.05899845e-03f,-3.64161253e-01f,2.04165861e-01f,1.23467147e-02f,-9.02525614e-39f,2.47301013e-39f,-1.46689142e-38f,2.33041178e-02f,-3.03044766e-01f,-4.88155812e-01f,-4.24959987e-01f,-2.05638573e-01f,-2.17276171e-01f,-9.02533084e-02f,-6.42806739e-02f,-1.15239657e-01f,-5.74909570e-03f,1.20787211e-01f,1.75437510e-01f,2.05073550e-01f,8.62854719e-02f,1.18986197e-01f,-3.57435197e-02f,1.10231809e-01f,2.06332028e-01f,-2.45871171e-02f,-5.87653741e-02f,-2.19333872e-01f,-1.12687245e-01f,1.95183586e-02f,1.49309590e-01f,-2.83296704e-02f,-9.25197782e-39f,4.25778092e-39f,1.09376054e-38f,2.30737892e-03f,2.08488163e-02f,2.39384677e-02f,-3.08704972e-01f,-4.23622206e-02f,-1.40675813e-01f,-1.68135956e-01f,-6.12653345e-02f,1.67168805e-03f,3.44728795e-03f,-1.25765249e-01f,-1.44484416e-01f,-1.13702752e-01f,1.45112246e-01f,1.07456654e-01f,1.46348923e-01f,1.84145093e-01f,-4.08512540e-02f,-8.15706924e-02f,-1.34345740e-01f,-1.82828456e-02f,2.59361137e-03f,2.10588977e-01f,1.44270072e-02f,1.46410540e-02f,2.24931245e-39f,3.71390196e-39f,-4.25162502e-39f,-1.10731628e-38f,-3.34163718e-02f,-5.49590625e-02f,1.27144903e-01f,3.10096331e-02f,-3.80238771e-01f,-2.17235565e-01f,-3.72695148e-01f,-2.93009609e-01f,-1.14823552e-02f,-5.68010993e-02f,-1.77548259e-01f,-4.14508730e-01f,-3.16811860e-01f,-3.21024626e-01f,-3.22295517e-01f,-1.91177249e-01f,-1.94804817e-01f,-2.68556535e-01f,-5.29977679e-01f,-4.16826934e-01f,-4.54827040e-01f,-2.03725800e-01f,6.34575144e-06f,1.34819850e-38f,1.48166882e-38f,5.70345291e-40f,-1.33132673e-38f,4.05440347e-39f,-1.50958787e-38f,1.11108143e-02f,5.02202436e-02f,-7.53350481e-02f,-1.38532341e-01f,-2.72886902e-01f,-5.27666397e-02f,-3.22330058e-01f,-8.73683617e-02f,-7.34561011e-02f,-1.01506479e-01f,-4.24995184e-01f,-3.17290306e-01f,-1.85646504e-01f,-6.65654615e-02f,-2.84427822e-01f,-2.63343990e-01f,-4.28841040e-02f,-1.97039783e-01f,-2.46859834e-01f,2.14291457e-02f,9.77704856e-39f,-1.52538316e-38f,-1.38221054e-38f,-5.19687090e-39f},
  {8.21758554e-39f,1.38534412e-38f,-1.14999450e-38f,-1.26116862e-40f,-1.21313491e-38f,-6.82015326e-39f,1.42365324e-38f,4.20337691e-39f,2.81410719e-39f,1.44885251e-38f,-1.71358904e-39f,1.14803745e-38f,2.92881392e-02f,1.96455624e-02f,-5.43668792e-02f,-1.98477088e-03f,-1.64565507e-38f,1.76390967e-39f,-8.13935805e-39f,6.88834324e-39f,5.16515811e-39f,3.44307721e-39f,4.48562365e-39f,4.31971411e-39f,-5.41915747e-39f,-3.42924359e-40f,-1.07354751e-38f,-1.01253721e-38f,1.12223128e-38f,-6.15728443e-39f,1.30254476e-39f,9.73159324e-39f,7.36032018e-41f,1.22251379e-06f,9.04163569e-02f,1.21360108e-01f,1.54296517e-01f,1.55524120e-01f,1.72166541e-01f,3.37171443e-02f,1.41691312e-01f,2.21548870e-01f,6.76857382e-02f,1.05825387e-01f,-1.31850347e-01f,1.32663503e-01f,2.56910026e-01f,2.50938743e-01f,1.89266682e-01f,2.66520560e-01f,2.59837300e-01f,2.40383357e-01f,1.12217789e-38f,-5.33913632e-39f,1.74184762e-39f,1.10856469e-38f,5.83092622e-39f,-1.31917257e-38f,-9.75845193e-39f,-8.41567367e-02f,-3.24837305e-03f,1.69096258e-03f,9.46827382e-02f,1.50795326e-01f,1.06754690e-01f,-7.16586262e-02f,1.10632516e-01f,1.10783756e-01f,1.06527962e-01f,1.02981076e-01f,1.31658822e-01f,1.56735759e-02f,2.39442731e-03f,-1.20608538e-01f,-8.34972970e-03f,6.01472668e-02f,3.06958109e-01f,4.24993843e-01f,4.29516256e-01f,2.65390933e-01f,-1.01986535e-01f,-9.29905549e-02f,8.11813258e-39f,5.51796443e-39f,-1.69207869e-38f,9.22790632e-39f,-4.04844666e-03f,3.63589032e-03f,7.44407102e-02f,4.55555022e-02f,2.00825453e-01f,5.59766963e-02f,5.59945405e-02f,-4.68299426e-02f,8.74995142e-02f,1.15485869e-01f,7.58213224e-03f,-1.23222768e-02f,-3.89722101e-02f,-2.17376351e-01f,-1.15873046e-01f,-6.09149691e-03f,1.42209917e-01f,1.91631407e-01f,1.45395547e-01f,2.67977536e-01f,4.59455252e-01f,3.53242010e-01f,-1.25659304e-02f,-3.86434444e-03f,1.64465189e-01f,-1.45306972e-38f,-1.39000036e-38f,2.08035444e-17f,-4.31536511e-02f,2.95270503e-01f,4.97414358e-02f,-3.25648814e-01f,-2.85966992e-01f,-7.74760321e-02f,-1.40369281e-01f,8.58882442e-02f,-1.84450131e-02f,1.92409322e-01f,1.80636376e-01f,-1.30416542e-01f,-1.16212778e-01f,-8.27466771e-02f,5.72417267e-02f,3.99105474e-02f,-1.84636042e-02f,6.80062324e-02f,8.23643729e-02f,2.78939515e-01f,2.59049565e-01f,3.88618946e-01f,2.76995987e-01f,1.96991488e-01f,1.90616280e-01f,1.33919016e-01f,-1.31584728e-38f,-8.25510110e-39f,9.39887613e-02f,1.63702276e-02f,-3.19172233e-01f,-4.40413207e-01f,-3.79203051e-01f,-9.75296721e-02f,-7.43136406e-02f,1.49239153e-01f,4.46455143e-02f,1.96087241e-01f,1.45814747e-01f,-1.47384390e-01f,-1.01905309e-01f,-2.26690665e-01f,-1.53957054e-01f,-3.58979255e-02f,2.11007334e-02f,-2.67489478e-02f,-1.11938445e-02f,1.18144356e-01f,-1.11896107e-02f,1.48237292e-02f,2.01753274e-01f,3.98952007e-01f,3.13496977e-01f,3.02962899e-01f,-7.03669030e-40f,-1.83049431e-12f,1.76099882e-01f,-9.31260884e-02f,-1.22134276e-01f,-4.64581065e-02f,-2.15332791e-01f,-1.17293730e-01f,5.97809292e-02f,7.53177628e-02f,-2.08141468e-02f,1.36417240e-01f,1.53221756e-01f,-3.30977212e-03f,-6.43771663e-02f,-5.23931533e-02f,-1.87752485e-01f,-8.93817469e-02f,-7.56703690e-02f,1.04955658e-01f,9.34160352e-02f,-3.21839675e-02f,-3.26080015e-03f,4.77279723e-03f,3.34319741e-01f,1.38967782e-01f,2.46507034e-01f,2.18397245e-01f,2.11601673e-40f,3.17516662e-02f,2.87514329e-02f,2.00162664e-01f,4.26309966e-02f,1.85788125e-02f,-1.62735417e-01f,-1.85778499e-01f,-1.08892918e-01f,1.52246937e-01f,2.80111998e-01f,2.04543054e-01f,5.21257818e-02f,2.01553851e-02f,-8.28240290e-02f,1.35828003e-01f,3.24073993e-02f,-7.56858438e-02f,2.84503177e-02f,1.06354535e-01f,2.17776716e-01f,2.80229360e-01f,1.28616020e-01f,-2.71604478e-01f,-2.19459206e-01f,-1.51998317e-02f,7.78222457e-02f,2.51478463e-01f,-1.36520145e-02f,6.78155059e-03f,3.13647985e-02f,1.63168654e-01f,7.79680610e-02f,9.70515534e-02f,-1.09518886e-01f,4.14995924e-02f,1.74836993e-01f,1.84907138e-01f,7.54920989e-02f,1.53309539e-01f,-1.08428687e-01f,-2.29524389e-01f,-8.13415498e-02f,5.39505184e-02f,-4.03181240e-02f,-3.31743024e-02f,-7.55885616e-02f,-3.87409359e-01f,-1.24667980e-01f,6.20413423e-02f,-1.81053564e-01f,-3.95442367e-01f,-2.95591712e-01f,5.30670816e-03f,-1.09476984e-01f,4.97277267e-02f,1.81387120e-04f,1.07330911e-01f,-3.35172750e-02f,-2.03210741e-01f,1.49296284e-01f,-1.07696898e-01f,-1.49031624e-01f,2.58249659e-02f,2.22654998e-01f,1.64107382e-01f,-5.86339384e-02f,2.34104823e-02f,-2.22436592e-01f,-4.50039357e-01f,-2.26608247e-01f,-2.86326498e-01f,-1.51936054e-01f,-2.61695027e-01f,-3.49703610e-01f,-4.61307794e-01f,-2.95080155e-01f,-2.65519023e-01f,-4.83642459e-01f,-3.81122291e-01f,-4.82643731e-02f,8.50948468e-02f,3.32237542e-01f,9.98414382e-02f,5.43322705e-04f,9.81018767e-02f,-1.16112590e-01f,-1.59194708e-01f,1.99991718e-01f,-4.54090312e-02f,-8.81482065e-02f,1.48295715e-01f,2.46360987e-01f,2.89063811e-01f,2.71947354e-01f,7.69471526e-02f,-1.31467298e-01f,-4.56007123e-01f,-3.42307597e-01f,-2.49994904e-01f,-1.45713210e-01f,-3.57214242e-01f,-2.41263568e-01f,-3.06390554e-01f,-1.91117719e-01f,-2.81209618e-01f,-3.43269169e-01f,-3.01451713e-01f,3.32625151e-01f,3.65644723e-01f,3.14525694e-01f,-1.49190575e-01f,3.68027505e-03f,-1.20003089e-01f,2.68136740e-01f,-8.31301585e-02f,1.56691670e-01f,-2.28542164e-01f,-1.95918474e-02f,1.89516529e-01f,3.41311306e-01f,4.03238207e-01f,4.16905612e-01f,2.67100036e-01f,1.21292748e-01f,-3.25253904e-02f,1.08616635e-01f,1.95471346e-01f,1.14297360e-01f,-7.71598145e-02f,1.12811662e-01f,2.97898659e-03f,-1.49280608e-01f,-9.26488191e-02f,-2.33492553e-02f,1.21062174e-01f,2.98982769e-01f,2.81688243e-01f,2.90058970e-01f,7.63913325e-04f,1.90286171e-02f,-1.12245930e-02f,1.92848310e-01f,2.09294051e-01f,1.38620973e-01f,-2.60323912e-01f,1.62950620e-01f,3.48482370e-01f,3.59870464e-01f,3.60741377e-01f,2.73730665e-01f,2.25602612e-01f,-6.58642203e-02f,-1.36114612e-01f,1.31630689e-01f,2.05414057e-01f,5.45270219e-02f,-2.74738390e-02f,2.43416443e-01f,1.46874875e-01f,1.48921043e-01f,1.25889629e-01f,7.07490817e-02f,3.47632289e-01f,1.58381864e-01f,6.04139492e-02f,2.41238415e-01f,-6.11927249e-02f,-3.63794249e-03f,-2.41190679e-02f,7.77897611e-02f,2.90748347e-02f,1.08397022e-01f,-1.03167064e-01f,3.96248139e-02f,3.20969015e-01f,1.77115560e-01f,2.21899211e-01f,3.35810304e-01f,2.16355011e-01f,-8.49822313e-02f,-1.78910643e-01f,2.42735874e-02f,-2.86480114e-02f,3.75399403e-02f,-8.77995268e-02f,2.76820082e-02f,1.33138150e-01f,8.08408633e-02f,1.72002539e-01f,1.17814310e-01f,-6.23876341e-02f,-1.44647751e-02f,-7.08189607e-02f,-2.80304819e-01f,-1.83595121e-01f,1.31691739e-01f,4.67237784e-03f,3.55059393e-02f,-1.65057659e-01f,1.35423973e-01f,-1.41578645e-01f,7.22887069e-02f,1.97391465e-01f,3.59441221e-01f,2.15771452e-01f,2.51308560e-01f,1.58186451e-01f,-1.58805773e-01f,-1.03988498e-01f,4.45221439e-02f,-1.34670287e-01f,4.77528200e-02f,1.19395055e-01f,4.56907041e-02f,8.28545913e-02f,2.34803081e-01f,2.08701015e-01f,1.14068005e-03f,3.37914526e-02f,-9.56199467e-02f,-2.14851975e-01f,-3.26278150e-01f,-8.47215205e-02f,6.74722642e-02f,-8.23666702e-39f,-7.78921545e-02f,-3.00227016e-01f,-1.40304118e-01f,-3.55735093e-01f,-8.07290301e-02f,1.70020089e-01f,1.79436654e-01f,2.95233548e-01f,3.86492610e-01f,3.28288943e-01f,1.39115095e-01f,-4.36632112e-02f,-3.87051590e-02f,-1.41490355e-01f,1.15942262e-01f,1.83367789e-01f,8.37840810e-02f,2.75516231e-02f,8.27707052e-02f,3.61349024e-02f,-5.33869676e-02f,-1.13594487e-01f,-1.75190374e-01f,-2.04411566e-01f,-2.57245362e-01f,-3.74314666e-01f,-2.35652579e-39f,-6.02405771e-06f,-1.81458786e-01f,-3.92566234e-01f,-2.92072058e-01f,-2.02598989e-01f,-2.63579309e-01f,-2.70414501e-01f,2.40767688e-01f,1.30216449e-01f,3.30722958e-01f,2.65104771e-01f,2.13028550e-01f,-4.15555714e-03f,-8.85982960e-02f,-2.34309599e-01f,-9.04959068e-02f,1.70624956e-01f,-8.22488740e-02f,4.45559900e-03f,-1.16789881e-02f,-3.93878743e-02f,1.48984436e-02f,-1.04261577e-01f,-7.69620538e-02f,4.94606011e-02f,-2.96398968e-01f,-3.38571131e-01f,1.42244098e-38f,-1.16912052e-02f,-1.51852936e-01f,-1.62833288e-01f,-2.79137492e-01f,-8.06901306e-02f,-2.90200114e-01f,-1.67715490e-01f,-1.03087813e-01f,-2.53990002e-04f,2.17693463e-01f,1.85338795e-01f,1.50430501e-01f,-4.10654321e-02f,8.52049366e-02f,-2.84435246e-02f,-9.41613019e-02f,5.94641007e-02f,3.91527563e-02f,4.27137800e-02f,2.05048658e-02f,-6.85394229e-03f,-4.34865206e-02f,-1.64904818e-02f,2.44287997e-02f,-5.77067435e-02f,-2.21230894e-01f,-5.36891937e-01f,-1.86015526e-03f,-8.62103887e-04f,-8.96275789e-02f,1.50558978e-01f,-9.13753882e-02f,8.16421956e-02f,-1.92058370e-01f,-1.28985450e-01f,-2.69447953e-01f,-7.93268532e-02f,2.05569446e-01f,1.27891883e-01f,2.27598071e-01f,2.06087798e-01f,2.22201303e-01f,-1.44099280e-01f,-1.42640537e-02f,-1.21114671e-01f,-5.28853051e-02f,1.31245270e-01f,1.63471133e-01f,6.51520789e-02f,-9.69963297e-02f,-8.06439817e-02f,-1.44884378e-01f,-2.57110327e-01f,8.27250630e-03f,-2.30880335e-01f,1.67801918e-38f,1.27483964e-01f,8.12223852e-02f,1.58622891e-01f,-1.70632098e-02f,-1.20190457e-01f,-3.14383879e-02f,-7.44991601e-02f,-6.17386214e-02f,-2.73885317e-02f,-1.26412421e-01f,3.71339582e-02f,1.13415949e-01f,2.76119336e-02f,2.35055819e-01f,8.30169022e-02f,-1.47151351e-01f,-2.46615574e-01f,-8.39898959e-02f,1.25841811e-01f,3.83867882e-02f,-1.08776443e-01f,-1.10641956e-01f,-1.52816385e-01f,-9.98144597e-02f,-1.03792220e-01f,-3.61334205e-01f,-2.03576162e-02f,-8.89053250e-39f,2.76527822e-01f,-2.90889503e-03f,4.08637486e-02f,1.45551965e-01f,-2.35415958e-02f,-4.97700982e-02f,-7.00940490e-02f,-2.12007895e-01f,-4.93203895e-03f,-8.77882093e-02f,-1.92235097e-01f,1.35380179e-01f,8.94414559e-02f,1.76688001e-01f,1.41497692e-02f,-1.22951232e-01f,-2.76670963e-01f,-8.22663456e-02f,6.70983940e-02f,7.18511865e-02f,-6.15117140e-02f,2.40298864e-02f,3.52829993e-02f,-7.32249320e-02f,1.00183830e-01f,-3.13982517e-01f,-5.14885294e-04f,-2.51849458e-19f,-7.30267726e-03f,-5.66789471e-02f,1.29501745e-01f,1.55836374e-01f,1.02958791e-01f,-2.08557770e-01f,-1.38100103e-01f,-5.07900640e-02f,-1.06902113e-02f,-3.91065888e-02f,-4.73565012e-02f,1.12875484e-01f,-1.90967117e-02f,1.71346724e-01f,6.60556480e-02f,-1.16179213e-01f,-9.34167653e-02f,4.42541763e-02f,1.36924423e-02f,1.60454020e-01f,6.05892502e-02f,2.23734397e-02f,-6.90509081e-02f,2.29241028e-02f,7.87077621e-02f,-8.12964886e-02f,4.20638163e-10f,2.68309473e-20f,1.11625650e-06f,-5.91448098e-02f,-2.64557511e-01f,9.59919095e-02f,-3.38941701e-02f,-2.18037337e-01f,-8.97346959e-02f,5.74239483e-03f,-4.53760661e-02f,-3.73098217e-02f,3.45625579e-02f,9.46531147e-02f,-6.19751289e-02f,1.08443229e-02f,-8.91862437e-02f,9.93197262e-02f,-3.93247185e-03f,2.37402860e-02f,4.41831201e-02f,1.03512732e-02f,-1.61529660e-01f,5.43172099e-03f,1.18105084e-01f,-1.03047110e-01f,1.79565083e-02f,2.20895469e-01f,-1.03503588e-07f,-1.53947280e-38f,8.28610483e-39f,-2.69659348e-02f,3.53851505e-02f,1.44444928e-01f,1.33150056e-01f,-1.34608433e-01f,-2.40836337e-01f,-1.34086072e-01f,-1.45544037e-01f,-2.03751735e-02f,-9.34883282e-02f,1.71567500e-02f,7.33916163e-02f,6.14586473e-02f,-5.73646054e-02f,5.22241443e-02f,-1.14910275e-01f,7.43425339e-02f,1.61704138e-01f,1.03822134e-01f,4.05277014e-02f,-1.57053806e-02f,1.51761845e-01f,-8.78143404e-03f,5.66397309e-02f,9.22971889e-02f,-1.15933318e-38f,-1.71330654e-38f,-1.00780965e-38f,-7.08672479e-02f,-1.05639063e-01f,-2.20798343e-01f,8.51237401e-02f,-2.25305244e-01f,-3.16200644e-01f,-2.94806302e-01f,-5.25187068e-02f,-4.64833491e-02f,5.62204339e-04f,6.02417402e-02f,-1.86179336e-02f,5.89731000e-02f,-8.95759091e-03f,-5.49580492e-02f,-1.62006259e-01f,-5.71009591e-02f,7.50912949e-02f,2.16932297e-01f,-1.92031279e-01f,-6.86201379e-02f,-3.72293331e-02f,-1.27335181e-02f,-1.77244186e-01f,-6.01586513e-02f,1.98590757e-39f,-1.48357458e-38f,1.43140284e-38f,-4.22992132e-04f,6.66786209e-02f,6.81113154e-02f,-1.23267315e-01f,-1.74388126e-01f,-3.91848117e-01f,-1.64792836e-01f,3.34395021e-01f,1.22245863e-01f,2.50758052e-01f,1.08017094e-01f,9.97180492e-02f,1.11791745e-01f,6.41191825e-02f,-1.61126375e-01f,-1.79811548e-02f,1.75830409e-01f,1.43734440e-01f,1.30237579e-01f,4.52532619e-01f,5.54449201e-01f,5.37950575e-01f,4.66434866e-01f,-2.58870944e-02f,-2.81482302e-02f,1.13792708e-38f,3.11237918e-39f,-3.34167645e-40f,1.10804831e-38f,1.86243240e-04f,1.26750581e-02f,-2.68333048e-01f,-2.17627048e-01f,-1.66798040e-01f,1.48421273e-01f,4.08067256e-01f,-1.39155164e-02f,3.69819582e-01f,3.41126531e-01f,4.93783385e-01f,2.56290913e-01f,-1.15940750e-01f,1.07150733e-01f,3.21907550e-01f,2.19058678e-01f,1.56585857e-01f,3.62890065e-01f,2.37433031e-01f,2.53359407e-01f,-1.30668581e-01f,-2.13933691e-01f,-1.12875979e-38f,6.00555043e-39f,7.20500447e-39f,-4.21589471e-39f,-1.13975451e-39f,8.60485819e-39f,-1.28908585e-38f,5.78113390e-11f,-8.55748542e-03f,2.78311409e-02f,6.45458773e-02f,2.82654800e-02f,2.72130277e-02f,4.45445955e-01f,2.25432336e-01f,1.29966766e-01f,9.45978686e-02f,4.27359082e-02f,7.41179064e-02f,2.25817859e-01f,1.36015648e-02f,1.34592742e-01f,1.49601057e-01f,-1.49846494e-01f,-1.47966608e-01f,-1.09219842e-01f,-3.65782226e-03f,8.79149153e-39f,-1.59591584e-38f,-1.02859441e-38f,-1.00587110e-38f},
  {8.59452922e-39f,5.56496398e-39f,3.69061378e-39f,8.08913692e-39f,-9.02382681e-39f,1.53477607e-38f,-3.28039907e-39f,1.40615186e-38f,-1.28176911e-38f,-5.74905536e-39f,-1.18317655e-38f,-7.77020699e-39f,1.02880532e-02f,5.22166416e-02f,6.79210424e-02f,1.18197768e-03f,2.93680489e-39f,-1.41223924e-38f,-4.97968365e-39f,1.98832201e-39f,-1.17493733e-38f,-1.12239201e-38f,3.77452353e-39f,9.63156575e-39f,2.72994661e-39f,-2.25587193e-39f,1.59868845e-38f,4.95808544e-39f,-4.08532592e-39f,-5.57048369e-40f,1.19033186e-38f,1.31030094e-39f,6.72459591e-39f,2.09863586e-07f,1.36769593e-01f,1.36655316e-01f,1.16590574e-01f,4.43645976e-02f,7.82836974e-02f,2.93989062e-01f,2.35034227e-01f,2.16358274e-01f,-1.31723881e-01f,1.97771907e-01f,3.79212379e-01f,3.69070858e-01f,1.05102859e-01f,3.38821739e-01f,2.98252165e-01f,9.17037725e-02f,9.85790864e-02f,2.63229251e-01f,-6.87436529e-39f,1.21741461e-38f,-2.86445865e-39f,-8.66729725e-39f,5.61227322e-39f,-7.38163814e-39f,-8.34866440e-39f,2.56800771e-01f,2.15874702e-01f,8.70495662e-03f,1.98529735e-01f,4.68743861e-01f,4.90625918e-01f,2.87730604e-01f,2.94125170e-01f,4.54908371e-01f,1.90980077e-01f,-1.85753122e-01f,-7.85668865e-02f,-8.25988650e-02f,1.31991103e-01f,2.83780009e-01f,2.85541862e-01f,-1.06031500e-01f,6.08843975e-02f,4.46803957e-01f,3.08962315e-01f,4.30538058e-01f,1.67810827e-01f,7.53696859e-02f,1.12509231e-38f,9.73035029e-39f,-3.31665206e-39f,7.22344836e-39f,-2.54625916e-01f,2.98676997e-01f,2.63224036e-01f,-1.92009345e-01f,-5.25915471e-04f,-1.62301227e-01f,-1.01223066e-01f,5.23473993e-02f,4.02757637e-02f,3.04833800e-01f,1.35459080e-01f,2.66182929e-01f,1.24957666e-01f,-6.17702529e-02f,2.92188615e-01f,3.51429284e-01f,3.96448560e-02f,-7.98095837e-02f,-1.57399208e-03f,7.53366947e-02f,1.44525170e-01f,2.06740841e-01f,4.00301129e-01f,2.72409976e-01f,2.52938718e-01f,-1.24004264e-39f,1.11304016e-38f,5.98475822e-07f,-4.16295737e-01f,-2.99283475e-01f,-9.83697772e-02f,-2.21065134e-02f,-3.15930657e-02f,-3.16497758e-02f,-2.14469898e-02f,5.31831607e-02f,-7.20731094e-02f,1.69214699e-02f,-1.10444702e-01f,-1.77515417e-01f,5.81344869e-03f,8.28008950e-02f,4.23061848e-02f,1.71043873e-01f,1.59075737e-01f,1.32404000e-01f,-1.14219129e-01f,-3.32613170e-01f,-1.28403068e-01f,-1.29012778e-01f,-1.99354619e-01f,-1.12431116e-01f,2.02234939e-01f,1.92673355e-01f,-6.56356990e-40f,6.56775558e-39f,-8.44470039e-02f,-1.98937468e-02f,-1.32854015e-01f,-2.37782180e-01f,-1.27152532e-01f,-1.76134780e-01f,1.93606305e-03f,-7.99104199e-02f,-1.87128019e-02f,1.91603526e-02f,-7.88677037e-02f,3.00310571e-02f,3.55837308e-02f,1.28435612e-01f,1.84286043e-01f,5.96374460e-02f,1.77742600e-01f,6.48643970e-02f,7.09831715e-02f,-4.84635495e-02f,-1.42119780e-01f,-3.36822897e-01f,-1.80946030e-02f,1.05766699e-01f,1.66316822e-01f,1.71292201e-01f,1.76957932e-39f,-1.97768887e-03f,-1.00924872e-01f,-1.20026864e-01f,-2.36548260e-01f,5.39737083e-02f,2.47980803e-02f,1.27414063e-01f,-9.85072851e-02f,-3.14779510e-03f,1.53169602e-01f,1.53621346e-01f,1.07981779e-01f,3.23326945e-01f,4.22900587e-01f,1.43533036e-01f,2.43949890e-01f,2.47934163e-01f,3.22035730e-01f,9.43749249e-02f,1.01951204e-01f,1.56317770e-01f,1.04585767e-01f,-2.71337748e-01f,-2.64377385e-01f,-4.55809742e-01f,-1.91927813e-02f,-2.84126457e-02f,5.97124104e-39f,1.08471282e-01f,2.49750823e-01f,-3.17164510e-02f,-1.97493464e-01f,-1.32344857e-01f,8.46850872e-02f,5.50448820e-02f,1.09819487e-01f,1.05427995e-01f,1.50404304e-01f,2.50088394e-01f,1.34353012e-01f,2.67730474e-01f,1.90194145e-01f,2.83655465e-01f,2.65681565e-01f,2.41565719e-01f,1.52221486e-01f,7.29227364e-02f,4.72703427e-02f,1.53112253e-02f,1.47236809e-01f,-1.11452334e-01f,-1.21081762e-01f,-3.60102355e-01f,-5.38160622e-01f,1.62193954e-01f,2.82048017e-01f,2.64868855e-01f,2.27987976e-03f,-3.75976600e-02f,-1.55850276e-01f,-3.65893990e-02f,2.40391567e-02f,2.96556801e-02f,1.62551746e-01f,1.98439091e-01f,1.90318823e-01f,2.48488158e-01f,5.91407008e-02f,-9.60538350e-03f,1.56842649e-01f,2.62241483e-01f,3.42077672e-01f,1.84992567e-01f,7.77802989e-03f,2.12350249e-01f,7.81282037e-02f,5.74575551e-02f,1.11282043e-01f,1.14766747e-01f,-2.09761765e-02f,-3.39075506e-01f,-2.51552522e-01f,2.17181638e-01f,2.25041830e-03f,4.93401550e-02f,1.62327047e-02f,2.08030850e-01f,-1.34527283e-02f,5.23384139e-02f,1.21390214e-02f,5.07736206e-02f,-1.39302239e-01f,-3.30831595e-02f,2.05852211e-01f,8.78124386e-02f,1.13033682e-01f,-8.01655948e-02f,2.13845134e-01f,2.70382524e-01f,2.55420655e-01f,5.76521456e-02f,1.10640116e-01f,1.47947460e-01f,7.97917098e-02f,-6.46441728e-02f,4.54889275e-02f,6.41985685e-02f,2.78397202e-01f,-1.39757946e-01f,-2.92951792e-01f,3.28009605e-01f,5.53210173e-03f,2.52417270e-02f,1.26029789e-01f,3.33229184e-01f,-1.29831329e-01f,9.31969956e-02f,2.00628832e-01f,3.08158360e-02f,3.40442662e-03f,3.44484188e-02f,-8.95931479e-03f,4.37142290e-02f,-9.61906388e-02f,5.57943322e-02f,1.86367035e-01f,1.44166201e-01f,1.94630995e-01f,1.48871005e-01f,4.80396897e-02f,-6.46018386e-02f,4.48462367e-02f,3.97805646e-02f,-2.17604544e-02f,2.29671299e-01f,2.11749852e-01f,2.74579152e-02f,2.13287659e-02f,-1.86501950e-01f,1.37384981e-02f,3.65260810e-01f,3.05823591e-02f,-1.91791907e-01f,-1.75017893e-01f,-6.64207935e-02f,1.34822562e-01f,-2.57219281e-03f,-3.80928144e-02f,-3.92750949e-02f,-1.09306343e-01f,5.70950769e-02f,-1.46432370e-01f,5.04997522e-02f,4.29712459e-02f,-2.03335971e-01f,7.36662233e-03f,-7.56827444e-02f,-8.03014934e-02f,1.75008383e-02f,8.12449455e-02f,1.45203382e-01f,2.04279646e-02f,2.82545555e-02f,2.57317126e-01f,1.72944024e-01f,-1.91174313e-01f,-1.75476551e-01f,-3.78903770e-03f,7.11646900e-02f,4.99835908e-02f,-3.93056452e-01f,-1.11559689e-01f,-1.87446862e-01f,-5.05808778e-02f,-1.52298182e-01f,2.15724465e-02f,-7.98120126e-02f,-8.18490312e-02f,-2.01973971e-02f,-1.37416676e-01f,1.86852366e-03f,3.05018369e-02f,-2.69064516e-01f,-2.25502685e-01f,-5.70987277e-02f,-1.33728966e-01f,5.09259216e-02f,-2.17486778e-03f,-1.40517130e-01f,-4.94682565e-02f,4.59475443e-02f,3.84577760e-03f,1.60345107e-01f,-8.94279182e-02f,-1.34968221e-01f,-7.49436719e-03f,1.12560969e-02f,-7.90414959e-02f,-1.62598088e-01f,-5.39110638e-02f,-2.39988685e-01f,6.93115443e-02f,5.48149757e-02f,3.11833825e-02f,-4.46434431e-02f,6.68579489e-02f,-1.92879105e-03f,1.08851958e-02f,2.72221584e-02f,-9.60892066e-03f,-3.28413427e-01f,-2.16532469e-01f,-2.34234646e-01f,6.52979454e-03f,1.51236221e-01f,-1.56892732e-01f,5.19284196e-02f,3.85899469e-02f,2.39727154e-01f,2.03032583e-01f,1.75259873e-01f,9.74077210e-02f,1.62808314e-01f,3.38399783e-02f,-7.87754506e-02f,-5.37839457e-02f,-1.23835459e-01f,-5.84639162e-02f,-1.35878682e-01f,1.18364573e-01f,1.21168524e-01f,-2.15342455e-02f,1.09046258e-01f,2.31312037e-01f,4.31585945e-02f,7.49671981e-02f,4.50335927e-02f,-1.11697540e-01f,-2.16622546e-01f,-4.17084426e-01f,-1.48705125e-01f,2.50651576e-02f,2.51808763e-02f,7.75198638e-02f,1.98455960e-01f,1.40531018e-01f,2.42223755e-01f,3.54135901e-01f,2.14232102e-01f,3.32634300e-01f,3.36220674e-02f,4.53772210e-03f,-1.80406183e-01f,-4.02579963e-01f,-1.75359964e-01f,2.85090785e-03f,2.21698254e-01f,1.39932230e-01f,1.94479374e-03f,1.30088210e-01f,1.94170296e-01f,1.52483940e-01f,1.49410069e-01f,1.03011958e-01f,-3.37659121e-02f,-2.27926657e-01f,-2.97091216e-01f,-2.67594695e-01f,-2.01251581e-01f,-1.47058889e-02f,-7.89858550e-02f,6.56863973e-02f,1.88942060e-01f,5.57085648e-02f,2.50270545e-01f,4.65218365e-01f,1.90823525e-01f,1.83636740e-01f,1.87753692e-01f,-3.26096866e-39f,-1.22206882e-01f,-1.79735154e-01f,-7.96946988e-04f,-1.38984825e-02f,5.72104603e-02f,2.36091316e-02f,1.54613838e-01f,3.97909023e-02f,2.60949343e-01f,2.47671053e-01f,8.96122754e-02f,2.19430681e-02f,-7.74914622e-02f,-1.89596429e-01f,-2.35901296e-01f,-2.32567206e-01f,-5.11751212e-02f,3.42511497e-02f,-1.06612451e-01f,3.48695777e-02f,7.52063319e-02f,8.92070606e-02f,1.54719904e-01f,1.88970864e-01f,7.12427646e-02f,1.82972088e-01f,4.41318601e-01f,-1.07115829e-38f,-1.22958407e-01f,-1.85686067e-01f,5.98836690e-02f,1.95254218e-02f,4.41178167e-03f,3.55602950e-02f,-7.56367519e-02f,3.60507332e-02f,2.24218056e-01f,2.85291016e-01f,-3.17959003e-02f,-2.58063767e-02f,-1.41745448e-01f,-1.54931888e-01f,-1.46642804e-01f,-1.03105210e-01f,2.30115503e-02f,-4.47738245e-02f,-5.29751647e-03f,-6.43653050e-02f,2.39685643e-02f,1.06935315e-01f,7.14566484e-02f,5.21417111e-02f,2.51739442e-01f,7.14769587e-02f,4.25668001e-01f,2.50103951e-01f,-9.75411502e-04f,-1.83224872e-01f,-8.09859335e-02f,7.23214000e-02f,-3.80023383e-02f,-4.83475626e-02f,-5.26402779e-02f,4.22294019e-04f,1.00283086e-01f,1.48057729e-01f,3.64356712e-02f,-6.45292327e-02f,-3.66074473e-01f,-1.52479082e-01f,-5.88663407e-02f,1.03938937e-01f,1.03956228e-02f,9.97373685e-02f,5.89493811e-02f,-1.03878744e-01f,-1.07373871e-01f,4.15258072e-02f,5.50059602e-02f,3.79211530e-02f,1.10731497e-01f,1.09132677e-01f,1.44697651e-01f,-1.28384737e-38f,2.00055972e-01f,8.55434015e-02f,-2.48609081e-01f,6.23805560e-02f,-2.90611275e-02f,4.38159555e-02f,3.04154446e-03f,6.56203181e-02f,2.11763814e-01f,3.00950259e-01f,1.53692886e-01f,1.25843316e-01f,-3.62187251e-02f,6.99378923e-03f,-6.48664683e-02f,-3.33269872e-02f,1.14250921e-01f,4.91692778e-03f,2.55727638e-02f,-2.58219000e-02f,8.87347665e-03f,1.84130326e-01f,-1.58263937e-01f,-1.52682289e-01f,8.15666467e-02f,1.78928569e-01f,2.50863265e-02f,-1.72213191e-38f,1.30692631e-01f,2.28850216e-01f,8.15811455e-02f,8.99944082e-02f,2.31098846e-01f,2.67838631e-02f,2.79992297e-02f,3.82678062e-02f,1.21730708e-01f,6.31311238e-02f,1.49029687e-01f,2.32429221e-01f,1.80188403e-01f,-7.49880970e-02f,5.22651635e-02f,-2.97371931e-02f,-3.11382543e-02f,2.44528037e-02f,4.96604815e-02f,9.49304774e-02f,8.49095508e-02f,1.05002873e-01f,-6.87373383e-03f,-6.50821254e-02f,2.05186501e-01f,3.74614596e-02f,-9.07738134e-03f,-2.48150881e-02f,7.50482082e-02f,1.19277366e-01f,6.28814250e-02f,1.52587682e-01f,1.14172176e-02f,-4.10160907e-02f,-6.22539707e-02f,-1.29737630e-01f,3.68924737e-02f,2.10773200e-01f,1.68996245e-01f,3.44521999e-01f,1.31338894e-01f,3.26945558e-02f,8.01813155e-02f,1.99836805e-01f,1.22243941e-01f,1.14135528e-02f,1.71425462e-01f,-3.13413963e-02f,2.70679165e-02f,1.60286561e-01f,1.03091113e-02f,6.39461949e-02f,2.25845575e-01f,2.13024393e-01f,2.66585172e-08f,-2.45147590e-02f,-1.54623147e-02f,1.63427904e-01f,9.26692262e-02f,-4.41644192e-02f,-7.33426493e-03f,1.02108613e-01f,1.90065354e-01f,1.99877843e-01f,2.02686265e-01f,2.17781141e-01f,1.01239532e-01f,2.69381344e-01f,4.11195569e-02f,1.29680097e-01f,9.44302753e-02f,1.77944452e-01f,1.00209206e-01f,5.47621995e-02f,-1.77953348e-01f,-4.55460176e-02f,-1.89648997e-02f,1.13765702e-01f,-1.22056149e-01f,-5.76446252e-03f,2.03505784e-01f,-2.08696052e-01f,2.59382261e-07f,5.45123320e-39f,2.21304264e-39f,-1.02908030e-01f,9.77363586e-02f,5.24244681e-02f,1.56086296e-01f,1.31191850e-01f,6.36653900e-02f,1.00358270e-01f,1.14493579e-01f,9.42764431e-02f,2.17057005e-01f,9.93182138e-02f,-1.72789190e-02f,2.63673402e-02f,5.35131842e-02f,4.89037558e-02f,1.01360202e-01f,-1.65368155e-01f,-1.44031078e-01f,-1.71076700e-01f,1.27860710e-01f,3.81520957e-01f,1.02511510e-01f,7.36607797e-03f,-5.20977192e-02f,-2.88737684e-01f,6.06778911e-39f,4.55872378e-39f,1.16393182e-38f,1.57710840e-03f,-6.82338998e-02f,1.64337873e-01f,1.15226768e-01f,2.92896926e-02f,-1.78842217e-01f,-3.18034887e-02f,2.44259890e-02f,7.67204687e-02f,-6.81504905e-02f,1.29165366e-01f,-1.37493208e-01f,3.48544051e-03f,5.07483259e-02f,1.87303647e-01f,2.25896463e-01f,5.04266620e-02f,-7.04162046e-02f,-6.12200126e-02f,1.68200508e-01f,2.32519075e-01f,1.71933532e-01f,6.50375783e-01f,1.08425161e-02f,9.24807973e-03f,2.46118037e-39f,-1.02645463e-38f,3.72841941e-39f,-4.35833959e-03f,1.04379050e-01f,-1.50441244e-01f,-3.73868883e-01f,1.52022466e-02f,1.14857487e-01f,-1.74312636e-01f,-9.13456604e-02f,-5.89161217e-02f,-1.19963661e-01f,3.31745148e-02f,-1.32045388e-01f,2.80023329e-02f,1.23926207e-01f,1.31582037e-01f,2.04485115e-02f,-1.10679336e-01f,-6.30914420e-02f,2.16199249e-01f,5.13120234e-01f,3.24991643e-01f,1.85402378e-01f,4.29997206e-01f,1.19892173e-02f,2.50307824e-02f,7.83297956e-39f,-1.19823434e-38f,4.59249227e-39f,-1.07060604e-40f,1.59033015e-02f,-9.82585549e-02f,-3.58582616e-01f,-1.72022939e-01f,-2.54490990e-02f,-7.02252090e-02f,4.21107374e-02f,2.86534637e-01f,3.31147499e-02f,9.78808701e-02f,1.89037785e-01f,5.09920716e-01f,1.97161570e-01f,1.22301921e-01f,2.24983037e-01f,2.21808136e-01f,4.53187466e-01f,2.93946147e-01f,2.32298508e-01f,5.71448386e-01f,3.45136583e-01f,9.98417661e-02f,-3.22536175e-06f,-1.08579948e-38f,-8.97622050e-39f,-1.05170939e-38f,-1.05918896e-38f,1.50661557e-38f,3.80531286e-39f,-2.10185978e-03f,-2.02285927e-02f,1.71467230e-01f,2.68902332e-01f,2.61435509e-01f,8.48714858e-02f,2.61435777e-01f,2.03128174e-01f,2.33470574e-01f,2.26011008e-01f,4.47628319e-01f,3.20248455e-01f,1.48513928e-01f,8.32356587e-02f,2.03657135e-01f,2.36737102e-01f,-4.55225259e-03f,1.91766277e-01f,8.28219280e-02f,-8.68691225e-03f,-3.21101798e-39f,-1.47426618e-38f,1.66452930e-38f,-1.37310112e-38f},
